tree
version=v4
num_class=1
num_tree_per_iteration=1
label_index=0
max_feature_idx=13
objective=binary sigmoid:1
feature_names=daily_new_cases cumulative_cases new_cases_per_million days_since_first_case appearance_order n_countries_infected new_countries_7d out_degree_centrality in_degree_centrality pagerank_centrality betweenness_centrality n_neighbors n_infected_neighbors pct_neighbors_infected
feature_infos=[-0.069653788550722684:95.832276125745665] [-0.24320644333907418:13.675375753035404] [-0.246725186516463:53.519941854238695] [-1.5377779512298388:2.3890039517202819] [-1.2181244587499529:9.619341206319227] [-2.5245758937192151:0.86488758070590288] [-0.19256961245320042:10.976779207179684] [-1.3710463820025109:1.9427186069941949] [-1.2034068598420005:2.1112672371083754] [-0.39966460484681771:13.209980307363512] [-0.62140544737396031:7.0438374251456279] [-1.3710463820025109:1.9427186069941949] [-1.3514191470426922:1.9532019680555779] [-6.2879121987642055:0.18012770386729068]
tree_sizes=3345 3402 3395 3395 3398 3399 3394 3416 3415 3415 3410 3432 3414 3422 3426 3422 3418 3435 3433 3431 3426 3425 3424 3441 3423 3438 3422 3425 3426 3435 3431 3440 3421 3425 3421 3428 3441 3421 3402 3440 3431 3435 3433 3439 3439 3410 3407 3464 3404 3418 3441 3427 3449 3422 3429 3423 3427 3434 3422 3427 3441 3438 3443 3439 3440 3422 3440 3443 3409 3451 3442 3440 3405 3457 3430 3425 3427 3430 3435 3434 3463 3443 3409 3428 3452 3449 3458 3462 3445 3478 3448 3425 3452 3471 3422 3448 3461 3435 3437 3428 3426 3412 3459 3425 3428 3400 3455 3436 3444 3424 3463 3439 3451 3453 3453 3435 3427 3419 3442 3442 3441 3436 3424 3415 3436 3463 3424 3454 3458 3409 3463 3439 3410 3429 3458 3430 3439 3448 3434 3438 3444 3436 3426 3422 3422 3448 3454 3442 3451 3438 3475 3430 3433 3441 3437 3401 3421 3431 3414 3427 3453 3408 3426 3439 3445 3399 3453 3392 3438 3404 3438 3416 3440 3427 3437 3413 3428 3423 3429 3459 3424 3472 3433 3430 3411 3399 3396 3462 3437 3457 3414 3442 3416 3429 3421 3434 3445 3455 3420 3448 3418 3443 3414 3445 3451 3463 3430 3428 3440 3444 3427 3437 3404 3419 3410 3417 3436 3408 3415 3422 3421 3412 3419 3425 3410 3428 3447 3431 3430 3401 3420 3435 3414 3436 3432 3445 3454 3446 3411 3445 3411 3419 3406 3431 3435 3424 3460 3427 3400 3451 3443 3422 3420 3428 3435 3416 3437 3444 3441 3388 3413 3416 3454 3401 3383 3459 3455 3395 3439 3446 3419 3413 3428 3401 3449 3443 3444 3409 3445 3423 3414 3448 3448 3427 3417 3409 3406 3398 3401 3391 3424 3417 3410 3439 3420 3443 3428 3437 3427 3439 3427 3418 3442 3415 3421 3411 3446 3418 3480 3444 3425 3411 3449 3411 3436 3456 3436 3443 3438 3443 3404 3393 3405 3405 3396 3415 3452 3430 3416 3397 3408 3405 3442 3425 3416 3410 3427 3423 3430 3405 3438 3450 3415 3452 3406 3427 3423 3427 3429 3421 3452 3461 3460 3460 3453 3412 3385 3427 3417 3406 3424 3439 3443 3437 3416 3445 3429 3459 3393 3411 3424 3415 3460 3399 3402 3435 3429 3416 3436 3439 3423 3410 3418 3429 3423 3445 3428 3439 3420 3440 3403 3424 3415 3409 3438

Tree=0
num_leaves=31
num_cat=0
split_feature=3 5 5 6 3 5 5 3 5 3 5 5 5 5 5 5 5 5 3 3 3 3 5 5 4 3 3 3 11 4
split_gain=13138.6 6812.61 3435.03 3232.56 2707.98 1838.71 3413.82 1298.31 1872.47 1051.57 1009.57 1182.91 957.99 944.581 2694.48 773.771 747.606 632.803 2159.38 603.956 524.442 969.34 872.944 609.629 528.645 725.67 493.158 492.127 439.151 414.934
threshold=-0.91226248372463414 0.65594805146051904 -1.7042947789040035 1.0000000180025095e-35 -1.3582209783812527 0.47022402546462211 -0.89175216517195477 0.026597505026141759 0.71785606012581804 -1.1915733303779898 0.67142505362684368 0.70237905795949318 0.84167207745641581 0.22259199080342623 0.25354599513607573 0.60951704496154469 0.56308603846257055 0.70237905795949318 0.3199912515107593 -0.2210268170068754 -0.27735841633192193 -0.48390761385709263 0.5785630406288953 0.56308603846257055 -0.57719906995553905 -0.79725213510266413 0.5500119487546995 0.22258452767786627 -0.30352477480894113 -0.34413529221211586
decision_type=2 2 2 2 2 2 2 2 2 2 2 2 2 2 2 2 2 2 2 2 2 2 2 2 2 2 2 2 2 2
left_child=4 2 27 7 16 6 9 8 10 -6 -3 -12 17 -4 -15 -7 -1 26 -19 -13 21 24 23 -23 25 -16 -9 -2 -21 -28
right_child=1 3 13 -5 5 15 -8 12 -10 -11 11 19 -14 14 20 -17 -18 18 -20 28 -22 22 -24 -25 -26 -27 29 -29 -30 -31
leaf_value=-1.3359654392208684 -1.5314565638565165 -1.3154269745184646 -1.6759603472886642 -1.6759603472886642 -1.3488779973558604 -1.375540088206763 -1.6396927831731378 -1.3403890274913937 -1.6586035241353119 -1.5721629857533459 -1.6498624741526873 -1.4013134767621465 -1.6759603472886642 -1.3143735453113072 -1.3922624809198649 -1.5780278589810313 -1.6017794233750857 -1.3964156894865436 -1.6625029543939298 -1.4550991591045361 -1.6759603472886642 -1.6759603472886642 -1.6759603472886642 -1.3589633426688814 -1.6563539469549577 -1.6759603472886642 -1.3879476384732237 -1.4087772344268465 -1.6477595371100584 -1.6759603472886642
leaf_weight=1044.3733788132668 142.80250525474548 94.928065180778503 810.73199564218521 186.40060210227966 236.20139509439468 575.47798323631287 284.48977476358414 351.71363002061844 159.48639404773712 67.884857296943665 96.42642742395401 216.2412486076355 34.708123981952667 74.468464612960815 48.787415504455566 51.393050730228424 27.139318704605103 413.20225274562836 93.499710142612457 66.086048007011414 345.83672541379929 18.252877950668335 44.387680470943451 89.706616640090942 423.56226891279221 41.898651659488678 30.581415593624115 191.20014828443527 53.5415398478508 21.15674489736557
leaf_count=1862 702 138 5863 1348 470 1391 1892 652 1109 378 657 612 251 107 131 291 164 1137 656 244 2501 132 321 193 2930 303 80 564 363 153
internal_value=-1.61603 -1.55056 -1.60909 -1.4787 -1.40065 -1.45173 -1.5152 -1.45617 -1.50849 -1.39872 -1.46308 -1.4955 -1.41815 -1.63512 -1.60465 -1.39214 -1.3427 -1.40831 -1.44552 -1.45118 -1.626 -1.60008 -1.4893 -1.41256 -1.6329 -1.52334 -1.36159 -1.46123 -1.54133 -1.50572
internal_weight=0 4049.61 2231.64 1817.97 2286.96 1215.45 588.576 1631.57 686.71 304.086 527.223 432.295 944.862 1897.63 1086.9 626.871 1071.51 910.154 506.702 335.869 1012.43 666.596 152.347 107.959 514.248 90.6861 403.452 334.003 119.628 51.7382
internal_count=27595 21147 13747 7400 6448 4422 2740 6052 3123 848 2014 1876 2929 12481 6618 1682 2026 2678 1793 1219 6511 4010 646 325 3364 434 885 1266 607 233
is_linear=0
shrinkage=1


Tree=1
num_leaves=31
num_cat=0
split_feature=3 5 5 6 3 5 5 5 5 5 5 5 3 5 3 3 5 5 3 5 3 3 5 5 4 3 4 3 3 12
split_gain=9113.99 5464.83 2921.44 2492.65 1621.35 1179.41 2496.01 890.578 3031.36 804.822 783.361 2047.09 691.348 656.628 509.461 469.075 643.764 883.939 488.203 466.915 408.633 912.937 659.093 425.555 399.214 566.188 380.224 514.56 321.49 301.186
threshold=-0.89348528394961857 0.65594805146051904 -1.7042947789040035 1.0000000180025095e-35 -1.3582209783812527 0.47022402546462211 -0.89175216517195477 0.71785606012581804 0.77976406879111682 0.84167207745641581 0.22259199080342623 0.25354599513607573 -1.1915733303779898 0.60951704496154469 0.37045497590611348 0.0078203052511262357 0.67142505362684368 0.70237905795949318 -0.2210268170068754 0.56308603846257055 -0.27735841633192193 -0.48390761385709263 0.5785630406288953 0.56308603846257055 -0.34413529221211586 -0.79725213510266413 -0.34413529221211586 -1.2596406795624211 0.2049809028887892 -0.8302205147956494
decision_type=2 2 2 2 2 2 2 2 2 2 2 2 2 2 2 2 2 2 2 2 2 2 2 2 2 2 2 2 2 2
left_child=4 2 28 7 19 6 12 15 -9 14 -4 -12 -6 -7 -10 16 -3 -18 -19 -1 21 24 23 -23 25 -13 27 -8 -2 -20
right_child=1 3 10 -5 5 13 26 8 9 -11 11 20 -14 -15 -16 -17 17 18 29 -21 -22 22 -24 -25 -26 -27 -28 -29 -30 -31
leaf_value=0.22207027873758803 0.075656849886214184 0.23544385460571982 -0.059356416832586051 -0.059356416832586051 0.21349007766438138 0.19542269259385964 0.20808800480729461 -0.06010126833806817 0.20240548412720322 -0.059366923893319601 0.2361209227138335 0.17459688637200699 0.040234916180094338 0.023326640442774015 -0.059483178956079068 0.19300541673641847 -0.035116957997472061 0.17720611558415611 0.15770178394129136 0.013402983421643434 -0.059356416832586051 -0.059356416832586051 -0.059356416832586051 0.20669349981984941 -0.050135972760393527 -0.059393570284330059 -0.058470820780418965 -0.047813523050598612 0.17134183794512092 -0.012923478548672616
leaf_weight=1244.9591274261475 145.6792987883091 114.51691320538521 778.51002368330956 178.99224150180817 279.44530862569809 693.52798739075661 36.64978700876236 222.80450019240379 365.10972444713116 35.61289082467556 89.049872398376465 53.161783590912819 72.52205628156662 60.241001546382904 19.565395027399063 601.59423615038395 92.493373990058899 247.95439743995667 41.297635316848755 27.398250758647919 332.09168842434883 17.527430176734924 42.623523384332657 105.50101840496063 374.57427217066288 50.326268926262856 201.85740756988525 42.335593581199646 220.89232702553272 69.204370409250259
leaf_count=1862 678 138 5863 1348 470 1457 112 1606 763 268 106 139 392 347 146 1303 648 612 124 164 2501 132 321 193 2727 378 1478 303 574 442
internal_value=0 0.058516 0.00440019 0.118639 0.176818 0.139417 0.0890885 0.136239 0.0889939 0.168033 -0.0212359 0.00663374 0.177791 0.181669 0.189085 0.162273 0.129577 0.102693 0.138252 0.217577 -0.0143087 0.00893131 0.110086 0.16879 -0.0261196 0.0608073 -0.0220785 0.0709266 0.133316 0.0508439
internal_weight=0 4199.08 2209.94 1989.15 2658.94 1386.58 632.81 1810.15 643.093 420.288 1843.37 1064.86 351.967 753.769 384.675 1167.06 565.467 450.95 358.456 1272.36 975.806 643.714 165.652 123.028 478.062 103.488 280.843 78.9854 366.572 110.502
internal_count=27595 21010 13612 7398 6585 4559 2755 6050 2783 1177 12360 6497 862 1804 909 3267 1964 1826 1178 2026 6391 3890 646 325 3244 517 1893 415 1252 566
is_linear=0
shrinkage=0.05


Tree=2
num_leaves=31
num_cat=0
split_feature=3 3 5 5 5 3 3 5 5 3 5 6 5 5 5 5 8 5 5 3 3 6 5 5 5 3 5 5 5 3
split_gain=6935.38 3501.28 1121.59 708.428 1556.11 584.518 1465.83 1207.91 1371.79 1081.23 1288.43 677.016 1194.21 817.736 553.848 483.254 449.081 430.839 412.414 1258.51 383.218 345.343 342.638 763.701 303.961 289.201 277.215 267.08 1042.24 246.57
threshold=0.5500119487546995 -1.3112779789437139 -1.7042947789040035 0.22259199080342623 0.25354599513607573 0.026597505026141759 -0.89348528394961857 0.47022402546462211 -0.89175216517195477 -0.49916408867429279 0.71785606012581804 1.0000000180025095e-35 -2.1686048438937457 0.65594805146051904 0.84167207745641581 0.60951704496154469 -0.43591520652127563 -2.2537283558085313 0.70237905795949318 0.33642130131389786 -1.1587132307717127 1.0000000180025095e-35 0.16068398213812726 0.19163798647077676 0.65594805146051904 -0.12362009317398238 0.56308603846257055 0.3386695070508618 0.23806899296975095 -0.81133503493392567
decision_type=2 2 2 2 2 2 2 2 2 2 2 2 2 2 2 2 2 2 2 2 2 2 2 2 2 2 2 2 2 2
left_child=1 22 -2 -4 -5 6 7 8 20 16 21 13 -13 17 18 -9 29 -7 -15 -20 -3 25 -1 -24 -6 -11 27 28 -25 -8
right_child=2 5 3 4 24 11 9 15 -10 10 -12 12 -14 14 -16 -17 -18 -19 19 -21 -22 -23 23 26 -26 -27 -28 -29 -30 -31
leaf_value=0.1973590949520595 0.12972111545024062 0.16585282253683786 -0.058817214824813668 0.19697693160402327 -0.058817214824813668 0.11461392000203606 0.11101019606467602 0.16586513547011492 -0.037399538960968849 0.11927326175076894 -0.044168119105481136 0.20183330353412249 -0.058832813686029176 0.18782855419553446 -0.058817121921096872 0.016879803303836424 -0.053775300288346754 -0.056225526523174918 0.15390392567170111 -0.0541237981313396 0.022340437638723714 -0.052120708465270553 -0.063483363592690162 0.18274438598688214 0.057990931672099656 0.041584988269842971 0.019435749173222161 0.20198041969695432 -0.064934782352861417 0.0035109889983392256
leaf_weight=955.17180030047894 123.087542116642 201.05813859403133 726.13107579946518 98.187646806240082 237.41351249814034 67.66861492395401 79.51835997402668 769.72322738170624 216.97286912798882 732.72456453740597 185.59589040279388 67.142010033130646 127.14757153391838 465.2113992869854 31.986233308911324 58.570363238453865 284.90085978806019 81.174580201506615 531.63668289780617 84.220799952745438 60.517798289656639 35.679174542427063 39.169933274388313 220.68107710778713 72.763840556144714 143.20440952479839 31.502553254365921 328.39040644466877 52.598107159137726 162.04308903217316
leaf_count=1104 323 366 5698 103 1863 206 273 1446 1555 2307 1386 103 997 652 251 337 2167 617 1167 601 333 270 246 343 313 704 181 368 306 1009
internal_value=0 0.115479 -0.0136338 -0.0291871 0.0234994 0.0922413 0.0793755 0.118792 0.05555 0.0476503 0.0759135 0.118133 0.0312474 0.131511 0.146229 0.15533 -0.0112531 0.0214432 0.152296 0.125455 0.13265 0.100361 0.178111 0.150767 -0.0314154 0.106572 0.164021 0.171591 0.135074 0.0388981
internal_weight=0 6014.21 1257.58 1134.5 408.365 4386.7 2930.51 1306.84 478.549 1623.67 1097.2 1456.19 194.29 1261.9 1113.06 828.294 526.462 148.843 1081.07 615.857 261.576 911.608 1627.51 672.342 310.177 875.929 633.172 601.67 273.279 241.561
internal_count=27595 19295 8300 7977 2279 16747 12153 4037 2254 8116 4667 4594 1100 3494 2671 1783 3449 823 2420 1768 699 3281 2548 1444 2176 3011 1198 1017 649 1282
is_linear=0
shrinkage=0.05


Tree=3
num_leaves=31
num_cat=0
split_feature=3 3 3 3 3 3 3 7 8 10 3 7 7 2 10 3 8 3 3 7 8 3 7 13 3 3 3 2 9 3
split_gain=5642.14 2627.6 811.136 456.316 1166.08 914.503 605.929 1184.84 413.434 411.611 374.481 248.601 225.131 190.99 186.269 361.17 261.874 177.116 376.743 216.171 176.981 367.363 155.959 150.117 145.623 136.017 130.193 148.829 119 172.897
threshold=0.5500119487546995 -1.3112779789437139 1.0663849425676264 0.026597505026141759 -0.89348528394961857 -0.49916408867429279 -1.0789101317278968 -0.30352477480894113 -0.43591520652127563 -0.16032271181767063 -0.12362009317398238 -0.55928515986573379 1.1198373681158185 -0.24658685465119681 -0.16032271181767063 -1.3582209783812527 -0.95869937617452283 0.84575284521119387 0.79763627078771659 -0.30352477480894113 1.2881602465904973 -1.1258531311654356 -0.71496539424812944 1.0000000180025095e-35 -0.0086097445520123429 -1.2103505301530053 -0.79725213510266413 -0.24648488494022489 -0.27704523663801711 -1.3934282279594068
decision_type=2 2 2 2 2 2 2 2 2 2 2 2 2 2 2 2 2 2 2 2 2 2 2 2 2 2 2 2 2 2
left_child=1 14 9 4 6 8 7 20 12 17 -7 24 26 -8 15 23 -17 18 19 -2 25 -22 -20 -1 -12 -3 -6 -28 -25 -30
right_child=2 3 -4 -5 5 10 13 -9 -10 -11 11 -13 -14 -15 -16 16 -18 -19 22 -21 21 -23 -24 28 -26 -27 27 -29 29 -31
leaf_value=0.16851997410464775 0.036815993075370743 0.14818927997205467 -0.05831634041824299 0.10558902785298237 0.11462551447598091 0.083223044237245358 0.039589750994815778 -0.060499044743036107 -0.053096966676272284 0.08552090480277752 0.020734290294872185 -0.049263690856619885 -0.041189637673218087 0.13900663378899167 0.1719522557569656 0.14323398518388197 -0.059541036051444785 -0.043682099075565417 -0.058551991789680569 -0.058955137315815677 -0.042157798429140692 0.16291189286972607 0.12868848036230093 0.14941535429623062 0.13519605291900069 0.078899798859550743 0.090394826139126763 -0.030493142223543157 0.11317341348127348 -0.042191677005066652
leaf_weight=439.3474902510643 111.23376523703337 215.70269195735455 552.96218997240067 1543.4865024909377 76.968499884009361 918.24227403104305 51.475749030709267 139.60008001327515 274.38070930540562 190.55346439778805 88.142421245574951 96.727004200220108 68.260849595069885 785.30494903028011 852.62960533797741 27.569638058543205 37.688304916024208 162.8085468262434 12.841912761330603 125.28329131007195 50.910257160663605 38.244975209236145 82.998909965157509 239.33019940555096 40.5807049497962 105.4530241638422 49.702348113059998 52.199593514204025 153.70186293125153 20.268259197473526
leaf_count=496 576 403 4523 4594 214 3364 239 1025 2167 670 473 708 488 1571 904 58 283 1251 104 986 337 63 190 364 122 399 207 373 343 100
internal_value=0 0.103373 -0.0132593 0.0834338 0.0722289 0.0440252 0.106097 0.0653263 -0.0108469 0.0230745 0.0690463 0.0113053 0.0360619 0.132891 0.155125 0.139495 0.0261257 -0.000956541 0.019973 -0.0139141 0.108136 0.0458111 0.1036 0.148172 0.056819 0.125438 0.0655427 0.0284696 0.126541 0.0950727
internal_weight=0 6365.92 1238.68 4595.38 3051.9 1665.2 1386.69 549.911 521.512 685.72 1143.69 225.45 247.131 836.781 1770.54 917.906 65.2579 495.166 332.358 236.517 410.311 89.1552 95.8408 852.648 128.723 321.156 178.87 101.902 413.3 173.97
internal_count=27595 19295 8300 16747 12153 8116 4037 2227 3449 3777 4667 1303 1282 1810 2548 1644 341 3107 1856 1562 1202 400 294 1303 595 802 794 580 807 443
is_linear=0
shrinkage=0.05


Tree=4
num_leaves=31
num_cat=0
split_feature=3 3 5 3 5 6 5 5 5 5 5 5 5 5 5 5 3 3 3 3 3 4 3 5 5 3 7 6 5 3
split_gain=4715.96 2422.8 469.857 452.599 1317.47 1622.73 1548.16 761.535 995.127 512.108 1978.38 476.206 374.117 606.624 575.795 358.14 306.063 295.748 293.285 291.975 260.148 251.007 247.297 235.703 214.486 212.911 221.272 179.458 355.32 303.136
threshold=0.86687719495808635 -1.3112779789437139 -2.1686048438937457 -0.89348528394961857 0.65594805146051904 1.0000000180025095e-35 0.25354599513607573 0.47022402546462211 -0.89175216517195477 0.71785606012581804 0.77976406879111682 0.84167207745641581 0.60951704496154469 0.56308603846257055 0.5785630406288953 0.60951704496154469 -0.81133503493392567 0.37045497590611348 -0.79725213510266413 -0.3395578905866608 -1.1258531311654356 0.12199226327473049 0.22258452767786627 0.50117802979727155 0.65594805146051904 -0.48390761385709263 -0.80392552818092688 1.0000000180025095e-35 0.50117802979727155 -1.0789101317278968
decision_type=2 2 2 2 2 2 2 2 2 2 2 2 2 2 2 2 2 2 2 2 2 2 2 2 2 2 2 2 2 2
left_child=1 23 -2 7 6 9 22 8 20 19 -11 17 13 16 25 27 -8 -12 -16 21 -3 -6 -5 -1 -17 26 -15 29 -29 -9
right_child=2 3 -4 4 5 -7 12 15 -10 10 11 -13 -14 14 18 24 -18 -19 -20 -21 -22 -23 -24 -25 -26 -27 -28 28 -30 -31
leaf_value=0.14068327218161963 0.12084147234986604 0.12752615918541649 -0.052520561104031173 0.047694436595317614 -0.064513646177117162 -0.059207968649387092 0.16563153420005336 0.060193308569206141 -0.036562171332243106 -0.06044582670537673 0.13897917593421383 -0.059254052081536016 -0.059069474130125837 0.15709615851422704 0.082044320242550248 -0.062114569211142889 -0.058519896144402242 -0.059487073298414211 -0.058513640464022458 0.12121726970997211 0.0050095676051238134 0.11730552646512574 0.11863446899429186 0.012659411382759925 0.1267181578317064 0.14859989626085451 -0.05893589456628328 0.17033236324792816 0.062209109588172828 0.16342067696033533
leaf_weight=1847.9262774437666 41.391580268740654 242.3037411570549 701.03155548870564 190.08012840151787 40.533347010612488 176.95440703630447 16.152022689580917 83.737372517585754 211.12086607515812 221.74310840666294 463.7587978541851 35.313361749053001 299.34468268603086 19.656086303293705 54.753464415669441 40.315671071410179 266.45959455519915 19.562856703996658 115.18740339577198 1346.424066722393 52.763096511363983 35.701586961746216 347.33582974970341 36.665370896458626 23.983760386705399 130.47882521152496 29.858256876468658 118.98145127296448 210.25998206436634 471.97658544778824
leaf_count=2363 90 413 5817 808 240 1348 23 248 1555 1606 763 268 2333 76 201 257 2156 146 930 2931 286 96 750 185 80 193 235 114 570 514
internal_value=0 0.0895433 -0.0428553 0.0721286 0.0630668 0.0863674 0.0259587 0.0958457 0.0463175 0.0982767 0.0645524 0.117996 -0.0130171 0.00877658 0.0527799 0.122257 -0.045709 0.130946 -0.0132271 0.115827 0.105618 0.0206341 0.0935435 0.138193 0.00832025 0.115101 0.026824 0.130535 0.101283 0.147866
internal_weight=0 7149.33 742.423 5264.74 3809.3 2339.99 1469.31 1455.44 506.188 2163.04 740.378 518.635 931.89 632.546 349.934 949.255 282.612 483.322 169.941 1422.66 295.067 76.2349 537.416 1884.59 64.2994 179.993 49.5143 884.955 329.241 555.714
internal_count=27595 21688 5907 19140 15103 7398 7705 4037 2254 6050 2783 1177 6147 3814 1635 1783 2179 909 1131 3267 699 336 1558 2548 337 504 311 1446 684 762
is_linear=0
shrinkage=0.05


Tree=5
num_leaves=31
num_cat=0
split_feature=3 3 3 3 6 5 5 5 3 5 5 5 8 5 3 5 5 5 3 5 5 3 5 3 5 3 10 5 8 3
split_gain=4114.56 1961.52 440.719 1051.4 625.8 863.364 588.208 551.783 802.967 533.366 1102.01 396.185 376.53 359.63 570.12 560.397 586.799 345.194 380.045 630.595 332.723 304.774 278.303 275.672 265.787 240.591 235.784 231.838 222.848 242.524
threshold=0.84575284521119387 -1.344138078549991 -0.89348528394961857 -0.49916408867429279 1.0000000180025095e-35 0.20711498863710151 0.65594805146051904 0.25354599513607573 -0.27735841633192193 0.47022402546462211 -0.97687567708674095 -2.1686048438937457 -0.43591520652127563 0.67142505362684368 0.026597505026141759 0.71785606012581804 0.70237905795949318 0.84167207745641581 0.35519850108891343 0.70237905795949318 0.5785630406288953 -0.2210268170068754 0.60951704496154469 0.24136172745288179 0.56308603846257055 -1.1915733303779898 -0.57543390807469275 0.65594805146051904 -0.8029764320224918 -1.2596406795624211
decision_type=2 2 2 2 2 2 2 2 2 2 2 2 2 2 2 2 2 2 2 2 2 2 2 2 2 2 2 2 2 2
left_child=1 -1 9 12 6 -6 7 23 20 10 25 -2 -4 -8 15 16 26 18 -16 -20 24 -18 -11 -5 -9 -3 -15 -24 29 -12
right_child=11 2 3 4 5 -7 13 8 -10 22 28 -13 -14 14 17 -17 21 -19 19 -21 -22 -23 27 -25 -26 -27 -28 -29 -30 -31
leaf_value=0.12761439198202892 0.097730489993104949 0.1245471194063088 0.03512826039032637 0.021895381578397644 0.11655957775443365 -0.058752097015624997 0.14163007826954535 -0.060230172696948449 -0.058032839163201955 0.12002778968906558 0.1495813219910675 -0.050907671407891514 -0.04997473550970985 0.19725931631543006 0.12261368308539439 -0.042796710461660913 0.11933194787518231 -0.058707752311250354 0.10258098474959657 -0.058169865482920725 -0.060209865378584276 0.031680122113135908 -0.06139017377366221 0.11599385063700013 0.12599386822540176 0.028142316559636629 -0.061766738417826476 0.12272241516523881 -0.053527010206849239 -0.038579986317374755
leaf_weight=1878.0390275418758 47.994326204061508 334.85624642670155 263.40138141810894 113.56067365407944 107.32840242981911 203.16671901196241 288.77751138806343 21.853692293167114 245.23393440246582 941.63867621123791 32.891200736165047 680.16199991852045 256.5763511583209 9.6699319779872877 914.23459704220295 141.74275942146778 322.7453965395689 32.465213865041733 220.81567567586899 84.2976194024086 37.877701446413994 143.16590887308121 40.314912125468254 247.39891992509365 155.46488793194294 80.22212065756321 96.059805706143379 29.691214606165886 189.79968483746052 35.726411715149879
leaf_count=2255 106 428 1310 502 196 1605 364 155 2065 1426 79 5832 2166 19 1471 1096 598 257 415 579 269 608 267 444 261 381 627 87 1504 251
internal_value=0 0.0834039 0.0685533 0.0593325 0.0694986 0.00184764 0.0763288 0.0401056 0.00382064 0.0899253 0.0554498 -0.0411106 -0.00686472 0.0895292 0.0818732 0.0461987 0.0682658 0.102203 0.106488 0.0581683 0.0743078 0.0923982 0.112877 0.0863897 0.103043 0.105915 -0.0380765 0.0166962 -0.0256091 0.0516133
internal_weight=0 7469.02 5590.98 3905.84 3385.86 310.495 3075.36 821.39 460.43 1685.14 673.496 728.156 519.978 2253.97 1965.2 713.384 571.641 1251.81 1219.35 305.113 215.196 465.911 1011.64 360.96 177.319 415.078 105.73 70.0061 258.417 68.6176
internal_count=27623 21685 19430 15007 11531 1801 9730 3696 2750 4423 2643 5938 3476 6034 5670 2948 1852 2722 2465 994 685 1206 1780 946 416 809 646 354 1834 330
is_linear=0
shrinkage=0.05


Tree=6
num_leaves=31
num_cat=0
split_feature=1 5 5 5 5 5 5 6 5 5 5 5 5 5 5 6 5 5 6 5 5 7 5 5 5 5 6 5 5 6
split_gain=2088.58 1537.74 1859.09 380.572 936.371 439 734.357 678.66 715.884 326.085 1624.35 311.117 1571.79 352.589 248.879 247.672 207.219 614.302 176.152 163.602 159.86 148.557 135.391 126.223 433.945 99.9887 97.4603 129.269 139.388 88.8671
threshold=-0.24301435724682346 0.22259199080342623 -1.7042947789040035 0.23806899296975095 0.47022402546462211 0.51665503196359641 0.54760903629624591 1.0000000180025095e-35 0.59404004279522005 0.65594805146051904 0.60951704496154469 0.71785606012581804 0.77976406879111682 0.84167207745641581 0.51665503196359641 6.6719260162795111 0.5785630406288953 0.59404004279522005 2.9488097430685487 0.81071807312376631 0.67142505362684368 -0.99296581278812146 0.79524107095744168 0.36962351138351129 0.3386695070508618 0.54760903629624591 0.62186207231169754 0.60951704496154469 0.65594805146051904 0.38916730523601234
decision_type=2 2 2 2 2 2 2 2 2 2 2 2 2 2 2 2 2 2 2 2 2 2 2 2 2 2 2 2 2 2
left_child=14 2 29 -3 18 -6 -7 9 -9 10 16 20 -13 19 21 -4 -8 -18 23 22 -11 -1 -14 24 -5 -16 27 -27 -29 -2
right_child=1 3 15 4 5 6 7 8 -10 11 -12 12 13 -15 25 -17 17 -19 -20 -21 -22 -23 -24 -25 -26 26 -28 28 -30 -31
leaf_value=0.073051979828647751 0.074310271780429635 0.12806198328359228 -0.055730052759845508 -0.060757156485929414 0.12419672276411603 -0.063071405489908097 0.10584827187808837 0.081910206873012648 -0.060076495652154477 0.12848650374770695 -0.058583161227944491 -0.060331790926509102 0.086745797977035743 -0.058304545681617928 -0.069376173370476177 0.13398584079916306 -0.058427744770366642 0.11170577174628016 0.13500802808298895 0.13096519988660915 0.087983190070175132 0.1134272243405806 -0.05900623781020628 -0.055356976661556589 0.11516602459889275 0.10135521211044346 -0.063839034156068217 -0.05896561346611371 0.070281346974166103 0.13290165513398608
leaf_weight=255.17644371092319 282.61529114842415 212.62592938542366 690.20110980421305 91.249912574887276 303.06585456430912 114.44524888694286 485.91749973595142 155.09809866547585 207.59892190992832 303.838957041502 259.94709101319313 208.56312255561352 190.2251553311944 33.234584100544453 14.401614293456076 17.642943501472473 84.869256787002087 141.54603952169418 17.579698920249939 336.89295740425587 1229.0066759437323 2125.6162465959787 17.389668226242065 181.70886985212564 56.918160140514374 153.66740687191486 13.702135249972342 31.446621850132942 61.967843852937222 83.937121540307999
leaf_count=600 755 330 6080 719 345 837 1066 331 1626 365 2122 1570 379 273 78 15 711 349 15 406 2881 3025 137 1553 113 325 81 252 211 73
internal_value=0 0.0502213 -0.00367131 0.0627225 0.0595787 0.0663022 0.0616463 0.0655524 0.000640484 0.0727053 0.0483994 0.0828953 0.0573259 0.0998 0.103896 -0.0510014 0.0874399 0.0479331 -0.0192096 0.10945 0.0960117 0.1091 0.0745377 -0.0274281 0.00682302 0.0588768 0.0659595 0.0731576 0.0267722 0.0877272
internal_weight=0 5706.12 1074.4 4631.72 4419.1 4071.64 3768.57 3654.13 362.697 3291.43 972.28 2319.15 786.305 577.742 2655.98 707.844 712.333 226.415 347.457 544.508 1532.85 2380.79 207.615 329.877 148.168 275.186 260.784 247.082 93.4145 366.552
internal_count=27623 23051 6923 16128 15798 13398 13053 12216 1957 10259 4248 6011 2765 1195 4572 6095 2126 1060 2400 922 3246 3625 516 2385 832 947 869 788 463 828
is_linear=0
shrinkage=0.05


Tree=7
num_leaves=31
num_cat=0
split_feature=3 3 5 3 3 6 5 5 5 5 5 8 5 5 3 5 5 5 5 3 4 3 4 3 3 5 7 5 3 5
split_gain=3121.64 1475.7 328.098 322.053 828.378 449.775 690.986 418.661 428.661 416.087 862.212 325.044 277.516 807.226 250.997 581.407 292.675 486.584 261.657 250.934 231.599 237.185 222.096 219.991 201.745 194.416 186.195 183.804 176.347 611.577
threshold=0.84575284521119387 -1.344138078549991 -2.1686048438937457 -0.89348528394961857 -0.49916408867429279 1.0000000180025095e-35 0.20711498863710151 0.65594805146051904 0.5785630406288953 0.47022402546462211 -0.97687567708674095 -0.43591520652127563 0.56308603846257055 0.25354599513607573 0.026597505026141759 0.71785606012581804 0.67142505362684368 0.70237905795949318 0.84167207745641581 -0.22454754196469082 -0.46066718108382748 -1.2596406795624211 0.70465170763328866 0.24136172745288179 -1.1915733303779898 0.60951704496154469 1.1198373681158185 0.65594805146051904 0.35519850108891343 0.70237905795949318
decision_type=2 2 2 2 2 2 2 2 2 2 2 2 2 2 2 2 2 2 2 2 2 2 2 2 2 2 2 2 2 2
left_child=1 -1 -2 9 11 7 -7 8 12 10 24 26 13 23 15 16 -9 22 28 -19 21 -12 -18 -6 -3 -11 -5 -27 -16 -30
right_child=2 3 -4 4 5 6 -8 14 -10 25 20 -13 -14 -15 18 -17 17 19 -20 -21 -22 -23 -24 -25 -26 27 -28 -29 29 -31
leaf_value=0.10890953841548101 0.081246541464412167 0.10568353980102574 -0.049722525488741856 0.052910685922474367 0.015917733498942096 0.097566014597269532 -0.057791961751182987 0.13286201372019849 -0.058104330730342726 0.10193580923187127 0.12980010055713251 -0.049296374091090514 0.10496901830601185 -0.057380772706404543 0.10378324741928246 -0.041172058528883934 -0.062133677915641797 0.1043935330956358 -0.057755254304700569 0.031253874054300759 -0.057064177257582775 -0.045475869592453609 0.18573008508883729 0.097600005736057566 0.020368687600842247 -0.060101638935784456 -0.043814071470943343 0.1021504939931776 0.092632313085779475 -0.057918150196335574
leaf_weight=1992.5299210399389 51.746749609708786 356.72767958045006 630.11850755661726 208.67615722119808 119.54384499788284 115.99274979531765 186.8894135132432 157.13265456259251 107.73071482032537 1005.9807126224041 40.549237087368965 246.37391959875822 168.69801656901836 174.55802451074123 984.00423568487167 133.15447977930307 98.902818903326988 314.69326351583004 29.872433684766293 186.93338936567307 180.01166227459908 36.833538644015789 9.9465550631284696 265.5164922773838 85.998897776007652 37.302496418356895 65.331641413271427 32.804965779185295 390.08023557066917 81.561534494161606
leaf_count=2255 106 428 5832 818 502 196 1605 134 906 1426 81 2166 261 1583 1474 1096 634 519 257 687 1477 276 12 444 381 267 492 87 642 579
internal_value=0 0.071769 -0.0397833 0.0590575 0.0512653 0.0599581 0.00170444 0.0654336 0.0349854 0.0768054 0.0468033 -0.00762246 0.048755 0.0318092 0.0761013 0.0552767 0.0720074 0.0563438 0.0887286 0.0771377 -0.0259678 0.0463702 -0.0394841 0.0722413 0.0891113 0.0963253 0.0298486 0.01582 0.0917347 0.0665975
internal_weight=0 7814.33 681.865 5821.8 4045.59 3525.21 302.882 3222.33 836.047 1776.21 700.121 520.382 728.316 559.618 2386.28 900.763 767.609 610.476 1485.52 501.627 257.394 77.3828 108.849 385.06 442.727 1076.09 274.008 70.1075 1455.65 471.642
internal_count=27623 21685 5938 19430 15007 11531 1801 9730 3696 4423 2643 3476 2790 2529 6034 3082 1986 1852 2952 1206 1834 357 646 946 809 1780 1310 354 2695 1221
is_linear=0
shrinkage=0.05


Tree=8
num_leaves=31
num_cat=0
split_feature=3 3 5 3 3 6 5 5 5 5 5 8 4 5 5 5 5 5 3 3 3 3 5 3 4 7 5 5 9 5
split_gain=2755.51 1282.11 301.466 293.001 728.366 389.439 622.019 356.008 388.241 320.226 842.253 300.254 245.831 235.56 723.132 225.536 1272.11 263.84 213.691 194.436 192.615 186.918 175.003 168.121 258.002 165.04 162.18 165.959 160.974 140.13
threshold=0.84575284521119387 -1.3582209783812527 -2.1686048438937457 -0.89348528394961857 -0.49916408867429279 1.0000000180025095e-35 0.20711498863710151 0.65594805146051904 0.5785630406288953 0.47022402546462211 -0.97687567708674095 -0.43591520652127563 -0.34413529221211586 0.56308603846257055 0.25354599513607573 0.71785606012581804 0.77976406879111682 0.84167207745641581 -1.2596406795624211 -0.3395578905866608 0.50189537433122222 -1.1915733303779898 0.50117802979727155 0.24136172745288179 -0.34413529221211586 1.1198373681158185 0.60951704496154469 0.65594805146051904 0.078927883629412526 0.22259199080342623
decision_type=2 2 2 2 2 2 2 2 2 2 2 2 2 2 2 2 2 2 2 2 2 2 2 2 2 2 2 2 2 2
left_child=1 22 -2 9 11 7 -7 8 13 10 21 25 18 14 20 19 -17 23 -12 28 -6 -3 -1 -18 -25 -5 -11 -28 -9 -4
right_child=2 3 29 4 5 6 -8 15 -10 26 12 -13 -14 -15 -16 16 17 -19 -20 -21 -22 -23 -24 24 -26 -27 27 -29 -30 -31
leaf_value=0.10457751766506676 0.075108167333450937 0.099678950199611982 -0.056456408649854253 0.048901346322197135 0.02991381806700277 0.089981886449087042 -0.057354666377898433 -0.066347934197551098 -0.057648197584999311 0.094369591904696959 0.10602954983844402 -0.048632107805672717 -0.05699826432843666 0.096766663467462627 -0.056971493223721553 -0.060023340855876899 0.10477209969720386 -0.057356566826601257 -0.04595258940000875 0.085415758244829304 0.10004206794338576 0.019129702985432762 -0.0050598094142890598 0.09875928601480527 -0.072908210730505005 -0.042945793365351093 -0.059512580104144612 0.092511681943245258 0.082693358124398209 0.029246742983421226
leaf_weight=1908.9100008010864 53.138892784714699 419.18262383341789 554.75731083750725 214.3423979729414 184.33130769431591 119.38689425587654 179.0957448631525 39.559997364878654 103.26688382774591 1035.5770380049944 55.195411056280136 237.47844887524843 180.7439332306385 173.70863522589207 167.20733712613583 200.03116454184055 483.84663520753384 30.728493601083755 39.808972649276257 1550.8397418558598 208.85356146097183 86.964680597186089 37.104765474796295 55.356534093618393 36.19980300962925 63.370040610432625 35.825521126389503 35.983070150017738 33.42344169318676 52.181857764720917
leaf_count=1921 106 479 5501 818 656 196 1605 234 906 1433 114 2166 1512 261 1583 1586 610 275 313 2952 290 381 167 97 210 492 267 91 70 331
internal_value=0 0.0672422 -0.0390898 0.0557542 0.0482177 0.0562467 0.00157691 0.061241 0.0331255 0.0720337 0.047536 -0.0073544 -0.022771 0.0458947 0.0301256 0.0709295 0.0493105 0.0853921 0.0423456 0.0816624 0.0671648 0.0858392 0.102487 0.0930154 0.0308849 0.0279431 0.0893309 0.0166663 0.00190691 -0.049088
internal_weight=0 7916.32 660.078 5970.31 4081.03 3565.84 298.483 3267.35 837.368 1889.28 781.896 515.191 275.748 734.101 560.392 2429.99 806.163 606.131 95.0044 1623.82 393.185 506.147 1946.01 575.403 91.5563 277.712 1107.39 71.8086 72.9834 606.939
internal_count=27623 21685 5938 19597 15007 11531 1801 9730 3696 4590 2799 3476 1939 2790 2529 6034 2778 1192 427 3256 946 860 2088 917 307 1310 1791 358 304 5832
is_linear=0
shrinkage=0.05


Tree=9
num_leaves=31
num_cat=0
split_feature=3 3 6 3 3 6 5 5 5 8 5 5 5 5 3 5 5 5 3 5 7 5 5 8 3 10 5 7 3 3
split_gain=2447.19 1132.47 279.952 257.343 643.153 338.499 562.964 303.631 352.91 277.677 270.673 744.324 202.273 650.71 199.797 440.471 249.816 405.292 218.154 201.252 181.068 175.684 267.276 170.399 167.415 161.879 153.937 146.81 141.408 140.735
threshold=0.84575284521119387 -1.3582209783812527 0.15647253816032725 -0.89348528394961857 -0.49916408867429279 1.0000000180025095e-35 0.20711498863710151 0.65594805146051904 0.5785630406288953 -0.43591520652127563 0.47022402546462211 -0.97687567708674095 0.56308603846257055 0.25354599513607573 0.026597505026141759 0.71785606012581804 0.67142505362684368 0.70237905795949318 -0.2210268170068754 0.84167207745641581 -0.30352477480894113 0.22259199080342623 -2.2537283558085313 -0.8029764320224918 -1.2080033801811285 -0.57543390807469275 0.50117802979727155 1.1198373681158185 -1.226780579956144 0.35519850108891343
decision_type=2 2 2 2 2 2 2 2 2 2 2 2 2 2 2 2 2 2 2 2 2 2 2 2 2 2 2 2 2 2
left_child=1 26 -2 10 9 7 -7 8 12 27 11 24 13 21 15 16 -9 25 -19 29 -20 22 -6 28 -3 -18 -1 -5 -13 -16
right_child=2 3 -4 4 5 6 -8 14 -10 -11 -12 23 -14 -15 19 -17 17 18 20 -21 -22 -23 -24 -25 -26 -27 -28 -29 -30 -31
leaf_value=0.098127153750818222 -0.04474513432520618 0.095272647824792944 0.13580895095381246 0.045330567307401107 0.063393785663151764 0.083509497337460811 -0.056944942553092209 0.11658504823482981 -0.057220971225172869 -0.047977822508404766 0.083364242694996857 0.091588442132639752 0.089825344140000707 -0.056587508924293234 0.090260635794122579 -0.039489518917597353 0.12902740349887709 0.086786539523684536 0.063525804920094145 -0.056912025022816892 -0.0433983689114259 0.11284309227755025 -0.065418653500923823 -0.047350076961253817 0.025471476778007693 -0.062056018320522335 -0.0048197058316170544 -0.042088792708650846 -0.049519362465745877 0.057608104102055517
leaf_weight=1932.0120664685965 616.15239428728819 403.88999173045158 22.243934273719788 219.52521023154259 229.55381025373936 122.13224656879902 171.55582648515701 164.01260901987553 98.945313513278961 228.89938548207283 1126.6816017329693 49.20058898627758 177.66591367125511 160.10446230322123 1027.1673825234175 124.63237074017525 12.515367448329924 367.63038037717342 91.009979590773582 27.419109001755714 70.084499061107635 121.56141889095306 48.837889358401299 192.47497557103634 109.10983909666538 96.891504541039467 37.008091554045677 61.475791469216347 27.778990663588047 486.19258260726929
leaf_count=1921 5919 440 19 818 561 196 1605 134 906 2166 1791 119 261 1583 1474 1096 19 598 234 257 374 98 287 1600 420 627 167 492 220 1221
internal_value=0 0.0632781 -0.038454 0.0525071 0.0454577 0.0529057 0.00146402 0.057478 0.0314485 -0.00709616 0.067675 0.0450835 0.0433411 0.028595 0.0663037 0.0479589 0.0615461 0.0474 0.0655261 0.0773381 0.0170082 0.0626942 0.0407964 -0.0222045 0.0804266 -0.0401974 0.0961922 0.0262055 0.040668 0.0797705
internal_weight=0 7985.97 638.396 6016.95 4107.81 3597.91 293.688 3304.22 836.669 509.9 1909.14 782.454 737.723 560.058 2467.56 926.777 802.144 638.132 528.725 1540.78 161.094 399.953 278.392 269.455 513 109.407 1969.02 281.001 76.9796 1513.36
internal_count=27623 21685 5938 19597 15007 11531 1801 9730 3696 3476 4590 2799 2790 2529 6034 3082 1986 1852 1206 2952 608 946 848 1939 860 646 2088 1310 339 2695
is_linear=0
shrinkage=0.05


Tree=10
num_leaves=31
num_cat=0
split_feature=3 3 5 3 3 5 6 5 5 5 5 5 4 5 5 5 5 5 3 3 3 5 3 7 5 5 7 3 4 3
split_gain=2208.98 1003.8 255.902 218.901 685.612 294.08 273.608 562.98 311.769 299.568 235.018 644.634 227.589 196.663 1086.47 210.96 186.941 568.16 183.917 180.892 172.786 168.872 168.591 166.584 158.3 146.216 143.013 139.068 128.872 124.822
threshold=0.86687719495808635 -1.3582209783812527 -2.1686048438937457 -0.8758816591605415 -0.48390761385709263 -2.3156363644738307 1.0000000180025095e-35 0.20711498863710151 0.65594805146051904 0.5785630406288953 0.47022402546462211 -0.89175216517195477 -0.34413529221211586 0.71785606012581804 0.77976406879111682 0.84167207745641581 0.56308603846257055 0.25354599513607573 -1.2080033801811285 0.25544462728414347 -1.226780579956144 0.60951704496154469 -0.35716151537573787 -0.80392552818092688 0.65594805146051904 0.56308603846257055 -1.3376863317777117 0.37045497590611348 0.2385241521464421 -0.33369001565696849
decision_type=2 2 2 2 2 2 2 2 2 2 2 2 2 2 2 2 2 2 2 2 2 2 2 2 2 2 2 2 2 2
left_child=1 25 -2 10 5 -5 8 -8 9 16 11 18 20 22 -15 27 17 19 -3 29 -13 -12 28 -7 -23 26 -1 -16 -10 -6
right_child=2 3 -4 4 6 23 7 -9 13 -11 21 12 -14 14 15 -17 -18 -19 -20 -21 -22 24 -24 -25 -26 -27 -28 -29 -30 -31
leaf_value=-0.035023530380517108 0.072422905601979046 0.090027658935937574 -0.049860988578024665 0.072081289574686458 0.080919034697428005 0.016599571472757219 0.082129313613473864 -0.05657221279853869 -0.067444487890893343 -0.056725793053474097 0.082302475843467851 0.08362485954020743 -0.056153466338136941 -0.059813321626833664 0.085555453692464992 -0.05657825377835584 0.086783428115641187 -0.05617395552172251 0.01622095419546114 0.078742793692484075 -0.057757617649103171 -0.059074505538161216 0.075656119220309834 -0.051117193325903344 0.079688463371842599 -0.0095460253718637218 0.093736152413153973 -0.057988505314662459 0.083095588128829695 -0.027023638932602862
leaf_weight=21.813933968544006 46.37562957406044 405.37617616355419 552.33671084046364 86.10143418610096 38.77682800590992 133.65174374729395 130.29854393005371 166.83091952651739 37.004697680473328 93.793497927486897 1091.8679106384516 68.398961097002029 169.5627775862813 196.15122941881418 581.18519358336926 29.052162513136864 155.61702017486095 156.05276907235384 106.60176984965801 277.2767683044076 31.59118115156889 42.50063406676054 1645.226390376687 283.39182616770267 39.799663528800011 35.924795910716057 1891.691161647439 17.37771987169981 23.085785388946533 86.582586362957954
leaf_count=68 87 436 5767 248 108 755 197 1628 220 905 1496 162 1525 1626 777 283 199 1618 424 457 274 336 3018 2550 91 167 1835 148 41 406
internal_value=0 0.0591627 -0.040389 0.0491712 0.0426556 -0.0120469 0.0502287 0.0042518 0.0543224 0.0272861 0.0629556 0.0417104 -0.0208728 0.062961 0.0429001 0.0750016 0.0383175 0.0248178 0.07466 0.0562084 0.0389561 0.0770965 0.0726516 -0.0294157 0.00802998 0.090392 0.0922683 0.081388 -0.00960944 0.00636575
internal_weight=0 8042.59 598.712 6093.16 4137.46 503.145 3634.31 297.129 3337.18 808.099 1955.7 781.531 269.553 2529.08 823.766 627.615 714.306 558.689 511.978 402.636 99.9901 1174.17 1705.32 417.044 82.3003 1949.43 1913.51 598.563 60.0905 125.359
internal_count=27852 21998 5854 19928 15184 3553 11631 1825 9806 3693 4744 2821 1961 6113 2834 1208 2788 2589 860 971 436 1923 3279 3305 427 2070 1903 925 261 514
is_linear=0
shrinkage=0.05


Tree=11
num_leaves=31
num_cat=0
split_feature=1 5 5 6 5 5 5 5 6 5 13 6 5 5 5 5 5 5 5 5 5 5 5 5 6 5 0 6 7 13
split_gain=1052.76 615.407 1450.25 298.784 256.375 485.375 270.104 575.35 417.618 430.938 172.137 254.817 168.32 375.043 163.089 1054.49 174.049 225.944 310.841 557.303 227.463 91.7724 434.497 87.3736 211.055 86.4508 79.8983 78.9087 68.5473 60.1769
threshold=-0.24309791974299697 0.22259199080342623 -1.7042947789040035 6.6719260162795111 0.23806899296975095 0.47022402546462211 0.51665503196359641 0.54760903629624591 1.0000000180025095e-35 0.59404004279522005 1.0000000180025095e-35 0.15647253816032725 0.39283901463299836 0.3386695070508618 0.65594805146051904 0.60951704496154469 0.70237905795949318 0.81071807312376631 0.71785606012581804 0.77976406879111682 0.84167207745641581 0.5785630406288953 0.59404004279522005 0.25354599513607573 1.552641140614438 0.79524107095744168 -0.068138106215080138 1.0000000180025095e-35 -1.3376863317777117 1.0000000180025095e-35
decision_type=2 2 2 2 2 2 2 2 2 2 2 2 2 2 2 2 2 2 2 2 2 2 2 2 2 2 2 2 2 2
left_child=10 2 27 29 -3 12 -7 -8 14 -10 28 -12 13 -6 15 21 -16 18 26 -20 -19 -9 -23 -13 -25 -21 -18 -2 -1 -4
right_child=1 4 3 -5 5 6 7 8 9 -11 11 23 -14 -15 16 -17 17 20 19 25 -22 22 -24 24 -26 -27 -28 -29 -30 -31
leaf_value=0.024461074482626639 0.046717741958415215 0.097546465694303586 0.022998113968655687 0.098978327348871853 -0.064146666222076418 0.090606688746416711 -0.067328436031369329 0.076560201922142537 0.050999347064428616 -0.059972763731443696 0.050163499843183315 0.097071454714694028 -0.056200113869846892 0.067763821209715525 0.075934847457177865 -0.05711814356256506 0.02886565709389784 0.092444226568553001 -0.059529833028041546 0.062471925083282434 -0.056347937305841082 -0.057590387728615328 0.086479460773420391 -0.075966295027734831 0.099078192331742809 -0.058212354431448968 0.067464343480828345 0.08435656888782829 0.097261895787086369 -0.056796342761172458
leaf_weight=33.589443035423756 284.35231928527355 232.59164065122604 24.637767761945724 33.930063247680664 90.398336112499237 348.39287219941616 111.40707074850798 511.8189188465476 175.89007779955864 174.05467386543751 925.55867699533701 596.32563063502312 135.0559995919466 133.40244507789612 1003.8855333477259 233.15880420058966 177.01293677091599 365.76888255774975 190.07481586933136 228.43493470549583 27.625694550573826 78.13506156951189 158.48294999450445 25.857237696647644 51.553269505500793 15.870011076331137 552.64895138144493 272.88044427335262 865.0266490727663 576.43446446210146
leaf_count=99 769 358 96 27 766 363 864 1081 352 1630 2331 498 1414 387 1699 2239 488 403 1625 394 280 761 367 128 41 139 1100 337 705 6111
internal_value=0 0.0385264 0.00628161 -0.0453769 0.046302 0.0437722 0.0483802 0.0447063 0.0479125 -0.00419569 0.0770303 0.0671915 -0.0121192 0.0144821 0.0530594 0.0357306 0.0597004 0.0492361 0.0381649 0.00467751 0.0819955 0.0646556 0.0389053 0.090584 0.0406085 0.0546323 0.0581005 0.0651497 0.0945407 -0.0535256
internal_weight=0 6136.35 1192.24 635.002 4944.11 4711.52 4352.66 4004.27 3892.86 349.945 2497.91 1599.29 358.857 223.801 3542.92 981.596 2561.32 1557.44 1164.04 434.38 393.395 748.437 236.618 673.736 77.4105 244.305 729.662 557.233 898.616 601.072
internal_count=27852 24050 7340 6234 16710 16352 13785 13422 12558 1982 3802 2998 2567 1153 10576 4448 6128 4429 3746 2158 683 2209 1128 667 169 533 1588 1106 804 6207
is_linear=0
shrinkage=0.05


Tree=12
num_leaves=31
num_cat=0
split_feature=1 5 5 6 5 5 5 5 6 5 5 5 5 5 5 5 5 5 5 11 5 5 5 5 6 2 1 5 6 5
split_gain=940.112 546.046 1320.28 277.763 223.868 432.969 242.205 522.84 370.035 397.741 158.709 341.265 141.569 952.886 150.521 130.753 383.53 512.479 202.481 129.309 78.7402 387.966 77.6536 77.4146 75.778 60.566 58.5552 56.632 61.7526 52.2541
threshold=-0.24309791974299697 0.22259199080342623 -1.7042947789040035 6.6719260162795111 0.23806899296975095 0.47022402546462211 0.51665503196359641 0.54760903629624591 1.0000000180025095e-35 0.59404004279522005 0.39283901463299836 0.3386695070508618 0.65594805146051904 0.60951704496154469 0.67142505362684368 0.81071807312376631 0.71785606012581804 0.77976406879111682 0.84167207745641581 -0.99296581278812146 0.5785630406288953 0.59404004279522005 0.79524107095744168 0.51665503196359641 0.15647253816032725 1.0239330594123801 -0.2203212188435589 0.54760903629624591 0.62186207231169754 -2.4858833883034026
decision_type=2 2 2 2 2 2 2 2 2 2 2 2 2 2 2 2 2 2 2 2 2 2 2 2 2 2 2 2 2 2
left_child=19 2 24 -4 -3 10 -7 -8 12 -10 11 -6 13 20 -14 16 25 -18 -17 -1 -9 -22 -19 29 -2 -16 -13 -25 -29 -21
right_child=1 4 3 -5 5 6 7 8 9 -11 -12 26 14 -15 15 18 17 22 -20 23 21 -23 -24 27 -26 -27 -28 28 -30 -31
leaf_value=0.045162179678890371 0.050112831036780742 0.091567546877531852 -0.053084360766309825 0.094374305421882965 -0.063457648665848673 0.08582678473482358 -0.06641665953755066 0.071750628603053951 0.048058665109630146 -0.059496866995214261 -0.055866961134945187 0.072609970324010481 0.086730631791857901 -0.056730314575621325 0.054883718737871262 0.087256951871477584 -0.059011342605053023 0.058884120361094243 -0.05600271726792632 0.043425803041825937 -0.057198926324197832 0.080510715071345232 -0.057763038385240467 -0.077721608963189345 0.091454390080209003 0.08791046874520346 -0.056271518832950708 0.060479851992144118 -0.06348625672383211 0.082075472102547703
leaf_weight=355.74319136887789 411.08587329089642 235.31344150751829 576.43437959998846 33.808530449867249 86.899557068943977 349.37379571795464 107.39154195785522 518.63396317511797 177.28223305940628 166.85670209676027 129.21593829244375 125.5800346955657 352.14893189072609 223.26531132310629 1245.9045635312796 368.0698774009943 182.35305754095316 230.1874520778656 26.436259597539902 91.659073978662491 74.820148713886738 161.63432663679123 15.210469879209993 9.1339917629957181 151.76433549821377 156.22085113823414 9.4781774803996068 128.54476144909859 10.897571712732313 1905.2223512157798
leaf_count=866 966 358 6207 27 766 363 864 1081 352 1630 1414 290 396 2239 2671 403 1625 394 280 218 761 367 139 45 140 220 97 334 66 2273
internal_value=0 0.0366948 0.00602782 -0.0449149 0.0439738 0.0415945 0.0459003 0.0424186 0.0454162 -0.00408993 -0.0118128 0.013834 0.0502088 0.0340164 0.0563573 0.0515488 0.0459202 0.00447663 0.077657 0.0730814 0.0608485 0.0369359 0.051654 0.0777107 0.06126 0.0585635 0.0635653 0.0428912 0.0507918 0.0803014
internal_weight=0 6115.37 1173.09 610.243 4942.28 4706.96 4355.79 4006.42 3899.02 344.139 351.174 221.958 3554.89 978.354 2576.53 2224.38 1829.88 427.751 394.506 2501.2 755.088 236.454 245.398 2145.46 562.85 1402.13 135.058 148.576 139.442 1996.88
internal_count=27852 24050 7340 6234 16710 16352 13785 13422 12558 1982 2567 1153 10576 4448 6128 5732 5049 2158 683 3802 2209 1128 533 2936 1106 2891 387 445 400 2491
is_linear=0
shrinkage=0.05


Tree=13
num_leaves=31
num_cat=0
split_feature=3 3 5 3 3 5 5 5 4 6 5 5 5 3 3 5 3 7 5 5 7 3 5 5 3 5 5 5 3 5
split_gain=1605.25 799.019 203.721 166.66 541.364 230.378 195.909 500.365 198.6 180.263 434.625 213.625 229.866 167.256 147.989 296.644 341.984 179.076 155.211 151.683 147.821 139.431 138.045 430.921 153.723 136.956 124.646 125.401 114.627 415.941
threshold=0.86687719495808635 -1.3582209783812527 -2.1686048438937457 -0.8758816591605415 -0.48390761385709263 -2.3156363644738307 0.47022402546462211 -0.89175216517195477 -0.34413529221211586 1.0000000180025095e-35 0.20711498863710151 0.65594805146051904 0.5785630406288953 -1.2080033801811285 0.0078203052511262357 0.67142505362684368 -0.2057703421896753 -0.80392552818092688 0.70237905795949318 0.71785606012581804 -0.80392552818092688 -1.226780579956144 0.56308603846257055 0.25354599513607573 0.25544462728414347 0.84167207745641581 0.60951704496154469 0.65594805146051904 0.35519850108891343 0.70237905795949318
decision_type=2 2 2 2 2 2 2 2 2 2 2 2 2 2 2 2 2 2 2 2 2 2 2 2 2 2 2 2 2 2
left_child=1 -1 -2 6 5 -5 7 13 21 11 -11 12 22 -3 15 -13 18 -18 -17 -20 -7 -9 23 24 -6 28 -8 -28 -16 -30
right_child=2 3 -4 4 9 20 26 8 -10 10 -12 14 -14 -15 25 16 17 -19 19 -21 -22 -23 -24 -25 -26 -27 27 -29 29 -31
leaf_value=0.078637168238974001 0.059221718111541768 0.077818244056419475 -0.048374824360967655 0.058142258299189425 0.0013685982644287633 0.013268287769020984 0.07092664979353705 0.071204537974656895 -0.055892125406289572 0.069114161319826409 -0.05554876899483141 0.096769536861124883 -0.055740716148600628 0.0089931990999940741 0.07303005293838126 -0.035514260987009189 0.035422431561659903 -0.051519593228154081 0.067031892078524891 -0.026699235539458261 -0.05065961559062513 -0.057439718260818451 0.073558607742532298 -0.055495778165696244 0.067003958001240468 -0.055564098595120986 -0.058093640324078502 0.066362691099623436 0.064305969595940954 -0.057193462256758976
leaf_weight=1934.0066247284412 48.347734078764915 405.82558488845825 488.36461032927036 92.977158680558205 130.40030808746815 136.33410329371691 1106.1984422653913 71.431898318231106 162.83862448483706 134.29892535507679 145.84289076179266 171.05491901934147 82.484213642776012 112.81156444549561 1091.2564283236861 50.133712589740753 89.519416756927967 175.02512180060148 409.56670548021793 48.247309289872646 268.5415641143918 29.870880246162415 158.5631886869669 139.06725437194109 282.4024171307683 24.371378049254417 38.872597873210907 42.225361764431 429.79240673780441 84.248395450413227
leaf_count=2070 87 436 5767 248 514 755 1496 162 1525 197 1628 137 905 424 1583 278 320 1157 671 446 2550 274 199 1618 457 271 336 91 649 601
internal_value=0 0.0506254 -0.0386824 0.041765 0.0360733 -0.0128339 0.0537376 0.0343191 -0.0216963 0.0427509 0.00421417 0.0459581 0.0232671 0.0628477 0.0529502 0.0371917 0.0239992 -0.0220992 0.0480077 0.0571539 -0.0291331 0.0332715 0.0324402 0.0206261 0.0462704 0.062074 0.0665402 0.00670717 0.06386 0.0443929
internal_weight=0 8048.21 536.712 6114.2 4144.13 497.853 1970.07 782.779 264.141 3646.27 280.142 3366.13 792.917 518.637 2573.22 943.547 772.492 264.545 507.948 457.814 404.876 101.303 710.433 551.87 412.803 1629.67 1187.3 81.098 1605.3 514.041
internal_count=27852 21998 5854 19928 15184 3553 4744 2821 1961 11631 1825 9806 3693 860 6113 3009 2872 1477 1395 1117 3305 436 2788 2589 971 3104 1923 427 2833 1250
is_linear=0
shrinkage=0.05


Tree=14
num_leaves=31
num_cat=0
split_feature=3 3 5 3 3 5 5 5 4 6 5 5 5 3 3 5 3 7 5 5 8 3 5 5 7 5 5 5 5 5
split_gain=1455.4 731.414 189.667 150.131 491.104 187.96 171.359 452.417 185.992 160.806 394.94 200.967 239.001 153.343 133.067 270.985 305.657 165.531 137.985 135.613 128.352 125.609 123.326 119.606 122.082 113.454 421.358 146.199 211.546 111.12
threshold=0.86687719495808635 -1.3582209783812527 -2.1686048438937457 -0.8758816591605415 -0.5179412884493082 -2.3156363644738307 0.47022402546462211 -0.89175216517195477 -0.34413529221211586 1.0000000180025095e-35 0.20711498863710151 0.65594805146051904 0.5785630406288953 -1.2080033801811285 0.0078203052511262357 0.67142505362684368 -0.2057703421896753 -0.80392552818092688 0.70237905795949318 0.71785606012581804 -0.8029764320224918 -1.2596406795624211 0.84167207745641581 0.56308603846257055 -1.3376863317777117 0.56308603846257055 0.25354599513607573 0.22259199080342623 -2.2537283558085313 0.60951704496154469
decision_type=2 2 2 2 2 2 2 2 2 2 2 2 2 2 2 2 2 2 2 2 2 2 2 2 2 2 2 2 2 2
left_child=1 23 -2 6 5 -5 7 13 21 11 -11 12 25 -3 15 -13 18 -18 -17 -20 -7 -9 -16 24 -1 26 27 28 -6 -8
right_child=2 3 -4 4 9 20 29 8 -10 10 -12 14 -14 -15 22 16 17 -19 19 -21 -22 -23 -24 -25 -26 -27 -28 -29 -30 -31
leaf_value=-0.040338813029355818 0.055760200259659554 0.07435445158877145 -0.047835807015943262 0.051043541604370961 0.045194401059125422 0.014255094529402179 0.067296175011709966 0.072648336104932806 -0.0554292890889636 0.064411828285406411 -0.055251199999765702 0.092435100731044051 -0.055662097936792145 0.0085105818558946951 0.060585737158897757 -0.034415034632844517 0.03320993408423422 -0.050450120281992139 0.062895465558776675 -0.026135204916459404 -0.051526183537594042 -0.043820374899360567 -0.055263538826056439 -0.01338830089254793 0.078399445092324618 0.06550907977648289 -0.055330125249813511 0.092272709555330359 -0.06651304973483127 0.0063875978995527509
leaf_weight=21.902443140745163 48.770081922411919 403.54871574044228 469.6496224924922 85.143990933895111 256.72121265530586 106.07208078354597 1107.5344675779343 65.595830097794533 156.15756541490555 135.85634262859821 140.01687773317099 170.14261446893215 88.435816779732704 113.23717266321182 1607.2254369258881 49.173024386167526 90.678144827485085 169.92880194634199 413.75638268887997 47.703674420714378 246.44245105236769 35.774711973965168 23.305662974715233 37.309103205800056 1860.8445686548948 182.71011271327734 139.19442142546177 117.74350321292877 50.762186758220196 80.31171340495348
leaf_count=68 87 436 5767 226 597 492 1496 120 1525 201 1634 137 996 424 2833 278 320 1157 674 450 2547 316 271 167 1835 300 1673 95 303 427
internal_value=0 0.0483568 -0.0380901 0.0398648 0.0344447 -0.0156289 0.0512482 0.0329471 -0.0211936 0.0403945 0.00367798 0.0433671 0.0220635 0.0599269 0.0502882 0.0353204 0.0227204 -0.0213406 0.0452073 0.0536919 -0.0317325 0.0315453 0.0589299 0.0752614 0.0770181 0.0312636 0.020178 0.0448949 0.0267527 0.0631781
internal_weight=0 8003.23 518.42 6083.17 4121.01 437.659 1962.16 774.314 257.528 3683.35 275.873 3407.48 835.567 516.786 2571.91 941.383 771.24 260.607 510.633 461.46 352.515 101.371 1630.53 1920.06 1882.75 747.131 564.421 425.227 307.483 1187.85
internal_count=27852 21998 5854 19928 15184 3265 4744 2821 1961 11919 1835 10084 3964 860 6120 3016 2879 1477 1402 1124 3039 436 3104 2070 1903 2968 2668 995 900 1923
is_linear=0
shrinkage=0.05


Tree=15
num_leaves=31
num_cat=0
split_feature=3 3 5 3 3 7 5 5 3 5 3 5 5 5 3 3 5 5 5 8 3 5 5 7 5 5 7 3 5 5
split_gain=1326.23 741.535 169.879 145.451 415.687 191.016 132.042 421.821 147.158 125.506 125.287 378.08 165.774 834.522 159.188 153.008 130.335 128.862 266.7 121.515 112.033 167.975 110.112 110.57 108.45 130.038 104.358 95.6987 337.315 94.7479
threshold=0.91147304442374832 -1.3582209783812527 -2.1686048438937457 -0.8758816591605415 -0.48390761385709263 -0.30352477480894113 0.47022402546462211 -0.97687567708674095 -1.1751432805748514 0.60951704496154469 0.5500119487546995 0.25354599513607573 0.71785606012581804 0.77976406879111682 0.0078203052511262357 -0.12362009317398238 0.22259199080342623 0.65594805146051904 -2.1686048438937457 -0.8029764320224918 -1.1094230813622969 0.51665503196359641 0.56308603846257055 -1.2042461308785153 0.84167207745641581 0.82619507529009117 -0.99296581278812146 0.33642130131389786 0.70237905795949318 0.67142505362684368
decision_type=2 2 2 2 2 2 2 2 2 2 2 2 2 2 2 2 2 2 2 2 2 2 2 2 2 2 2 2 2 2
left_child=1 22 -2 6 5 -5 7 8 -3 20 12 16 14 -14 15 -6 -12 18 -16 -9 21 -8 23 -1 25 -15 -17 -19 -29 -28
right_child=2 3 -4 4 10 -7 9 19 -10 -11 11 -13 13 24 17 26 -18 27 -20 -21 -22 -23 -24 -25 -26 -27 29 28 -30 -31
leaf_value=0.022414651456935344 0.055201164256807468 0.069454949558602194 -0.051148887924289704 0.012828368389772318 0.042930576015186163 -0.051662176425030751 0.088103702489184657 0.030673871328670655 -0.00065852572780973108 -0.0037223781686320703 0.024568483105628942 -0.031990182404412669 -0.057889625129180847 0.042761762498152042 0.060242257227573939 0.065724948837937655 0.093402348764928478 0.088312594376814657 -0.054573472271539539 -0.045761520155971847 0.067966897603917206 -0.052202778387353023 -0.012655845854699957 0.077367438371512109 -0.055054012573782257 0.095008151478342823 0.033007673237072828 0.070755102349021923 -0.069524244907474969 -0.059692676844120995
leaf_weight=96.493922680616379 41.251814752817154 438.01383318006992 418.37361559271812 305.82335422188044 969.88749334216118 183.84264642000198 37.730385228991508 75.317719116806984 90.259181469678879 74.626628145575523 160.92623847723007 234.66006185114384 233.53217054903507 442.90846127271652 206.16382412612438 36.134834975004196 120.0868912935257 425.236701130867 67.019738264381886 167.93395362794399 1011.129489839077 49.081049665808678 36.91381374001503 1781.8732839971781 22.469807885587215 162.89912629127502 40.227206215262413 375.29341525584459 48.3777696788311 87.565518043935299
leaf_count=190 71 512 5454 1622 2427 1925 35 325 376 424 565 2121 2374 1035 351 82 99 413 710 1599 1279 184 166 1712 271 131 99 519 242 517
internal_value=0 0.0457404 -0.0416039 0.0371781 0.0318621 -0.0113843 0.0484523 0.032388 0.0574756 0.0590222 0.0376903 0.0148608 0.0414663 0.0228126 0.0485925 0.0353793 0.0539836 0.0619437 0.0320747 -0.0220949 0.063287 0.00877787 0.0728638 0.0745444 0.0528099 0.0568106 -0.00929834 0.0715558 0.054737 -0.030512
internal_weight=0 7982.43 459.625 6067.15 4123.06 489.666 1944.09 771.525 528.273 1172.57 3633.39 515.673 3117.72 861.81 2255.91 1133.82 281.013 1122.09 273.184 243.252 1097.94 86.8114 1915.28 1878.37 628.277 605.808 163.928 848.908 423.671 127.793
internal_count=27830 22305 5525 20237 15503 3547 4734 2812 888 1922 11956 2785 9171 3811 5360 3125 664 2235 1061 1924 1498 219 2068 1902 1437 1166 698 1174 761 616
is_linear=0
shrinkage=0.05


Tree=16
num_leaves=31
num_cat=0
split_feature=1 5 5 5 5 5 6 5 5 13 6 6 5 5 5 5 5 5 5 5 5 5 5 6 5 6 6 5 5 5
split_gain=696.609 398.615 956.581 184.076 325.841 190.95 412.922 203.277 223.417 166.409 218.381 165.943 130.269 452.565 104.517 377.158 342.43 294.525 138.637 111.287 300.153 354.89 130.101 102.936 76.4885 185.176 73.1061 68.0967 228.57 55.0199
threshold=-0.24308930782712723 0.22259199080342623 -1.7042947789040035 0.23806899296975095 0.47022402546462211 0.50117802979727155 1.0000000180025095e-35 0.59404004279522005 0.5785630406288953 1.0000000180025095e-35 0.15647253816032725 6.6719260162795111 0.51665503196359641 0.54760903629624591 0.5785630406288953 0.65594805146051904 0.60951704496154469 0.59404004279522005 0.67142505362684368 0.81071807312376631 0.71785606012581804 0.77976406879111682 0.84167207745641581 2.9488097430685487 0.25354599513607573 1.552641140614438 0.15647253816032725 0.3386695070508618 0.36962351138351129 0.79524107095744168
decision_type=2 2 2 2 2 2 2 2 2 2 2 2 2 2 2 2 2 2 2 2 2 2 2 2 2 2 2 2 2 2
left_child=9 2 26 -3 23 -6 12 8 -8 -1 -11 -4 -7 -14 -15 16 17 -16 -17 20 -20 -22 -21 27 -12 -26 -2 -5 -29 -23
right_child=1 3 11 4 5 6 7 -9 -10 10 24 -13 13 14 15 18 -18 -19 19 22 21 29 -24 -25 25 -27 -28 28 -30 -31
leaf_value=0.078868040360571282 0.037490823038600081 0.08046190974487949 -0.052522426738517869 -0.065043121880649729 0.086289254443678298 0.088518662015311111 -0.099869964500941141 -0.060194764497601472 0.039219988711324705 0.036938888713879785 0.080351980259566441 0.08229451412896055 -0.067955985940020877 0.06179697008773976 -0.053355791107566414 0.074273665048319323 -0.055907954398792786 0.07269588395273209 0.045956033526018833 0.072333687279032069 -0.058781391088990588 0.042757730011523949 -0.054928243700136138 0.082852024934036747 -0.080718744651943827 0.082518817982593889 0.079286077784399001 0.068042706513079323 -0.046142764012282941 -0.057763472135751781
leaf_weight=877.16661974787712 414.29319676756859 222.25783525407314 496.8598402813077 76.545877322554588 190.98590743541718 133.90360823273659 34.65046700835228 151.12541280686855 173.09989789128304 981.66295328736305 582.29577223956585 23.923985004425049 97.497571341693401 526.12464952468872 65.795112632215023 345.45351153612137 190.4679106771946 156.72747500240803 1403.3973467350006 351.29075574874878 166.9810152053833 220.50789991021156 21.30040717124939 24.086188554763794 26.18995064496994 51.608031630516052 139.97549676895142 64.414971731603146 137.1200440004468 14.508348330855368
leaf_count=821 955 344 6214 756 156 109 147 1664 315 2423 511 20 849 1094 746 385 2166 363 2911 398 1613 384 268 20 131 43 132 133 1625 134
internal_value=0 0.0298312 0.0023281 0.0360321 0.0338599 0.0374318 0.0351295 -0.0160739 0.0160213 0.0612862 0.0518924 -0.0463291 0.040104 0.038283 0.0412744 0.0375974 -0.00669696 0.0354251 0.0448467 0.0401792 0.0350447 -0.00304731 0.0650583 -0.0163066 0.0741307 0.0275664 0.0480458 -0.0248953 -0.00964661 0.0365522
internal_weight=0 5843.29 1075.05 4768.24 4545.98 4243.82 4052.83 358.876 207.75 2518.92 1641.76 520.784 3693.96 3560.05 3462.55 2936.43 412.99 222.523 2523.44 2177.99 1805.39 401.997 372.591 302.167 660.094 77.798 554.269 278.081 201.535 235.016
internal_count=27830 23901 7321 16580 16236 13702 13546 2126 462 3929 3108 6234 11420 11311 10462 9368 3275 1109 6093 5708 5042 2131 666 2534 685 174 1087 2514 1758 518
is_linear=0
shrinkage=0.05


Tree=17
num_leaves=31
num_cat=0
split_feature=3 3 6 6 7 3 3 3 8 3 3 8 3 8 3 6 7 8 3 3 7 6 3 4 2 3 4 3 10 7
split_gain=1103.6 659.675 178.927 146.365 82.8504 82.3473 224.865 226.463 255.056 206.502 179.641 157.705 144.588 154.042 125.066 146.273 116.237 108.526 180.378 92.7439 84.4175 79.0728 144.624 251.972 100.086 72.6205 73.535 64.6263 63.9147 62.9085
threshold=0.91147304442374832 -1.3769981781562681 0.15647253816032725 0.15647253816032725 -1.3376863317777117 0.026597505026141759 -0.8758816591605415 -1.0789101317278968 -0.43591520652127563 -0.5179412884493082 0.53475547393749945 -0.43591520652127563 -1.1422831809685741 0.77649914437668077 -0.12362009317398238 1.0000000180025095e-35 -0.55928515986573379 -0.43591520652127563 0.73074249658922386 0.83049637039399382 1.4979179373302078 1.0000000180025095e-35 -0.99441273274032704 -0.22760340334040427 -0.24659775217756019 -1.1915733303779898 2.452630040708963 -0.06259419390518195 -0.4612321549542428 -0.89288566211372433
decision_type=2 2 2 2 2 2 2 2 2 2 2 2 2 2 2 2 2 2 2 2 2 2 2 2 2 2 2 2 2 2
left_child=1 4 5 -2 -1 6 7 8 25 11 -7 20 -10 -14 15 -11 27 -12 -19 -20 -8 24 -23 -24 29 26 -3 -16 -27 -9
right_child=3 2 -4 -5 -6 10 9 21 12 14 17 -13 13 -15 16 -17 -18 18 19 -21 -22 22 23 -25 -26 28 -28 -29 -30 -31
leaf_value=-0.0076187846354689578 -0.047010878808552231 0.058925502386300559 0.071345116262191755 0.09557468978169191 0.0707964150808989 0.047456600939535853 0.022786452598377555 0.067462270723494755 -0.056692704374302107 0.035407127685350558 0.033611557930730389 -0.051567934854601129 -0.073350303970513675 0.066582344843252469 -0.037602247717351329 -0.058147643432446633 -0.052664542987793883 -0.064359916101244516 0.047303013315540633 -0.054940937761078029 -0.056179837496975242 0.058184806054258242 0.045944866092360655 -0.09616155288791195 0.070676356108704333 0.058423348118895539 -0.0079828835863368034 0.037628829414395167 -0.033975431689808343 -0.042644873802653249
leaf_weight=34.367682442069054 406.70559199154377 304.76203924417496 308.98623251914978 18.831419944763184 1695.3274411857128 1751.2500580996275 211.00042251497507 21.195123210549355 140.82834785431623 1060.3471721708775 313.67416068911552 176.27750609815121 28.343323990702629 64.248636148869991 38.068298026919365 43.494211174547672 90.821655511856079 94.983712151646614 105.38509511947632 28.091585114598274 40.310374356806278 268.79606193304062 86.709067642688751 48.720882728695869 617.71149112284184 28.564448237419128 47.460087388753891 114.13137856125832 54.282185710966587 33.437653571367264
leaf_count=107 5510 643 326 15 1778 4426 800 62 1225 3062 1153 2014 161 97 218 514 720 974 427 359 434 360 145 200 1023 70 115 392 342 158
internal_value=0 0.0419728 0.0342691 -0.040701 0.0692384 0.0322983 0.0274944 0.0402387 0.0173808 0.0149612 0.0396706 -0.0153113 -0.0247841 0.0237476 0.0245718 0.0317208 -0.00790015 0.0145196 -0.0116934 0.0257847 0.0101202 0.0544322 0.0369561 -0.00517787 0.0649392 0.0400028 0.0499099 0.018812 -0.00211753 7.1873e-05
internal_weight=0 7851.58 6121.88 425.537 1729.7 5812.89 3519.51 1745.06 668.489 1774.45 2293.38 427.588 233.42 92.592 1346.86 1103.84 243.021 542.135 228.46 133.477 251.311 1076.57 404.226 135.43 672.344 435.069 352.222 152.2 82.8466 54.6328
internal_count=27830 22305 20420 5525 1885 20094 12755 4601 2653 8154 7339 3248 1483 258 4906 3576 1330 2913 1760 786 1234 1948 705 345 1243 1170 758 610 412 220
is_linear=0
shrinkage=0.05


Tree=18
num_leaves=31
num_cat=0
split_feature=3 3 3 3 7 3 3 3 7 10 7 8 3 3 7 8 3 7 8 3 3 3 8 3 2 3 8 3 2 10
split_gain=1012.39 644.8 141.211 289.577 171.585 129.405 127.568 117.9 107.889 105.006 81.2952 78.0701 104.869 76.9404 379.914 100.223 170.189 91.2783 91.1464 91.4186 74.0204 68.7474 116.86 111.24 63.532 58.1853 51.6765 50.4674 49.6727 45.1194
threshold=1.0264833930457185 -1.3769981781562681 -0.89348528394961857 -0.48390761385709263 -0.30352477480894113 0.5500119487546995 0.026597505026141759 -0.12362009317398238 -0.55928515986573379 -0.16032271181767063 -1.2042461308785153 1.2881602465904973 -0.5179412884493082 -1.0789101317278968 -0.30352477480894113 1.2881602465904973 -1.1422831809685741 -0.89288566211372433 -0.43591520652127563 -1.3112779789437139 -1.2103505301530053 0.73074249658922386 -0.8029764320224918 0.84575284521119387 -0.24658685465119681 -0.06259419390518195 -1.0810531180082614 -0.79725213510266413 -0.24408976432449481 -0.16032271181767063
decision_type=2 2 2 2 2 2 2 2 2 2 2 2 2 2 2 2 2 2 2 2 2 2 2 2 2 2 2 2 2 2
left_child=1 10 13 4 11 6 7 -5 25 21 -1 27 -13 14 15 17 -17 -3 19 -16 -19 22 -7 -23 29 -9 -22 -4 -29 -15
right_child=-2 2 3 5 -6 9 -8 8 -10 -11 -12 12 -14 24 18 16 -18 20 -20 -21 26 23 -24 -25 -26 -27 -28 28 -30 -31
leaf_value=0.024308495924546467 -0.051449094751145501 0.019737468589796421 0.054804799588270496 0.031191630447967363 -0.047586973992856219 0.034083951793306817 0.044572579581164173 -0.036368803663114971 -0.051721732212416695 0.038168280752771552 0.069715245765695488 -0.056146893961914357 0.085206449413602225 0.047154074513717205 0.055752964210775129 -0.065673686442327558 0.061892260621060326 0.071543371914622775 -0.063404219462725495 -0.058218230958266226 0.077979320258338369 0.03652355720701083 -0.063664748467168131 -0.035587923402579595 0.055676814033721336 0.035401935936342291 -0.015165550349099742 0.030576749981635294 -0.029505662843338051 -0.037320825313111275
leaf_weight=105.06322698295116 317.25947876274586 145.24722002446651 99.034567035734653 1053.2020784988999 180.11594330519438 44.567991003394127 1795.4664748311043 37.408445328474045 87.927166178822517 216.77651476114988 1596.0468043535948 67.517237812280655 16.286310084164143 30.920554369688034 43.367754317820072 49.001664221286774 56.054790310561657 465.48875696212053 103.83778790384531 29.606528043746948 22.196826510131359 151.77480763196945 97.39408403262496 82.577213533222675 975.14311018586159 115.21604853123426 45.239688895642757 94.619221448898315 54.051765784621239 32.339052617549896
leaf_count=222 4713 391 221 3280 1995 144 4561 218 720 628 1663 743 56 80 98 408 89 501 940 306 57 701 1066 1058 1577 392 179 308 360 155
internal_value=0 0.0396455 0.0321555 0.0269434 -0.00830388 0.0318407 0.0359477 0.0239781 -0.00760491 0.0104488 0.0669109 0.0130395 -0.0286764 0.0430935 0.0328902 0.0478347 0.00239145 0.0548743 -0.0333094 0.0095135 0.0644508 -0.00551909 -0.0329772 0.0111141 0.0525268 0.0178108 0.0154932 0.0271527 0.00873281 0.00396952
internal_weight=0 7893.49 6192.38 4193.94 511.625 3682.31 3089.22 1293.75 240.552 593.091 1701.11 331.509 83.8035 1998.44 960.041 783.229 105.056 678.172 176.812 72.9743 532.925 376.314 141.962 234.352 1038.4 152.624 67.4365 247.706 148.671 63.2596
internal_count=27830 23117 21232 16451 3683 12768 9171 4610 1330 3597 1885 1688 799 4781 2969 1625 497 1128 1344 404 737 2969 1210 1759 1812 610 236 889 668 235
is_linear=0
shrinkage=0.05


Tree=19
num_leaves=31
num_cat=0
split_feature=1 5 5 5 5 5 6 5 5 13 6 8 6 5 5 5 5 5 5 5 5 5 5 5 5 5 6 5 13 4
split_gain=556.997 286.362 801.365 173.608 276.268 169.927 381.603 175.885 208.557 152.956 191.608 187.801 139.572 112.862 376.825 93.5978 225.317 91.5651 306.117 308.7 248.486 137.517 99.2495 272.522 308.904 120.731 69.6077 53.1674 50.3966 50.1712
threshold=-0.24309791974299697 0.22259199080342623 -1.7042947789040035 0.23806899296975095 0.47022402546462211 0.50117802979727155 1.0000000180025095e-35 0.59404004279522005 0.5785630406288953 1.0000000180025095e-35 0.15647253816032725 1.0000000180025095e-35 6.6719260162795111 0.51665503196359641 0.54760903629624591 0.3386695070508618 0.39283901463299836 0.5785630406288953 0.65594805146051904 0.60951704496154469 0.59404004279522005 0.67142505362684368 0.81071807312376631 0.71785606012581804 0.77976406879111682 0.84167207745641581 1.0000000180025095e-35 -2.34659036880648 1.0000000180025095e-35 0.58811981876157693
decision_type=2 2 2 2 2 2 2 2 2 2 2 2 2 2 2 2 2 2 2 2 2 2 2 2 2 2 2 2 2 2
left_child=9 2 26 -3 15 -6 13 8 -8 -1 -11 -12 28 -7 -15 -5 -17 -16 19 20 -19 -20 23 -23 -25 -24 27 -2 29 -4
right_child=1 3 12 4 5 6 7 -9 -10 10 11 -13 -14 14 17 16 -18 18 21 -21 -22 22 25 24 -26 -27 -28 -29 -30 -31
leaf_value=0.0722945647216066 0.037134228737613843 0.074508822720336085 0.088998183968534067 -0.066470304624723073 0.079589237561996318 0.081227382725683028 -0.10010024354334034 -0.059967126814040185 0.033458678657000918 0.031452845033912408 0.072447531170221041 -0.083133272951134041 0.075862188642861456 -0.067186931585927645 0.05554863206169583 0.047530607648858088 -0.054675464410944133 -0.0530394667035076 0.068919502858325765 -0.055760999463552147 0.066213593733494044 0.040184654004903841 0.065675915938300466 -0.059012675493325575 0.030318604550462841 -0.055093954291683178 0.060270404736097072 -0.012406335876761102 -0.05549945914689345 -0.060320557686553367
leaf_weight=829.86221420019865 231.45463961362839 223.38102304935455 12.349369525909426 73.807433445006609 184.02932226657867 128.99555176496506 35.148239150643349 150.32379806041718 173.57495929300785 935.9882397800684 595.08466564118862 20.050158336758614 22.530503392219543 90.343794927000999 521.88791118562222 112.96892300248146 103.17026520520449 60.841357931494713 338.29514847695827 182.59230072796345 154.88155832141638 1405.8249887079 343.58890083432198 165.05458194762468 233.92882923781872 22.020019739866257 276.16776925325394 70.701545000076294 428.44163689762354 10.332278773188589
leaf_count=820 533 354 10 758 157 109 149 1667 317 2322 574 98 20 849 1099 384 1403 750 385 2179 363 2914 398 1613 518 269 354 244 6143 77
internal_value=0 0.0262157 0.00263242 0.031489 0.0293446 0.0326098 0.0304524 -0.0187308 0.0109678 0.0549687 0.0456992 0.0673764 -0.0455887 0.0352928 0.0336091 -0.0178564 -0.00125568 0.0362648 0.0328029 -0.00791649 0.0325801 0.039268 0.0346463 0.029834 -0.00663666 0.0584021 0.042126 0.0255422 -0.0516543 0.0209783
internal_weight=0 5756.64 1051.98 4704.66 4481.28 4191.33 4007.3 359.047 208.723 2380.99 1551.12 615.135 473.654 3648.25 3519.26 289.947 216.139 3428.92 2907.03 398.315 215.723 2508.71 2170.42 1804.81 398.983 365.609 578.324 302.156 451.123 22.6816
internal_count=27830 24016 7381 16635 16281 13736 13579 2133 466 3814 2994 672 6250 11446 11337 2545 1787 10488 9389 3292 1113 6097 5712 5045 2131 667 1131 777 6230 87
is_linear=0
shrinkage=0.05


Tree=20
num_leaves=31
num_cat=0
split_feature=3 3 7 5 3 5 5 5 3 3 5 5 5 3 4 6 5 5 5 3 7 9 4 3 3 5 8 5 5 6
split_gain=857.715 567.583 108.698 138.943 108.37 232.212 183.74 158.004 132.983 230.556 166.742 240.633 154.321 387.156 185.879 159.348 154.088 199.244 141.453 183.192 172.266 137.898 120.591 127.848 94.276 88.4587 87.2747 83.9292 74.8574 105.641
threshold=1.0264833930457185 -1.3112779789437139 -1.0930459634625185 0.56308603846257055 0.5500119487546995 0.25354599513607573 0.22259199080342623 -1.402493236660671 0.026597505026141759 -0.89348528394961857 0.47022402546462211 -0.97687567708674095 0.70237905795949318 0.24136172745288179 -0.34413529221211586 1.0000000180025095e-35 0.65594805146051904 -2.1686048438937457 0.71785606012581804 -0.48390761385709263 -0.30352477480894113 0.27094523265927917 -0.34413529221211586 0.64859224757353096 -0.1388765679911825 0.84167207745641581 1.2881602465904973 0.77976406879111682 0.60951704496154469 1.0000000180025095e-35
decision_type=2 2 2 2 2 2 2 2 2 2 2 2 2 2 2 2 2 2 2 2 2 2 2 2 2 2 2 2 2 2
left_child=1 2 -1 -4 8 6 7 -6 9 10 11 21 16 15 27 25 17 -10 19 20 26 -3 23 -7 -21 -14 -11 -15 29 -12
right_child=-2 4 3 -5 5 22 -8 -9 12 18 28 -13 13 14 -16 -17 -18 -19 -20 24 -22 -23 -24 -25 -26 -27 -28 -29 -30 -31
leaf_value=0.024029427722282247 -0.050687941452158471 0.051432899806646275 0.065467437750298438 -0.067071959685390078 0.035145755538997313 0.064044134103778266 0.086594057534306892 -0.054593946365288193 0.04860563638916468 0.027967379092956157 0.066353795809587321 -0.033284713144526155 0.054427257859561186 -0.062848049448402499 -0.072085252406978398 -0.05479685931860593 0.069930824886980159 -0.054014096106092237 -0.039741505038668336 0.035165508903169093 -0.048591293506403094 -0.044840491184592594 -0.060661394165346327 -0.059671270776108967 -0.00041827406462861556 -0.054621156010637099 -0.033005197813601776 0.054904151840269137 0.00011079270461728769 0.033637550493959251
leaf_weight=187.40797993540764 286.37104049324989 305.06976148486137 1805.2785776183009 19.992574483156204 170.12110687792301 52.415763653814793 113.2202867269516 68.921918146312237 204.13840341567993 244.2571527659893 640.08136676251888 167.36161790415645 640.55707465112209 20.130444258451462 121.49332839250565 37.425052411854267 659.11637040227652 61.565238073468208 116.87947521731257 927.95232456922531 172.74034207314253 42.359780862927437 135.34365362673998 34.712330155074596 232.84552713111043 19.153020344674587 77.251019779592752 60.952188573777676 69.398460060358047 401.524951800704
leaf_count=396 4657 535 2103 111 318 127 100 983 341 842 755 1603 939 165 857 471 776 698 1398 2260 2008 166 1706 371 881 248 765 97 333 687
internal_value=0 0.0374163 0.0602924 0.0640157 0.0294739 0.00886666 0.0341237 0.00927162 0.0317418 0.025895 0.0394923 0.0159688 0.04263 0.0278871 -0.032958 0.0455677 0.0569726 0.024828 0.013419 0.0171732 -0.00831996 0.0396949 -0.0311255 0.0147552 0.0280277 0.0512613 0.0133171 0.0256697 0.0503921 0.0537421
internal_weight=0 7809.67 2012.68 1825.27 5796.99 574.735 352.263 239.043 5222.25 3397.72 1625.8 514.791 1824.53 899.711 202.576 697.135 924.82 265.704 1771.93 1655.05 494.249 347.43 222.472 87.1281 1160.8 659.71 321.508 81.0826 1111 1041.61
internal_count=27697 23040 2610 2214 20430 3605 1401 1301 16825 12233 4079 2304 4592 2777 1119 1658 1815 1039 8154 6756 3615 701 2204 498 3141 1187 1607 262 1775 1442
is_linear=0
shrinkage=0.05


Tree=21
num_leaves=31
num_cat=0
split_feature=3 3 7 3 3 3 3 7 3 6 3 7 8 3 3 7 8 6 3 8 10 3 12 3 6 6 10 8 3 0
split_gain=790.088 538.095 104.663 104.147 124.82 217.691 117.002 158.232 142.151 114.61 102.804 314.841 89.1316 93.4657 127.422 88.933 76.5832 75.9482 124.325 129.886 102.128 68.5366 65.6457 67.469 72.1511 194.313 61.6844 60.414 157.528 48.8046
threshold=1.0663849425676264 -1.3112779789437139 -1.1708860806537162 0.5500119487546995 0.0078203052511262357 -0.89348528394961857 -0.48390761385709263 -0.30352477480894113 -0.12362009317398238 1.0000000180025095e-35 -1.0789101317278968 -0.30352477480894113 -0.43591520652127563 0.73074249658922386 0.83049637039399382 -0.99296581278812146 1.2881602465904973 1.0000000180025095e-35 -0.97446195797937307 -0.8029764320224918 -0.16032271181767063 -0.5179412884493082 -0.087235230528588781 -1.461495577143838 1.0000000180025095e-35 1.552641140614438 0.86582093031492258 1.2881602465904973 -1.4122054277344223 -0.068994204068331372
decision_type=2 2 2 2 2 2 2 2 2 2 2 2 2 2 2 2 2 2 2 2 2 2 2 2 2 2 2 2 2 2
left_child=1 2 -1 4 5 10 7 16 9 -8 11 -3 -5 -14 -15 -10 -7 20 -19 -20 -12 -18 27 -24 -25 -26 -21 -4 -29 -22
right_child=-2 3 22 12 -6 6 8 -9 15 -11 17 -13 13 14 -16 -17 21 18 19 26 29 -23 23 24 25 -27 -28 28 -30 -31
leaf_value=0.015440989279145605 -0.053299071159716917 0.037765304133590312 0.07125480106339499 0.024170989598638795 0.040887170052290721 0.025372748666656009 0.031027357377420735 -0.047954359553609313 0.042426187499995327 -0.057886371245798166 0.065153514148747149 -0.059866198245288688 -0.062955086438505017 0.040529821069125088 -0.050893857758735832 -0.037765226400594605 -0.055831088782869777 0.045833731859925647 0.053009077297494836 -0.09758730565871214 -0.034361853486486134 0.063709305589201598 0.069991428999751346 0.04568467774922097 -0.085409292309546553 0.072150727455122174 0.028304596589424909 0.056983612889942858 -0.088804166245065111 0.044580042334674636
leaf_weight=132.12885562330484 256.48454738408327 485.62195549160242 1180.0171075314283 346.81834736838937 1838.8660977929831 249.1268475279212 1005.2550258338451 166.44317490234971 45.176995292305946 37.598654039204121 570.29117541015148 99.493344780057669 72.445330318063498 99.251922767609358 61.87060210481286 147.30829876661301 60.477238655090332 285.16409582644701 35.8516910597682 42.958524152636528 40.004800878465176 14.95550863444805 177.28631241619587 221.25326520949602 40.955783188343048 37.471528172492981 12.579398214817045 164.12402535974979 20.887305624783039 38.345401592552662
leaf_count=300 4446 1216 1129 1511 4731 860 2724 2008 182 481 880 1049 888 432 985 995 712 421 50 175 187 53 188 443 191 35 23 210 114 78
internal_value=0 0.035901 0.0584267 0.0281753 0.0304275 0.0246631 0.0123285 -0.00831838 0.0205349 0.0278217 0.0378865 0.021164 0.00809111 -0.0157854 0.00542338 -0.018944 0.0120081 0.0474307 0.0295693 -0.0211806 0.0577997 -0.0321307 0.0615101 0.0455419 0.031078 -0.0101292 -0.0690727 0.0670897 0.0405245 0.00427313
internal_weight=0 7730.03 1974.12 5755.9 5175.52 3336.65 1726.34 491.003 1235.34 1042.85 1610.31 585.115 580.386 233.568 161.123 192.485 324.56 1025.2 376.554 91.3896 648.641 75.4327 1842 476.967 299.681 78.4273 55.5379 1365.03 185.011 78.3502
internal_count=27697 23251 2610 20641 16825 12094 8015 3633 4382 3205 4079 2265 3816 2305 1417 1177 1625 1814 669 248 1145 765 2310 857 669 226 198 1453 324 265
is_linear=0
shrinkage=0.05


Tree=22
num_leaves=31
num_cat=0
split_feature=1 5 5 6 13 6 8 5 5 5 5 5 5 5 5 5 7 5 5 5 6 5 5 6 5 5 6 6 9 5
split_gain=393.1 221.952 656.731 151.635 143.115 177.764 175.881 131.15 238.746 91.6686 209.674 439.32 132.753 124.02 506.727 85.8407 80.8198 80.6758 219.35 105.8 103.976 175.956 118.547 73.8231 73.0905 386.078 69.128 56.2621 34.6852 37.2856
threshold=-0.24308930782712723 0.22259199080342623 -1.7042947789040035 6.6719260162795111 1.0000000180025095e-35 0.15647253816032725 1.0000000180025095e-35 0.23806899296975095 0.3386695070508618 0.82619507529009117 0.71785606012581804 0.77976406879111682 0.84167207745641581 0.65594805146051904 0.60951704496154469 0.67142505362684368 -1.3376863317777117 0.47022402546462211 0.39283901463299836 0.50117802979727155 1.0000000180025095e-35 0.5785630406288953 0.59404004279522005 1.0000000180025095e-35 0.51665503196359641 0.54760903629624591 1.0000000180025095e-35 0.38916730523601234 1.1132383676796691 0.22259199080342623
decision_type=2 2 2 2 2 2 2 2 2 2 2 2 2 2 2 2 2 2 2 2 2 2 2 2 2 2 2 2 2 2
left_child=4 2 27 -4 16 28 -7 -3 -9 10 13 -12 -11 14 17 -15 -1 18 -10 -19 24 -22 -23 -17 -21 -26 -13 -2 -6 -30
right_child=1 7 3 -5 5 6 -8 8 9 12 11 26 -14 15 -16 23 -18 19 -20 20 21 22 -24 -25 25 -27 -28 -29 29 -31
leaf_value=-0.0052553118904906035 0.031152506886464544 0.0679150674164503 -0.051591171436906974 0.070772837253808188 0.02986183330959364 0.067398707506211561 -0.083125372478608683 -0.066262859611363509 0.04732695099531728 0.079944764324107354 -0.057949818758537067 0.034418419763312801 -0.054964323484995338 0.064492547439178996 -0.055447262548821256 0.037562806912594497 0.070178603464608968 0.075009520976318217 -0.054261718511697088 0.075694057747761972 -0.09938208484038677 0.034117498527887292 -0.081071209187503768 -0.055067569644557862 -0.067810383527405538 0.045548354505487193 -0.054905714166451541 0.072443729499598028 -0.050182334990864989 0.019959226451518881
leaf_weight=37.292461231350899 462.24674338102341 208.7876585945487 398.2173270508647 27.037228465080261 857.79183305799961 554.40834580361843 20.110446915030479 67.059321347624063 123.77825726568699 155.55103635787964 211.56734101474285 415.94672864675522 20.656296595931053 327.76194104552269 185.69601549953222 1437.9430505186319 741.99865864217281 158.01092278957367 93.103641904890537 118.92063455283642 36.151177391409874 183.44268324971199 25.433045953512192 21.835871145129204 83.887321997433901 717.96001874655485 22.849752366542816 100.4192868322134 28.559766300022602 56.287892237305641
leaf_count=108 1006 352 6171 26 2102 576 99 744 405 134 2352 782 265 383 2379 2912 722 142 1381 106 156 326 109 278 846 2187 281 95 98 174
internal_value=0 0.0245905 0.00308111 -0.0438114 0.0491527 0.0402069 0.0621298 0.0291936 0.0273594 0.0288058 0.0273111 0.00123217 0.0641297 0.0321379 0.0225796 0.0413691 0.0665688 0.031984 0.0037167 0.0366151 0.0314112 0.00246478 0.0200919 0.0361772 0.0391141 0.033689 0.029767 0.0385218 0.0268454 -0.00365046
internal_weight=0 5604.26 987.921 425.255 2296.45 1517.16 574.519 4616.34 4407.56 4340.5 4164.29 650.364 176.207 3513.92 1726.38 1787.54 779.291 1540.69 216.882 1323.81 1165.79 245.027 208.876 1459.78 920.768 801.847 438.796 562.666 942.639 84.8477
internal_count=27697 23818 7298 6197 3879 3049 675 16520 16168 15424 15025 3415 399 11610 8037 3573 830 5658 1786 3872 3730 591 435 3190 3139 3033 1063 1101 2374 272
is_linear=0
shrinkage=0.05


Tree=23
num_leaves=31
num_cat=0
split_feature=13 6 7 2 1 6 0 10 6 6 8 1 0 1 2 6 2 0 1 2 2 8 0 2 10 6 0 1 2 2
split_gain=373.977 394.153 117.236 62.7902 96.8911 87.1229 78.5313 67.9696 107.004 46.6051 151.935 33.7077 30.4237 43.5597 28.6463 23.3522 22.7256 21.0704 28.6403 20.2542 19.174 16.9821 16.9587 15.9997 13.8658 13.5459 17.4181 15.4306 13.2095 13.0064
threshold=1.0000000180025095e-35 0.85455683938738258 -1.3376863317777117 0.044773635772453482 -0.22107442507919681 1.0000000180025095e-35 -0.069356099979023936 0.38509782835917 1.0000000180025095e-35 0.38916730523601234 -1.0588069831294 -0.24320543413018317 -0.060316484919466513 -0.12533481442708497 1.762311638052702 1.0000000180025095e-35 0.19457903950982477 -0.069620712042756147 -0.24234558815506457 -0.19538004546501192 -0.24626815760469128 -0.95869937617452283 -0.069640168812148226 -0.24666947569291123 -0.60855478745625302 1.0000000180025095e-35 -0.013386757145784793 -0.10710251388315627 -0.24141764638048654 -0.24671284339986768
decision_type=2 2 2 2 2 2 2 2 2 2 2 2 2 2 2 2 2 2 2 2 2 2 2 2 2 2 2 2 2 2
left_child=2 3 11 4 7 14 -6 9 20 17 -11 23 13 15 -5 21 -7 18 19 -2 22 -8 -9 -1 -19 -14 28 -28 -27 -10
right_child=1 -3 -4 5 6 16 12 8 29 10 -12 -13 25 -15 -16 -17 -18 24 -20 -21 -22 -23 -24 -25 -26 26 27 -29 -30 -31
leaf_value=-0.1090062674812865 0.021641052997096434 0.069642093758307211 0.06900407939381524 0.033210653414400958 -0.031982387611609091 0.020522376348441174 -0.068845154958940794 0.022380242269003741 0.028635370419654256 0.069806152911678299 -0.079734326328207067 0.02546744414069424 0.021294851263945855 -0.016343874040188205 0.05260073884473028 -0.054280552147371985 -0.025244811959688265 0.0490485177410162 -0.0079962797304710467 -0.036393276827029773 0.040872308580769012 0.018534004134503131 -0.0010319557500643088 -0.0089730514591699739 0.023886848106119532 0.060892770434664213 0.035382202368660902 -0.025767391263305378 -0.05762839348801399 0.058054190236133056
leaf_weight=7.0568757802248028 422.85790351778269 496.73685127496719 741.59164866805077 996.9313650727272 105.14290728420019 43.018752723932266 5.6627162769436827 250.01263803243637 41.632190853357315 28.643655210733414 41.733094766736031 96.06248252093792 700.74635675176978 179.25799082964659 235.46988611295819 11.941810715943573 73.406979002058506 56.182540483772755 119.93074897304177 15.58858225867152 90.46224295720458 308.11966717243195 111.9971879273653 9.2195014804601652 2151.1888475902379 2.7226681299507645 30.244791738688946 15.65726827830076 17.216922584921122 385.07920681685209
leaf_count=29 1230 488 740 3369 1524 181 45 607 75 31 205 325 3119 1984 494 167 568 127 1099 100 239 1480 331 28 8256 8 61 123 184 480
internal_value=0 0.0267273 0.0617935 0.0234176 0.0208768 0.0330097 0.00954645 0.0250752 0.0372218 0.0213099 -0.0188707 0.0141936 0.0129804 0.00345133 0.0369154 0.0143454 -0.00833405 0.0223323 0.0136552 0.0195777 0.0202823 0.0169571 0.0151371 -0.052344 0.0245273 0.0192575 -0.0024257 0.014524 -0.0414448 0.0551839
internal_weight=0 6937.59 853.931 6440.85 5092.02 1348.83 1376.71 3715.31 879.183 2836.13 70.3767 112.339 1271.57 504.982 1232.4 325.724 116.426 2765.75 558.377 438.446 452.472 313.782 362.01 16.2764 2207.37 766.588 65.8417 45.9021 19.9396 426.711
internal_count=27697 26575 1122 26087 21475 4612 8695 12780 1732 11048 236 382 7171 3676 3863 1692 749 10812 2429 1330 1177 1525 938 57 8383 3495 376 184 192 555
is_linear=0
shrinkage=0.05


Tree=24
num_leaves=31
num_cat=0
split_feature=13 6 5 5 5 5 5 5 5 6 5 5 7 5 5 6 5 5 5 5 5 5 5 5 5 5 5 5 2 5
split_gain=359.394 379.676 122.643 428.226 578.903 403.061 230.024 387.797 123.321 305.219 183.586 257.986 114.743 110.049 357.74 108.265 97.4839 228.756 320.689 263.354 115.813 86.8493 242.921 238.331 99.4684 74.7867 93.0098 48.5952 45.8421 41.921
threshold=1.0000000180025095e-35 0.85455683938738258 0.47022402546462211 -1.7042947789040035 0.22259199080342623 0.23806899296975095 0.3386695070508618 0.36962351138351129 0.50117802979727155 1.0000000180025095e-35 0.59404004279522005 0.5785630406288953 -1.3376863317777117 0.51665503196359641 0.54760903629624591 1.0000000180025095e-35 0.5785630406288953 0.65594805146051904 0.60951704496154469 0.59404004279522005 0.67142505362684368 0.81071807312376631 0.71785606012581804 0.77976406879111682 0.84167207745641581 -2.34659036880648 -2.2072973493095573 -2.3620673709728046 1.762311638052702 0.79524107095744168
decision_type=2 2 2 2 2 2 2 2 2 2 2 2 2 2 2 2 2 2 2 2 2 2 2 2 2 2 2 2 2 2
left_child=12 2 3 15 -5 -6 -7 -8 -4 13 11 -11 -1 -10 -15 25 -16 18 19 -18 -19 22 28 -24 -23 27 -27 -2 -22 -25
right_child=1 -3 8 4 5 6 7 -9 9 10 -12 -13 -14 14 16 -17 17 20 -20 -21 21 24 23 29 -26 26 -28 -29 -30 -31
leaf_value=0.013411778315926043 0.025653736135406221 0.0683221712812319 0.074747754154980445 -0.058176253123369673 0.064607082624885515 -0.079780799494618138 0.06364070877157367 -0.054726075067540625 0.074773943038805857 -0.091228666606244888 -0.060941205684383992 0.032871504148502095 0.067624375358819697 -0.069333806212740809 0.050207204225990593 0.051010606315739254 -0.057811944306829482 0.061394342583564993 -0.05587926133238267 0.060636589364721528 0.031780337673035224 0.058631940507446759 -0.058781461403583292 0.027328711205331663 -0.054745011205809727 -0.030109984697918032 0.048229465443913405 0.081856716357776763 0.066956803474890095 -0.059079389045820087
leaf_weight=112.92360863089561 388.95475985109806 481.40541934967041 132.25188910961151 394.80251848325133 274.77798575162888 100.49236545711756 148.49287059903145 129.57976838201284 133.71349084377289 51.781608805060387 142.7148754671216 218.97674736380577 719.44771797955036 90.92678651958704 561.6099938005209 512.08306686580181 62.617485336959362 319.89756056666374 185.07053852826357 187.27159746736288 1336.0481732487679 329.47706124186516 153.67239733412862 214.50787247717381 20.552013598382473 128.40091986954212 53.748636603355408 42.680872231721878 99.517813831567764 15.019455045461653
leaf_count=382 909 488 119 6257 461 896 241 1803 121 250 1696 385 740 888 1170 698 791 382 2331 396 2794 393 1599 389 268 447 87 65 123 128
internal_value=0 0.0254927 0.0222859 0.0126244 -0.0103746 0.018511 -0.0149474 0.00848267 0.0272216 0.0256973 -0.0150508 0.00913777 0.0602696 0.0302387 0.0285735 0.0340356 0.0311278 0.0274628 -0.00599167 0.0309556 0.0333098 0.0291674 0.0247779 -0.0105903 0.051975 0.0198734 -0.0069936 0.0312112 0.0342189 0.0216745
internal_weight=0 6911.05 6429.64 2174.01 1048.15 653.343 378.565 278.073 4255.63 4123.38 413.473 270.758 832.371 3709.9 3576.19 1125.87 3485.26 2923.65 434.96 249.889 2488.69 2168.79 1818.77 383.2 350.029 613.785 182.15 431.636 1435.57 229.527
internal_count=27697 26575 26087 11864 9658 3401 2940 2044 14223 14104 2331 635 1122 11773 11652 2206 10764 9594 3518 1187 6076 5694 5033 2116 661 1508 534 974 2917 517
is_linear=0
shrinkage=0.05


Tree=25
num_leaves=31
num_cat=0
split_feature=3 3 6 3 3 3 3 11 3 8 3 9 6 6 3 4 2 4 3 3 11 4 3 3 10 4 11 3 3 11
split_gain=593.6 490.009 128.281 83.3055 105.39 144.821 137.23 198.511 103.269 138.149 121.283 108.495 96.23 73.3517 123.159 187.535 92.0029 68.642 71.1185 66.0181 64.2555 61.6426 69.8875 101.537 65.4603 53.9892 52.0508 49.5307 56.2722 181.441
threshold=1.0663849425676264 -1.3769981781562681 0.15647253816032725 0.5500119487546995 0.0078203052511262357 -0.89348528394961857 -1.0789101317278968 -0.30352477480894113 -0.5179412884493082 -0.43591520652127563 -0.12362009317398238 0.50456295359399383 1.0000000180025095e-35 1.0000000180025095e-35 -0.99441273274032704 -0.22760340334040427 -0.24659775217756019 -0.22760340334040427 -1.3112779789437139 -0.039122694186412559 -1.1708860806537162 -0.34413529221211586 0.66502229737666962 0.84575284521119387 1.8135144965383498 4.4336721515280617 1.4979179373302078 0.35519850108891343 0.45612594987962179 -0.30352477480894113
decision_type=2 2 2 2 2 2 2 2 2 2 2 2 2 2 2 2 2 2 2 2 2 2 2 2 2 2 2 2 2 2
left_child=1 20 3 4 5 6 7 -3 9 26 12 -12 -10 16 -15 -16 25 18 -9 -13 -1 -5 24 -24 -23 -8 -7 -6 29 -29
right_child=-2 2 -4 21 27 8 13 17 10 -11 11 19 -14 14 15 -17 -18 -19 -20 -21 -22 22 23 -25 -26 -27 -28 28 -30 -31
leaf_value=0.019566337956823571 -0.052762621009674542 0.027851582060654908 0.057406581179054145 0.027512913564735848 0.039544328078369495 0.01838367824637557 -0.042997010362459953 0.0482926114772625 0.024953691358953381 -0.049175947143091474 -0.039936944128836749 -0.037287409102330429 -0.058668729590960658 0.043431112998520587 0.034906702731855664 -0.095838264667591461 0.057860018305262551 -0.06271357663454398 -0.057850842799656167 0.092718036739727366 0.059200731146704759 -0.070439109547461062 0.024246509379669427 -0.044935576949620908 0.022150070828094753 0.080676373476398375 -0.044427524419930815 0.032307006340669561 0.035673297147450954 -0.065489457276483115
leaf_weight=110.71623961627483 222.52389362826943 485.19212551787496 269.79985998570919 176.68479964137077 1224.8996808752418 231.95447831973433 37.253294996917248 37.604009859263897 1079.9390332698822 159.89409866183996 154.04151758179069 14.678185038268564 35.535762950778008 247.43358141183853 65.783086270093918 47.037994630634785 561.82157079130411 97.018177304416895 27.192969627678394 29.174628533422947 1338.8874021917582 69.696960438042879 188.51866872236133 73.798858478665352 26.290464237332344 11.563843980431555 38.450863990932703 153.55173352360725 284.82732507586479 68.622595250606537
leaf_count=230 4487 1320 336 773 3045 809 179 89 3078 2114 1045 103 508 364 110 197 935 944 309 56 1651 724 1063 1141 50 27 444 396 816 458
internal_value=0 0.0301283 0.0237272 0.0221128 0.0240842 0.0189218 0.0296956 0.0118575 0.00892506 -0.0123334 0.01589 -0.0201837 0.0222897 0.041583 0.0236903 -0.0196042 0.0521391 -0.0360998 0.00374801 0.0492033 0.0561736 0.00334358 -0.00857463 0.00478323 -0.0450794 -0.0137012 0.00945211 0.0341043 0.0209614 0.00210078
internal_weight=0 7347.86 5898.26 5628.46 5093.47 3361.57 1617.9 647.007 1743.67 430.299 1313.37 197.894 1115.47 970.893 360.255 112.821 610.639 161.815 64.797 43.8528 1449.6 534.99 358.305 262.318 95.9874 48.8171 270.405 1731.9 507.002 222.174
internal_count=27801 23314 21433 21097 17346 12631 4474 2662 8157 3367 4790 1204 3586 1812 671 307 1141 1342 398 159 1881 3751 2978 2204 774 206 1253 4715 1670 854
is_linear=0
shrinkage=0.05


Tree=26
num_leaves=31
num_cat=0
split_feature=3 3 5 5 5 5 5 5 3 5 5 5 5 5 5 5 6 5 5 3 4 3 5 5 5 3 3 4 5 3
split_gain=558.697 450.211 111.579 149.007 365.564 132.181 113.571 453.22 124.961 237.331 155.471 205.403 187.391 199.772 184.792 152.574 126.688 181.05 157.235 136.553 133.528 116.807 144.617 105.006 282.983 94.8779 92.7927 117.102 81.147 169.436
threshold=-1.2807650293093136 1.0663849425676264 0.82619507529009117 0.71785606012581804 0.77976406879111682 0.84167207745641581 0.65594805146051904 0.60951704496154469 -0.79725213510266413 0.47022402546462211 0.25354599513607573 0.56308603846257055 0.22259199080342623 -1.402493236660671 0.5785630406288953 -0.97687567708674095 1.0000000180025095e-35 0.50117802979727155 0.5785630406288953 -0.99441273274032704 -0.22760340334040427 -1.0789101317278968 0.51665503196359641 0.16068398213812726 0.19163798647077676 -1.1915733303779898 0.24136172745288179 -0.34413529221211586 0.67142505362684368 0.51832542413436078
decision_type=2 2 2 2 2 2 2 2 2 2 2 2 2 2 2 2 2 2 2 2 2 2 2 2 2 2 2 2 2 2
left_child=23 2 3 6 -5 -4 7 8 9 15 12 -12 13 -10 -13 25 21 -18 -19 -20 -21 22 -11 -1 -25 -2 -6 -28 29 -8
right_child=1 -3 5 4 26 -7 28 -9 10 16 11 14 -14 -15 -16 -17 17 18 19 20 -22 -23 -24 24 -26 -27 27 -29 -30 -31
leaf_value=0.060823598538863467 0.04661071858362173 -0.052620644631741181 0.075577447846461865 -0.057622435697894395 0.034476758229356225 -0.055162593003505005 0.073799508781294695 -0.055606483759110731 0.025238040879408632 0.075036127883089498 -0.055848151449685829 0.037942006539505628 0.081093791188691242 -0.055264579069550901 -0.050811426301855735 -0.04559210401280224 0.071986245723907466 -0.10420747913647675 0.050008869870380904 0.018789688044470516 -0.092724090504819667 0.067899908057629466 -0.047974426528568197 -0.079299061841758722 0.044451741663235608 -0.01164613573681051 0.028639574513687691 -0.093172644342999433 0.028609401539347053 -0.029517580552213613
leaf_weight=1057.0273767113686 157.09224818646908 212.22795814275742 161.57881832122803 203.76868741214275 355.31173970922828 21.960152231156826 249.19760902225971 198.35562111064792 547.37479265034199 43.973808020353317 168.8558548130095 211.9730613976717 123.96548330783844 89.692256379872561 81.081513278186321 125.23274425789714 127.74496710300446 32.088643684983253 123.45910058915615 66.334720656275749 45.09283085167408 549.10946671664715 52.32289582490921 49.286534789949656 736.70333577692509 125.90272480249405 44.703875228762627 35.31634408980608 1434.6337747760117 47.198781251907349
leaf_count=1226 216 4487 148 2423 787 286 231 2642 1176 40 2396 511 117 1337 924 1377 120 129 168 147 188 671 217 336 1350 461 101 200 3246 143
internal_value=0 0.0188193 0.0216149 0.0202727 -0.00234997 0.0599346 0.0234153 0.0173139 0.0227286 0.0326657 0.0109598 -0.0119232 0.0248487 0.0139041 0.013386 0.000358325 0.0453457 0.0230322 -0.000391832 0.0137908 -0.026338 0.0589922 0.00819824 0.0505321 0.0366918 0.0206926 0.0235218 -0.0251214 0.03353 0.0573471
internal_weight=0 5635.55 5423.32 5239.78 639.101 183.539 4600.68 2869.65 2671.3 1448.35 1222.94 461.91 761.033 637.067 293.055 408.228 1040.13 394.72 266.975 234.887 111.428 645.406 96.2967 1843.02 785.99 282.995 435.332 80.0202 1731.03 296.396
internal_count=27801 24889 20402 19968 3511 434 16457 12837 10195 3734 6461 3831 2630 2513 1435 2054 1680 752 632 503 335 928 257 2912 1686 677 1088 301 3620 374
is_linear=0
shrinkage=0.05


Tree=27
num_leaves=31
num_cat=0
split_feature=3 3 5 5 5 5 5 5 5 5 5 5 3 3 5 5 5 6 5 5 3 4 3 5 3 4 7 5 3 3
split_gain=523.435 417.263 117.828 277.362 106.506 132.701 341.52 122.703 103.791 417.527 116.597 302.061 239.806 155.786 150.601 194.661 131.801 118.71 169.625 141.895 124.58 122.027 106.992 132.844 84.6263 107.568 81.538 78.4984 158.129 154.132
threshold=-1.2596406795624211 1.0663849425676264 0.16068398213812726 0.19163798647077676 0.82619507529009117 0.71785606012581804 0.77976406879111682 0.84167207745641581 0.65594805146051904 0.60951704496154469 0.47022402546462211 0.23806899296975095 -0.79725213510266413 -0.53202418828056985 0.22259199080342623 -1.402493236660671 0.56308603846257055 1.0000000180025095e-35 0.50117802979727155 0.5785630406288953 -0.99441273274032704 -0.22760340334040427 -1.0789101317278968 0.51665503196359641 0.24136172745288179 -0.34413529221211586 -1.248726197844914 0.67142505362684368 0.51832542413436078 1.0000000180025095e-35
decision_type=2 2 2 2 2 2 2 2 2 2 2 2 2 2 2 2 2 2 2 2 2 2 2 2 2 2 2 2 2 2
left_child=2 4 26 -4 5 8 -7 -6 9 10 11 14 17 -14 15 -2 -15 22 -19 -20 -21 -22 23 -12 -8 -26 -1 28 -10 -29
right_child=1 -3 3 -5 7 6 24 -9 27 -11 12 -13 13 16 -16 -17 -18 18 19 20 21 -23 -24 -25 25 -27 -28 29 -30 -31
leaf_value=0.009660429611027541 0.020675797035519985 -0.052486316759318197 -0.076716028048365692 0.041925404856304548 0.073814103559269137 -0.057194316189893728 0.033065988905611521 -0.054903571197302339 0.071982497826550584 -0.055309835352990416 0.073139315453740236 -0.05435526288977327 -0.049365303059825463 -0.058103791177067633 0.069504186449377031 -0.055295574437869234 0.036431791541082496 0.07046341212932912 -0.098883542868783481 0.04805549600242727 0.017867862531501154 -0.089117523239597832 0.065935004185898261 -0.046070345974838139 0.027276355652060894 -0.090104966813781551 0.063296819586099423 0.010356955942414467 -0.028057869352263676 0.043186477423859428
leaf_weight=76.300055429339409 784.02242687344551 202.38109043985605 52.752032473683357 744.66508693993092 157.2758641242981 194.65418637543917 352.68607583269477 20.985200949013233 242.87387555837631 189.33997882530093 42.886082291603088 157.77906640246511 121.61191830411553 44.877473130822182 133.49771732836962 94.478609595447779 206.62263590097427 124.0735342502594 32.123811408877373 122.08871611952782 66.27079713344574 44.584337323904037 537.49556228518486 51.35542343556881 44.59401099383831 34.708190992474556 993.20932483673096 697.43891821801662 47.172206237912178 733.56257082894444
leaf_count=151 1801 4487 378 1444 148 2421 786 286 231 2640 40 2433 1329 595 199 1425 554 120 129 168 147 188 671 216 101 200 1127 1968 143 1275
internal_value=0 0.0179702 0.0486241 0.0340768 0.0206712 0.0193436 -0.00220575 0.0586612 0.0223617 0.0163406 0.0216321 0.00999213 0.0313999 -0.00290349 0.0200244 0.0125054 0.0195629 0.0439372 0.0222131 -0.000372021 0.0132131 -0.0251601 0.0573189 0.00817789 0.0225721 -0.0240979 0.0594703 0.0319936 0.0557122 0.0271861
internal_weight=0 5481.44 1866.93 797.417 5279.06 5100.8 626.642 178.261 4474.16 2753.11 2563.77 1169.78 1393.99 373.112 1012 878.501 251.5 1020.88 389.141 265.068 232.944 110.855 631.737 94.2415 431.988 79.3022 1069.51 1721.05 290.046 1431
internal_count=27801 24701 3100 1822 20214 19780 3508 434 16272 12655 10015 5858 4157 2478 3425 3226 1149 1679 752 632 503 335 927 256 1087 301 1278 3617 374 3243
is_linear=0
shrinkage=0.05


Tree=28
num_leaves=31
num_cat=0
split_feature=3 3 6 5 5 5 5 5 5 5 3 5 3 5 5 5 6 5 5 3 4 3 5 3 4 5 3 3 3 3
split_gain=496.038 402.362 109.326 101.767 118.954 323.838 116.211 100.018 385.398 115.444 221.044 215.09 145.114 137.854 310.263 121.442 110.634 159.157 128.665 113.757 111.916 100.172 123.452 76.9487 98.9834 75.2606 147.901 139.799 251.173 194.358
threshold=-1.3769981781562681 1.0663849425676264 0.15647253816032725 0.82619507529009117 0.71785606012581804 0.77976406879111682 0.84167207745641581 0.65594805146051904 0.60951704496154469 0.47022402546462211 -0.79725213510266413 0.23806899296975095 -0.53202418828056985 0.22259199080342623 -1.402493236660671 0.56308603846257055 1.0000000180025095e-35 0.50117802979727155 0.5785630406288953 -0.99441273274032704 -0.22760340334040427 -1.0789101317278968 0.51665503196359641 0.24136172745288179 -0.34413529221211586 0.67142505362684368 0.51832542413436078 1.0000000180025095e-35 -0.2210268170068754 0.35519850108891343
decision_type=2 2 2 2 2 2 2 2 2 2 2 2 2 2 2 2 2 2 2 2 2 2 2 2 2 2 2 2 2 2
left_child=-1 2 3 4 7 -6 -5 8 9 11 16 13 -12 14 -2 -14 21 -18 -19 -20 -21 22 -11 -7 -25 26 -9 28 -27 -29
right_child=1 -3 -4 6 5 23 -8 25 -10 10 12 -13 15 -15 -16 -17 17 18 19 20 -22 -23 -24 24 -26 27 -28 29 -30 -31
