tree
version=v4
num_class=1
num_tree_per_iteration=1
label_index=0
max_feature_idx=15
objective=regression
feature_names=daily_new_cases cumulative_cases new_cases_per_million days_since_first_case appearance_order out_degree_centrality in_degree_centrality pagerank_centrality betweenness_centrality n_neighbors n_infected_neighbors pct_neighbors_infected trend_7d local_vs_global_ratio phase_score days_since_last_expansion
feature_infos=[-0.069653788550722684:95.832276125745665] [-0.24320644333907418:13.675375753035404] [-0.246725186516463:53.519941854238695] [-1.5377779512298388:2.3890039517202819] [-1.2181244587499529:9.619341206319227] [-1.3710463820025109:1.9427186069941949] [-1.2034068598420005:2.1112672371083754] [-0.39966460484681771:13.209980307363512] [-0.62140544737396031:7.0438374251456279] [-1.3710463820025109:1.9427186069941949] [-1.3514191470426922:1.9532019680555779] [-6.2879121987642055:0.18012770386729068] [-78.656620810519229:96.535301745879508] [-0.22795819266616757:12.573454756537934] [-6.0470716367573125:0.55133027605517204] [-0.74504856814894382:3.9590181081606031]
tree_sizes=2822 2929 2931 2932 2930 2919 2929 2912 2901 2899 2926 2886 2919 2931 2914 2868 2887 2921 2872 2929 2945 2917 2935 2892 2921 2880 2941 2866 2875 2894 2907 2868 2872 2855 2846 2907 2901 2867 2884 2886 2942 2908 2893 2897 2853 2890 2964 2871 2872 2876 2877 2875 2905 2871 2864 2918 2868 2924 2868 2911 2925 2863 2929 2857 2903 2868 2869 2911 2872 2886 2920 2887 2902 2862 2873 2938 2870 2895 2929 2884 2874 2923 2882 2886 2879 2899 2883 2880 2893 2862 2878 2886 2863 2857 2876 2869 2909 2864 2852 2900 2958 2883 2873 2886 2875 2962 2847 2884 2877 2935 2930 2902 2886 2917 2908 2885 2874 2932 2889 2901 2884 2856 2918 2958 2925 2890 2904 2923 2924 2912 2889 2880 2954 2916 2904 2891 2904 2958 2878 2888 2940 2927 2911 2855 2923 2883 2890 2907 2886 2896 2895 2892 2899 2923 2922 2893 2939 2944 2894 2914 2889 2927 2948 2898 2928 2901 2905 2937 2870 2922 2921 2945 2860 2915 2901 2904 2904 2918 2950 2920 2904 2893 2919 2913 2884 2903 2904 2892 2969 2905 2924 2899 2903 2889 2898 2874 2896 2926 2922 2902 2967 2982 2952 2877 2909 2908 2928 2943 2912 2871 2952 2886 2900 2887 2924 2906 2886 2919 2869 2895 2903 2896 2913 2900 2897 2892 2901 2969 2936 2926 2926 2915 2891 2916 2932 2923 2929 2947 2939 2920 2901 2924 2901 2940 2875 2931 2935 2879 2949 2903 2907 2921 2916 2875 2934 2885 2951 2950 2903 2955 2910 2881 2905 2917 2964 2899 2942 2920 2900 2890 2916 2921 2893 2925 2923 2944 2930 2930 2888 2933 2923 2913 2906 2933 2947 2924 2870 2889 2904 2940 2909 2925 2894 2905 2944 2912 2898 2891 2890 2877 2899 2901 2936 2950 2888 2901 2867 2907 2939 2916 2893 2923 2899 2924 2968 2882 2919 2886 2887 2932 2930 2879 2945 2938 2885 2939 2887 2953 2909 2940 2963 2902 2900 2927 2940 2872 2929 2928 2914 2876 2936 2958 2955 2913 2938 2957 2936 2934 2914 2951 2911 2932 2951 2931 2958 2938 2933 2972 2917 2925 2934 2913 2938 2907 2918 2956 2947 2919 2921 2915 2913 2944 2944 2928 2889 2912 2929 2937 2928 2940 2913 2952 2946 2942 2938 2968 2948 2954 2929 2926 2929 2920 2936 2927 2878 2948 2912 2935 2938 2981 2905 2910 2913 2919 2922 2957 2920 2964 2901 2912 2919 2951 2949 2928 2959 2956 2932 2969 2939 2918 2936 2981 2904 2948 2964 2928 2975 2958 2979 2924 2961 2926 2931 2925 2980 2937 2909 2955 2923 2944 2925 2958 2950 2986 2962 2953 2937 2904 2946 2955 2924 2928 2932 2946 2966 2937 2894 2948 2957 2924 2910 2938 2983 2924 2920 2950 2919 2924 2918 2925 2937 2928 2973 2912 2922 2921 2936 2922 2928 2933 2944 2936 2942 2928 2941 2920 2933 2930 2954 2914 2935 2963 2898 2935 2959 2930 2917 2930 2975 2951 2958 2960 2961 2946 2941 2942 2904 2981 2913 2930 2928 2968 2933 2980 2925 2957 2946 2956 2971 2964 2941 2898 2924 2931 2899 2966 2943 2898 2918 2956 2962 2925 2934 2961 2949 2924 2958 2947 2930 2956 2960 2952 2930 2976 2951 2932 2974 2952 2955 2988 2905 2983 2976 2968 2934 2977 2954 2942 2938 2979 2957 2965 2919 2959 2954 2962 2923 2964 2976 2951 2891 2961 2945 2990 2905 2963 2925 2946 2943 2970 2960 2957 2986 2928 2907 2931 2954 2959 2945 2949 2956 2946 2945 2940 2943 2941 2935 2939 2917 2939 2958 2934 2945 2947 2978 2959 2933 2956 2959 2930 2935 2938 2953 2986 2933 2934 2955 2963 2921 2940 2967 2959 2933 2925 2937 2942 2965 2959 2947 2948 2921 2931 2924 2959 2972 2948 2968

Tree=0
num_leaves=31
num_cat=0
split_feature=3 15 8 11 3 15 5 14 14 3 15 3 15 15 15 3 4 4 15 3 15 3 15 15 3 15 15 15 15 3
split_gain=803.722 173.626 83.1018 78.713 70.4036 59.0209 57.1601 46.0165 77.8471 45.7914 52.876 201.386 41.6599 88.824 39.9886 37.1849 34.2762 26.2385 25.5583 34.7095 25.3495 30.408 25.0874 47.9203 78.6491 29.4305 69.2429 24.3584 74.6751 30.7356
threshold=-1.3582209783812527 -0.53553971617885465 -0.16032271181767063 1.0000000180025095e-35 -0.9286925335277727 -0.66994162121627021 -1.3376863317777117 0.38034443632279002 0.42847681006055566 0.86687719495808635 0.28668370287357031 -0.89348528394961857 0.80057333978133605 0.81243233140228444 -0.61459966031851088 -0.48390761385709263 -0.34413529221211586 0.70465170763328866 -0.73318957652799521 -1.1939204803498669 -0.51972772735092343 -0.12362009317398238 -0.14814598989453909 -0.12442800665264223 0.51832542413436078 0.12065782018029216 0.18390577549201717 -0.32207786700178281 -0.36951383348557659 -0.2210268170068754
decision_type=2 2 2 2 2 2 2 2 2 2 2 2 2 2 2 2 2 2 2 2 2 2 2 2 2 2 2 2 2 2
left_child=2 4 3 6 14 -6 -1 -7 -9 10 15 17 -13 -14 18 -3 -5 -12 19 -2 -17 27 -23 24 -24 -25 -27 28 29 -22
right_child=1 9 -4 16 5 7 -8 8 -10 -11 11 12 13 -15 -16 20 -18 -19 -20 -21 21 22 23 25 -26 26 -28 -29 -30 -31
leaf_value=0.1618098743194703 0.23811838753800052 0.15014653704522352 0.24376393073121794 0.2491782953721019 0.156235552362781 0.16301281494505562 0.24575487194867848 0.19685343486373241 0.16446213816686173 0.1494712069128166 0.24187350947789535 0.15190664649902952 0.24607270530999009 0.15785176475985699 0.15251162870543522 0.14917829537210189 0.18359934800368083 0.1698679505445157 0.1873368903694409 0.14917829537210189 0.15225092107042593 0.155541620722769 0.24758255069125085 0.14960382728699551 0.14917829537210189 0.24109006007798425 0.15093268133701418 0.15093268133701418 0.24377288996669649 0.19679734299114951
leaf_weight=95 217 5164 905 87 3004 2248 555 1613 1374 6828 397 1686 161 392 300 1349 950 58 1879 55 358 2923 188 705 143 136 228 228 185 273
leaf_count=95 217 5164 905 87 3004 2248 555 1613 1374 6828 397 1686 161 392 300 1349 950 58 1879 55 358 2923 188 705 143 136 228 228 185 273
internal_value=0.165754 0.161427 0.219317 0.206203 0.171835 0.167409 0.233486 0.17382 0.181954 0.156229 0.159395 0.172044 0.159719 0.183536 0.186714 0.156527 0.189101 0.232695 0.191484 0.220134 0.161433 0.164513 0.160814 0.171821 0.20507 0.161526 0.184618 0.17983 0.187904 0.171524
internal_weight=0 32092 2592 1687 10690 8239 650 5235 2987 21402 14574 2694 2239 553 2451 11880 1037 455 2151 272 6716 5367 4323 1400 331 1069 364 1044 816 631
internal_count=34684 32092 2592 1687 10690 8239 650 5235 2987 21402 14574 2694 2239 553 2451 11880 1037 455 2151 272 6716 5367 4323 1400 331 1069 364 1044 816 631
is_linear=0
shrinkage=1


Tree=1
num_leaves=31
num_cat=0
split_feature=3 15 8 3 11 15 4 14 3 15 3 15 3 15 14 3 14 14 15 15 4 3 15 6 15 3 15 3 15 15
split_gain=651.015 140.637 67.9359 57.1245 55.9409 46.4362 45.5788 40.455 64.0437 37.8064 37.1367 43.0046 163.256 34.6892 52.0987 35.3233 55.3319 33.9941 33.4003 72.3036 31.169 29.4377 22.8662 22.5362 20.755 25.1427 20.4396 28.53 19.8496 38.729
threshold=-1.3582209783812527 -0.53553971617885465 -0.2098683069894498 -0.91226248372463414 1.0000000180025095e-35 -0.66994162121627021 0.2385241521464421 0.38034443632279002 0.53475547393749945 -0.61459966031851088 0.91147304442374832 0.28668370287357031 -0.89348528394961857 -0.58297568266264832 0.39899803122280436 0.12283065387309632 0.41793198284145588 0.44551178260256102 0.80057333978133605 0.81243233140228444 -0.22760340334040427 -0.48390761385709263 0.36574364701322654 -0.43591520652127563 -0.51972772735092343 -0.12362009317398238 -0.73318957652799521 -1.1939204803498669 -0.14814598989453909 -0.12442800665264223
decision_type=2 2 2 2 2 2 2 2 2 2 2 2 2 2 2 2 2 2 2 2 2 2 2 2 2 2 2 2 2 2
left_child=2 3 4 9 6 -5 -1 -7 13 26 11 21 22 15 -15 -9 -17 23 -14 -20 -6 -3 -13 -18 -23 -26 27 -2 -27 -30
right_child=1 10 -4 5 20 7 -8 8 -10 -11 -12 12 18 14 -16 16 17 -19 19 -21 -22 24 -24 -25 25 28 -28 -29 29 -31
leaf_value=0.075424510240554812 0.065128251484462205 -0.014046412724842867 0.066421088216813293 -0.0087140925740854854 0.075082170963287356 -0.0033950605736690863 0.01012921700668004 -0.0040329394517121487 -0.010448355992347905 -0.012268819527966636 -0.014796086260648026 0.074120258641822728 -0.012462312888137528 0.063333522542467657 0.001396078721217003 0.069510056732714862 0.030697143276532491 0.063700844205039395 0.072287138981848784 -0.0071908531240140548 0.012064004865965046 -0.014918997111693822 0.024022402933665685 -0.018555021681822836 0.01266837754925549 -0.0092914499800746172 0.019528746318416185 -0.014930431864091329 0.034783312980808431 -0.0038166792703599769
leaf_weight=415 217 5164 1144 2938 87 2154 144 189 761 350 6621 329 1686 159 931 435 180 136 161 396 802 1405 126 192 1044 2975 1992 56 335 1160
leaf_count=415 217 5164 1144 2938 87 2154 144 189 761 350 6621 329 1686 159 931 435 180 136 161 396 802 1405 126 192 1044 2975 1992 56 335 1160
internal_value=0 -0.00389359 0.0482072 0.00547319 0.0338172 0.00131325 0.0586043 0.00704818 0.0145892 0.0183189 -0.00857216 -0.00578422 0.00563068 0.0231641 0.010431 0.0354248 0.0433331 0.0209178 -0.00544842 0.0157821 0.0182311 -0.00833304 0.060247 0.00527667 -0.00406885 -0.00130417 0.0230455 0.048706 -0.00456756 0.00483282
internal_weight=0 32092 2592 10690 1448 8075 559 5137 2983 2615 21402 14781 2698 2222 1090 1132 943 508 2243 557 889 12083 455 372 6919 5514 2265 273 4470 1495
internal_count=34684 32092 2592 10690 1448 8075 559 5137 2983 2615 21402 14781 2698 2222 1090 1132 943 508 2243 557 889 12083 455 372 6919 5514 2265 273 4470 1495
is_linear=0
shrinkage=0.1


Tree=2
num_leaves=31
num_cat=0
split_feature=3 15 8 11 14 15 5 14 14 15 3 15 3 15 15 14 15 4 15 15 14 15 15 3 15 15 15 15 3 4
split_gain=527.322 113.916 56.6292 53.1939 47.191 45.915 39.698 30.9939 55.3469 30.6452 30.1726 34.5844 132.465 26.043 58.7884 25.1715 23.5617 19.4431 18.3034 46.0174 23.0037 31.647 68.9992 19.2547 24.3039 20.2914 43.029 40.6283 33.5691 17.347
threshold=-1.3582209783812527 -0.53553971617885465 -0.16032271181767063 1.0000000180025095e-35 1.0000000180025095e-35 -0.68575361004420154 -1.293206264811313 0.38322314374369676 0.42847681006055566 -0.6304116491464421 0.84575284521119387 0.28668370287357031 -0.94512258333091126 0.80057333978133605 0.81243233140228444 0.29266052805507342 -0.58297568266264832 -0.11107151446869271 0.12065782018029216 0.18390577549201717 0.45391105673228421 -0.14814598989453909 -0.12442800665264223 -0.12362009317398238 -0.47229176086712971 -0.35370184465764526 -0.36951383348557659 -0.46438576645316404 -0.2210268170068754 0.70465170763328866
decision_type=2 2 2 2 2 2 2 2 2 2 2 2 2 2 2 2 2 2 2 2 2 2 2 2 2 2 2 2 2 2
left_child=2 4 3 6 9 -6 -1 -7 -9 -2 11 15 29 -14 -15 -3 17 -5 20 -20 21 23 -23 24 -17 26 27 28 -26 -13
right_child=1 10 -4 16 5 7 -8 8 -10 -11 -12 12 13 14 -16 18 -18 -19 19 -21 -22 22 -24 -25 25 -27 -28 -29 -30 -31
leaf_value=0.00331636370459864 0.019909659050177803 -0.012398188151554627 0.063567133838959164 0.042148086119948143 -0.0099042627595889096 -0.003111240630987281 0.066808545150017704 0.025608524951744316 -0.0010210022477141819 -0.01078829880066734 -0.013150762201528138 0.0628179855160899 -0.010809337937565255 0.065058424754172381 -0.0066075487570329151 -0.013214008945211268 -0.012334426969289781 0.011599584962888683 0.063253414024199761 -0.012560698501566514 -0.014323431887997269 0.070335527596638567 -0.013160355025501343 -0.0079172006902523771 -0.0082803258608127456 -0.013931726099866809 0.0702817234583199 -0.017895599472813491 0.070602721689452586 0.0012831013936262865
leaf_weight=121 2492 5500 905 391 2616 2084 529 1602 1522 374 6913 385 1699 161 396 387 200 446 140 187 1679 188 209 2706 87 165 160 246 142 52
leaf_count=121 2492 5500 905 391 2616 2084 529 1602 1522 374 6913 385 1699 161 396 387 200 446 140 187 1679 188 209 2706 87 165 160 246 142 52
internal_value=0 -0.00350423 0.0433865 0.0325604 0.00492587 0.00090459 0.0549892 0.00633392 0.0126347 0.0159037 -0.00771494 -0.0051214 0.00510375 -0.00465747 0.0141074 -0.00745578 0.0185019 0.0258702 -0.00313825 0.0198979 -0.00440024 -0.000516545 0.0263793 -0.00325932 0.00735923 0.0173115 0.0254299 0.0103219 0.0406341 0.0554958
internal_weight=0 32092 2592 1687 10690 7824 650 5208 3124 2866 21402 14489 2693 2256 557 11796 1037 837 6296 327 5969 4290 397 3893 1187 800 635 475 229 437
internal_count=34684 32092 2592 1687 10690 7824 650 5208 3124 2866 21402 14489 2693 2256 557 11796 1037 837 6296 327 5969 4290 397 3893 1187 800 635 475 229 437
is_linear=0
shrinkage=0.1


Tree=3
num_leaves=31
num_cat=0
split_feature=3 15 8 11 3 5 15 14 3 15 14 3 14 14 15 3 15 14 15 15 4 3 3 6 15 15 3 15 14 15
split_gain=427.131 92.2721 45.8696 43.0871 38.3922 32.9072 30.9168 26.551 45.6737 27.9675 41.0268 29.1541 41.7986 29.2248 25.4299 24.5397 28.2517 107.971 28.1061 40.8663 21.2772 19.493 19.0115 18.5579 18.1227 16.4574 23.1269 16.2928 20.451 22.3609
threshold=-1.3582209783812527 -0.53553971617885465 -0.16032271181767063 1.0000000180025095e-35 -0.91226248372463414 -1.3376863317777117 -0.66994162121627021 0.38034443632279002 0.53475547393749945 -0.58297568266264832 0.39899803122280436 0.12283065387309632 0.41793198284145588 0.44551178260256102 -0.61459966031851088 0.92907666921282528 0.28668370287357031 -0.043630720409234998 0.80057333978133605 0.81243233140228444 -0.34413529221211586 -0.5179412884493082 -1.1587132307717127 -0.56939201579444509 -0.58297568266264832 -0.73318957652799521 -1.1939204803498669 -0.37741982789954215 0.45391105673228421 0.12856381459425778
decision_type=2 2 2 2 2 2 2 2 2 2 2 2 2 2 2 2 2 2 2 2 2 2 2 2 2 2 2 2 2 2
left_child=2 4 3 5 14 -1 -6 -8 9 11 -11 -9 -13 23 25 16 21 -18 -19 -20 -5 -3 -21 -14 -22 26 -2 -23 -29 -30
right_child=1 15 -4 20 6 -7 7 8 -10 10 -12 12 13 -15 -16 -17 17 18 19 22 24 27 -24 -25 -26 -27 -28 28 29 -31
leaf_value=-0.0048939661916933561 0.056651940708336193 -0.011443573267981556 0.057210417844313945 0.06398538248292332 -0.0071589580912667927 0.058799330414952458 -0.0027579561858234744 -0.005784926890696168 -0.0093323651539668467 0.054565756688327909 -0.00039766250952486069 0.059998198507846094 0.026832207106053829 0.057432861187878784 -0.010122077826942716 -0.012060382851576944 0.057326986532999002 -0.0098686912652311814 0.058070670592564128 0.050367837489554382 0.019222803280541774 -0.0085053043597527137 -0.0072045823363544731 -0.017903230704215109 -0.015306688907899355 0.015685107431049089 -0.015428354191992963 0.007773275600028772 -0.013353367779779033 0.013759757749154526
leaf_weight=95 217 5130 905 87 2938 555 2154 189 761 159 931 435 176 136 350 6518 339 1694 162 66 760 3275 438 196 190 1992 56 2082 1301 397
leaf_count=95 217 5130 905 87 2938 555 2154 189 761 159 931 435 176 136 350 6518 339 1694 162 66 760 3275 438 196 190 1992 56 2082 1301 397
internal_value=0 -0.00315381 0.0390478 0.0293044 0.00443328 0.0494903 0.00102295 0.00570242 0.0118116 0.0190531 0.00761994 0.030062 0.0372466 0.0177644 0.0149642 -0.00694345 -0.00470264 0.00455443 -0.00302604 0.0143786 0.0166517 -0.0067531 0.000334663 0.00326192 0.0123169 0.0188407 0.0418662 -0.00334245 0.00113065 -0.0070142
internal_weight=0 32092 2592 1687 10690 650 8075 5137 2983 2222 1090 1132 943 508 2615 21402 14884 2699 2360 666 1037 12185 504 372 950 2265 273 7055 3780 1698
internal_count=34684 32092 2592 1687 10690 650 8075 5137 2983 2222 1090 1132 943 508 2615 21402 14884 2699 2360 666 1037 12185 504 372 950 2265 273 7055 3780 1698
is_linear=0
shrinkage=0.1


Tree=4
num_leaves=31
num_cat=0
split_feature=3 15 5 10 14 15 15 14 14 6 3 15 14 15 15 15 14 3 3 3 14 15 15 15 15 3 15 15 14 15
split_gain=345.976 74.7404 39.074 35.8211 32.4763 30.2153 23.525 22.3556 37.6641 21.5863 20.0203 22.6329 87.8229 23.8638 32.8138 19.3957 17.0111 15.4149 14.0632 13.7776 13.1751 17.8288 19.5625 33.5134 35.3097 25.7442 16.4175 24.7062 50.8251 18.2826
threshold=-1.3582209783812527 -0.53553971617885465 -1.0930459634625185 -0.087235230528588781 0.0078896695672443732 -0.68575361004420154 -0.6304116491464421 0.38322314374369676 0.42847681006055566 1.2881602465904973 0.84575284521119387 0.28668370287357031 0.0078896695672443732 0.80057333978133605 0.81243233140228444 -0.58297568266264832 0.29266052805507342 -1.1915733303779898 -1.4122054277344223 0.22258452767786627 0.35107191733227844 -0.47229176086712971 -0.35370184465764526 -0.36951383348557659 -0.46438576645316404 -0.22454754196469082 -0.14814598989453909 -0.12442800665264223 0.40880814704002472 0.12065782018029216
decision_type=2 2 2 2 2 2 2 2 2 2 2 2 2 2 2 2 2 2 2 2 2 2 2 2 2 2 2 2 2 2
left_child=2 4 -1 9 6 -6 -2 -7 -9 -4 11 16 -13 19 -15 -5 -3 -16 -11 -14 21 -18 23 24 25 -23 -22 28 -28 -29
right_child=1 10 3 15 5 7 -8 8 -10 18 -12 12 13 14 17 -17 20 -19 -20 -21 26 22 -24 -25 -26 -27 27 29 -30 -31
leaf_value=0.0062729296666248621 0.016319684757175174 -0.01008794734532183 0.055320116421577796 0.02900379945543155 -0.0083244338317553946 -0.0032864422307470526 -0.009429205033175847 0.020962514416704169 -0.0010049919290627193 0.035500099571699598 -0.010676962345877346 0.050255127679868783 -0.011530194453262407 0.052263604527638285 0.047987274775902429 -0.019225354131899384 -0.01105304081385073 -0.0060598185345462473 -0.02264857441186905 0.027298626948877708 -0.0081277165159746763 -0.0094800333579381311 -0.014407255189061838 0.060669799508719618 -0.015944197593489664 0.062275339802106228 0.063462537689053494 -0.012048201537277432 -0.015704452164214233 0.016695575317206942
leaf_weight=397 2596 5500 1183 682 2562 1997 411 1602 1522 181 6913 358 1578 162 60 95 380 438 54 97 3733 75 177 174 256 150 184 698 145 324
leaf_count=397 2596 5500 1183 682 2562 1997 411 1602 1522 181 6913 358 1578 162 60 95 380 438 54 97 3733 75 177 174 256 150 184 698 145 324
internal_value=0 -0.00283842 0.035143 0.0403646 0.00398996 0.000541732 0.0128003 0.00497741 0.01026 0.049821 -0.00624911 -0.00413648 0.00413531 -0.00293573 0.0131693 0.0231071 -0.00602492 0.000451879 0.0221383 -0.0092816 -0.00247557 0.00689347 0.0150902 0.0230613 0.00945652 0.0383569 -0.0047091 0.004737 0.0285713 -0.00293569
internal_weight=0 32092 2592 2195 10690 7683 3007 5121 3124 1418 21402 14489 2693 2335 660 777 11796 498 235 1675 6296 1212 832 655 481 225 5084 1351 329 1022
internal_count=34684 32092 2592 2195 10690 7683 3007 5121 3124 1418 21402 14489 2693 2335 660 777 11796 498 235 1675 6296 1212 832 655 481 225 5084 1351 329 1022
is_linear=0
shrinkage=0.1


Tree=5
num_leaves=31
num_cat=0
split_feature=3 15 15 3 5 11 8 3 15 3 3 15 15 15 15 3 15 15 14 3 14 15 14 4 14 3 14 7 4 14
split_gain=281.987 63.5602 33.9238 35.0401 30.4286 22.4182 21.9034 16.7135 18.115 71.3975 17.9107 18.5928 43.9915 15.9153 30.4852 14.4453 13.9717 13.6003 28.1204 21.6352 27.0913 30.9981 28.4939 16.8992 15.935 28.7954 26.428 17.9347 15.6972 13.7103
threshold=-1.3769981781562681 -0.53553971617885465 -0.70947159328609832 -1.2103505301530053 -1.0930459634625185 1.0000000180025095e-35 -0.16032271181767063 0.58404562334691512 0.28668370287357031 -0.89348528394961857 -0.3395578905866608 -0.14814598989453909 -0.12442800665264223 0.80057333978133605 0.81243233140228444 0.22258452767786627 3.8206632059162051 -0.65412963238833899 -0.061754171391770828 0.53475547393749945 0.38842117812869031 -0.61459966031851088 0.39899803122280436 0.12199226327473049 0.42057532806040038 0.12283065387309632 0.44551178260256102 -0.023044424494834799 -0.34413529221211586 0.43272968667555944
decision_type=2 2 2 2 2 2 2 2 2 2 2 2 2 2 2 2 2 2 2 2 2 2 2 2 2 2 2 2 2 2
left_child=4 2 3 -2 -1 -6 -7 8 10 16 -3 -12 -13 15 -15 -11 -10 18 -4 20 -19 24 23 -23 25 27 28 -22 29 -26
right_child=1 7 17 -5 5 6 -8 -9 9 13 11 12 -14 14 -16 -17 -18 19 -20 -21 21 22 -24 -25 26 -27 -28 -29 -30 -31
leaf_value=0.0069689624618900856 0.044815271291030849 -0.0090006469382550233 0.011182753811590375 0.0039527211529109428 0.051107652691921392 0.018878856933846767 0.046950447139323961 -0.008919508114762744 0.044711211800714523 -0.010316533606107917 -0.0026525553909101307 0.055247277828879386 -0.0078580455811879113 0.048124746084213257 -0.0040122301697731021 0.033494772111313256 -0.021890294814811036 0.0014254241271231733 -0.0077587876783878603 -0.0096447514035762905 -0.023433140650087475 0.063867622613906869 -0.0016144209547047682 -0.036132374405860902 0.064840663779865623 0.049606457007817989 0.047061524585068945 0.076477903940460903 -0.015489837885657443 -0.01388844090539056
leaf_weight=368 394 5529 1088 449 808 735 447 8874 428 1589 3906 191 262 160 375 79 34 3093 2803 858 98 109 986 20 55 484 166 22 237 37
leaf_count=368 394 5529 1088 449 808 735 447 8874 428 1589 3906 191 262 160 375 79 34 3093 2803 858 98 109 986 20 55 484 166 22 237 37
internal_value=0 -0.00243526 0.00378207 0.023051 0.0333852 0.0382702 0.0294948 -0.00559776 -0.00324954 0.00406777 -0.00522169 -0.000428415 0.0187493 -0.00342783 0.0115801 -0.00824154 0.0398098 0.00216674 -0.00246236 0.00508837 0.00747033 0.0159152 0.00416781 0.0483637 0.0278336 0.0387344 0.0145323 -0.00511612 -0.00188063 0.0331779
internal_weight=0 32326 10899 843 2358 1990 1182 21427 12553 2665 9888 4359 453 2203 535 1668 462 10056 3891 6165 5307 2214 1115 129 1099 604 495 120 329 92
internal_count=34684 32326 10899 843 2358 1990 1182 21427 12553 2665 9888 4359 453 2203 535 1668 462 10056 3891 6165 5307 2214 1115 129 1099 604 495 120 329 92
is_linear=0
shrinkage=0.1


Tree=6
num_leaves=31
num_cat=0
split_feature=3 15 15 3 5 11 6 5 3 3 15 3 4 15 15 14 15 15 14 15 3 15 15 15 3 15 15 3 6 15
split_gain=228.41 51.4838 27.4782 28.3825 25.3225 22.0002 20.4766 14.8157 16.6346 13.9336 15.0788 58.5823 12.4877 12.0176 25.0874 11.1826 11.2144 52.1902 12.1247 17.7196 16.8045 26.008 11.6551 37.1119 17.9137 19.4397 28.2968 26.2729 18.0934 11.0162
threshold=-1.3769981781562681 -0.53553971617885465 -0.70947159328609832 -1.2103505301530053 -1.2042461308785153 1.0000000180025095e-35 1.0000000180025095e-35 0.60831659800223292 -1.461495577143838 0.92907666921282528 0.28668370287357031 -0.89348528394961857 0.82118359650500017 0.80057333978133605 0.81243233140228444 0.26051094736564601 0.12065782018029216 0.18390577549201717 0.45391105673228421 -0.36951383348557659 -0.29144131616318353 -0.35370184465764526 -0.14814598989453909 -0.12442800665264223 0.30356120170762074 -0.25882991169005781 -0.31417187258781715 0.50189537433122222 -0.8029764320224918 -0.65412963238833899
decision_type=2 2 2 2 2 2 2 2 2 2 2 2 2 2 2 2 2 2 2 2 2 2 2 2 2 2 2 2 2 2
left_child=4 2 3 -2 -1 -6 7 -7 -9 10 15 12 -12 -13 -15 -3 18 -18 19 -17 21 -21 24 -24 -22 26 28 -28 -26 -4
right_child=1 9 29 -5 5 6 -8 8 -10 -11 11 13 -14 14 -16 16 17 -19 -20 20 22 -23 23 -25 25 -27 27 -29 -30 -31
leaf_value=0.0018157753933753286 0.040333745428148264 -0.0083524793593538951 -0.0022161248723819057 0.0035574490250086205 0.046329624144699294 0.045463430326896703 0.0066516548545294506 0.065536999125634474 0.0084528927211117988 -0.0088946974709122485 0.041620230660241307 -0.0074846132007711438 -0.010843114438010198 0.042742111279357294 -0.0040569094964479019 -0.0057872779001844916 0.058725292356684805 -0.013105860547585921 -0.0098453768368555999 0.060789648168965399 -0.0095335240732564788 -0.0081453942803926382 0.05053421513586448 -0.010615449498572418 0.084392335469072516 -0.013405442681116396 0.086467403173446658 -0.013228166103363038 -0.013509036858279005 0.004579536216054037
leaf_weight=280 394 5217 3891 449 841 489 397 62 289 6518 411 1686 51 161 397 2642 160 275 1962 133 867 93 189 209 22 158 108 35 133 6165
leaf_count=280 394 5217 3891 449 841 489 397 62 289 6518 411 1686 51 161 397 2642 160 275 1962 133 867 93 189 209 22 158 108 35 133 6165
internal_value=0 -0.00219174 0.00340386 0.0207459 0.0300467 0.0338507 0.0253666 0.0342117 0.0185361 -0.00503798 -0.00335188 0.00340161 0.0358288 -0.00327459 0.00944603 -0.00484946 -0.00223347 0.0133148 -0.00326591 -0.000452898 0.00678564 0.0324226 0.00341902 0.018423 -0.00109464 0.0149504 0.0299846 0.0620664 0.000386642 0.00195007
internal_weight=0 32326 10899 843 2358 2078 1237 840 351 21427 14909 2706 462 2244 558 12203 6986 435 6551 4589 1947 226 1721 398 1323 456 298 143 155 10056
internal_count=34684 32326 10899 843 2358 2078 1237 840 351 21427 14909 2706 462 2244 558 12203 6986 435 6551 4589 1947 226 1721 398 1323 456 298 143 155 10056
is_linear=0
shrinkage=0.1


Tree=7
num_leaves=31
num_cat=0
split_feature=3 15 14 5 11 6 3 3 14 15 14 3 15 14 3 14 14 1 15 14 6 14 14 6 12 5 3 3 3 15
split_gain=185.012 41.7019 23.3032 20.5112 17.8202 16.5861 14.1545 12.2377 17.7528 16.1358 16.1732 26.0807 17.7264 27.1286 20.8545 23.7715 21.0319 14.9027 14.3359 13.9945 13.2422 12.6376 22.0396 20.5164 12.3528 12.0007 13.474 11.8562 11.2862 12.2138
threshold=-1.3769981781562681 -0.53553971617885465 -1.3555420230017983 -1.2042461308785153 1.0000000180025095e-35 1.0000000180025095e-35 -1.2103505301530053 -0.89348528394961857 -0.24835609032280095 -0.66994162121627021 0.38034443632279002 0.53475547393749945 -0.58297568266264832 0.39899803122280436 0.10874775404183466 0.41793198284145588 0.44551178260256102 -0.24251439516222986 -0.66994162121627021 -0.078058494696607902 -0.43591520652127563 0.42057532806040038 0.42847681006055566 -0.43591520652127563 0.097374893981236763 0.60831659800223292 -1.461495577143838 0.3199912515107593 0.92907666921282528 0.28668370287357031
decision_type=2 2 2 2 2 2 2 2 2 2 2 2 2 2 2 2 2 2 2 2 2 2 2 2 2 2 2 2 2 2
left_child=3 2 6 -1 -5 25 -2 8 18 -9 -11 12 14 -14 -12 24 20 -13 -4 -10 27 -15 23 -23 -16 -6 -27 -17 29 -3
right_child=1 28 7 4 5 -7 -8 9 19 10 11 17 13 21 15 16 -18 -19 -20 -21 -22 22 -24 -25 -26 26 -28 -29 -30 -31
leaf_value=0.0016341972351074218 0.040757141576614232 -0.0043645116211688496 0.0089854891386090055 0.041696662160786102 0.040917086125882858 0.005986489858525226 0.0053505192962613433 -0.0060450531064665265 0.025488191573682401 -0.0033763541351140773 -0.010796265248899107 0.031398640884909519 0.042710990482156382 -0.014529983820328857 0.04887866038125712 0.05891977266831832 0.046697549171307508 -0.012801548798878987 -0.014000178920014329 0.0064253623501858027 -0.017525331513024867 -0.001953990399083005 -0.0071462962352022352 0.065645814858950102 -0.015527728945016861 0.058983299040025285 0.0076076034907651196 0.0032047461390495302 -0.0080052277836268511 0.0030614448288635954
leaf_weight=280 256 12203 576 841 489 397 202 2761 686 2046 162 86 159 431 429 55 136 675 513 878 192 79 316 104 32 62 289 125 6518 2706
leaf_count=280 256 12203 576 841 489 397 202 2761 686 2046 162 86 159 431 429 55 136 675 513 878 192 79 316 104 32 62 289 125 6518 2706
internal_value=0 -0.00197256 0.00306348 0.027042 0.0304656 0.02283 0.0251411 0.00209503 0.00796077 9.68499e-05 0.00347019 0.0081693 0.0136457 0.00453921 0.022414 0.0279662 0.0130456 -0.00780652 -0.00184247 0.0147867 0.000742788 -0.00198694 0.00884683 0.0364634 0.0444079 0.0307905 0.0166825 0.0202288 -0.00453418 -0.00301669
internal_weight=0 32326 10899 2358 2078 1237 458 10441 2653 7788 5027 2981 2220 1089 1131 969 508 761 1089 1564 372 930 499 183 461 840 351 180 21427 14909
internal_count=34684 32326 10899 2358 2078 1237 458 10441 2653 7788 5027 2981 2220 1089 1131 969 508 761 1089 1564 372 930 499 183 461 840 351 180 21427 14909
is_linear=0
shrinkage=0.1


Tree=8
num_leaves=31
num_cat=0
split_feature=3 15 15 3 5 11 6 3 5 3 15 3 3 15 15 3 3 14 15 14 3 15 14 3 14 14 1 15 15 4
split_gain=149.86 33.7785 19.508 19.4261 16.6294 14.271 13.5457 10.4584 9.877 10.914 9.67645 15.1558 9.14182 9.94921 17.748 9.8379 8.79828 18.565 15.5915 13.284 21.1254 14.3584 21.9741 17.1867 21.3866 17.0359 12.0712 11.8384 20.2169 11.2231
threshold=-1.3769981781562681 -0.53553971617885465 -0.70947159328609832 -1.2080033801811285 -1.1708860806537162 1.0000000180025095e-35 1.0000000180025095e-35 -1.461495577143838 0.60831659800223292 -1.461495577143838 -0.58297568266264832 -1.3934282279594068 0.92907666921282528 0.80057333978133605 0.81243233140228444 -1.1915733303779898 -0.89348528394961857 -0.24835609032280095 -0.66994162121627021 0.38034443632279002 0.53475547393749945 -0.58297568266264832 0.39899803122280436 0.12283065387309632 0.41793198284145588 0.44551178260256102 -0.24251439516222986 -0.61459966031851088 -0.63831764356040777 -0.46066718108382748
decision_type=2 2 2 2 2 2 2 2 2 2 2 2 2 2 2 2 2 2 2 2 2 2 2 2 2 2 2 2 2 2
left_child=4 2 3 -2 -1 -6 8 -8 -7 -10 11 -9 13 -3 -15 -16 17 -4 -18 -20 21 23 -23 -21 -25 29 -22 28 -19 -26
right_child=1 12 16 -5 5 6 7 10 9 -11 -12 -13 -14 14 15 -17 18 27 19 20 26 22 -24 24 25 -27 -28 -29 -30 -31
leaf_value=0.0015982795888459305 0.033344554260373117 -0.0032771329847100664 -0.0048078710637969842 0.0029445010790302845 0.037504945650998683 0.037009566942932177 -0.021504602173589311 0.037570097016506515 0.0530849689437497 0.0068468431287983305 -0.01986187609934038 -0.026639808422845343 -0.0072047053688543278 0.037888531121739587 0.035710569927051891 -0.0053980432450771339 -0.0064962797439568126 0.0074544056694647049 -0.0030797416482158599 -0.0074358119213200624 0.02825877893456193 0.038439889036634436 -0.0017882445470620229 0.041951009089919347 0.032343662218299027 0.042027794043807423 -0.011521393003287139 -0.0097947349560629469 0.03279065892674618 -0.0088561876566260016
leaf_weight=283 400 14235 886 443 839 488 106 183 62 289 62 46 6518 163 67 444 2563 872 2067 188 86 159 930 435 86 136 675 194 493 286
leaf_count=283 400 14235 886 443 839 488 106 183 62 289 62 46 6518 163 67 444 2563 872 2067 188 86 159 930 435 86 136 675 194 493 286
internal_value=0 -0.00177531 0.00275713 0.0173692 0.0243378 0.0274392 0.0206065 0.00538784 0.0278077 0.0150143 0.0151837 0.024672 -0.00408076 -0.00271502 0.00915684 -8.06852e-06 0.00153219 0.00675095 -0.000144315 0.00308074 0.00735237 0.0122811 0.00408528 0.0201726 0.0256767 0.0117411 -0.00702587 0.01332 0.0166052 0.000668509
internal_weight=0 32326 10899 843 2358 2075 1236 397 839 351 291 229 21427 14909 674 511 10056 2445 7611 5048 2981 2220 1089 1131 943 508 761 1559 1365 372
internal_count=34684 32326 10899 843 2358 2075 1236 397 839 351 291 229 21427 14909 674 511 10056 2445 7611 5048 2981 2220 1089 1131 943 508 761 1559 1365 372
is_linear=0
shrinkage=0.1


Tree=9
num_leaves=31
num_cat=0
split_feature=3 15 14 5 11 6 3 3 5 3 15 3 3 14 14 15 15 14 14 6 3 3 15 14 3 4 4 3 15 15
split_gain=121.386 27.3606 16.5892 13.4741 11.715 10.8751 9.05109 8.47128 7.86471 8.84032 7.83792 12.2762 7.81472 11.8493 11.2192 10.7122 10.4656 10.6617 17.5669 10.5588 11.0486 11.2435 9.86128 16.4893 42.6119 15.6107 11.3713 9.84848 9.24217 8.22564
threshold=-1.3769981781562681 -0.53553971617885465 -1.485508199487146 -1.2042461308785153 1.0000000180025095e-35 1.0000000180025095e-35 -1.2103505301530053 -1.461495577143838 0.60831659800223292 -1.461495577143838 -0.58297568266264832 -1.3934282279594068 -0.89348528394961857 -0.24835609032280095 -0.078058494696607902 -0.68575361004420154 -0.66994162121627021 0.38842117812869031 0.42847681006055566 -0.48040747627899877 0.50189537433122222 0.64859224757353096 -0.58297568266264832 0.2975339242720525 -0.2210268170068754 -0.34413529221211586 0.12199226327473049 -0.27735841633192193 -0.66203562680230454 -0.58297568266264832
decision_type=2 2 2 2 2 2 2 2 2 2 2 2 2 2 2 2 2 2 2 2 2 2 2 2 2 2 2 2 2 2
left_child=3 2 6 -1 -5 8 -2 -7 -6 -10 11 -9 13 15 -15 -4 19 22 29 20 -14 -22 -18 -24 25 -25 -27 -28 -20 -19
right_child=1 -3 12 4 5 7 -8 10 9 -11 -12 -13 16 14 -16 -17 17 18 28 -21 21 -23 23 24 -26 26 27 -29 -30 -31
leaf_value=0.0013109493255615235 0.035110819928124225 -0.0036726884375599604 0.0077532832963845208 0.033785040430308243 0.033131663510404481 -0.019354141559803265 0.0056599728684261367 0.033813089539444514 0.047776471991692826 0.0061621586137989405 -0.01787568840288347 -0.023975827156201654 -0.0039156850817908392 0.021557261332130991 0.0044889654539915858 -0.011818797627709947 -0.0090151726654552119 0.021261809745411964 0.066006090641021739 -0.010245927054511042 0.040663269329671715 0.0034161186819776489 -0.0099861248816178107 -0.015001097321510316 -0.0031519851492096984 0.084998899698257455 0.07590799087827857 -0.015001097321510316 -0.0024745253063158429 0.0065972804004481274
leaf_weight=280 233 21427 592 841 489 106 189 183 62 289 62 46 849 686 878 530 1121 785 20 1568 129 218 437 27 384 110 22 26 1349 746
leaf_count=280 233 21427 592 841 489 106 189 183 62 289 62 46 849 686 878 530 1121 785 20 1568 129 218 437 27 384 110 22 26 1349 746
internal_value=0 -0.00159778 0.00248142 0.021904 0.0246789 0.0184878 0.0219207 0.00484906 0.0249338 0.0135128 0.0136653 0.0222048 0.00169842 0.0063498 0.0119754 -0.001492 9.48291e-05 0.00281253 0.00675658 -0.00484796 0.00222898 0.017263 -0.00256489 0.00462276 0.0158426 0.0552692 0.0672774 0.0266656 -0.00147408 0.0141163
internal_weight=0 32326 10899 2358 2078 1237 422 397 840 351 291 229 10477 2686 1564 1122 7791 5027 2900 2764 1196 347 2127 1006 569 185 158 48 1369 1531
internal_count=34684 32326 10899 2358 2078 1237 422 397 840 351 291 229 10477 2686 1564 1122 7791 5027 2900 2764 1196 347 2127 1006 569 185 158 48 1369 1531
is_linear=0
shrinkage=0.1


Tree=10
num_leaves=31
num_cat=0
split_feature=3 15 14 5 11 6 3 14 15 3 15 3 15 15 15 3 3 3 15 15 3 3 5 6 4 14 14 6 15 15
split_gain=98.3229 22.1621 13.4372 11.0496 11.7097 9.92397 7.53032 8.95778 15.7666 11.776 12.8229 42.7432 11.3629 31.922 10.2898 58.2632 7.74919 7.36225 7.05004 30.5222 14.6573 13.4097 11.0596 9.27397 6.93613 6.41249 11.5721 9.88026 9.4542 8.907
threshold=-1.3769981781562681 -0.53553971617885465 -1.485508199487146 -1.3376863317777117 1.0000000180025095e-35 1.0000000180025095e-35 0.58404562334691512 0.2550375696977813 -0.36951383348557659 0.24136172745288179 -0.35370184465764526 -0.1459180179068133 -0.14814598989453909 -0.12442800665264223 0.29854269449451876 -0.89348528394961857 -1.1587132307717127 -1.226780579956144 -0.31417187258781715 -0.25882991169005781 0.43617517511866782 0.50189537433122222 -0.93736572908012306 -0.8029764320224918 0.58811981876157693 0.0078896695672443732 -0.19331440586054041 -0.48040747627899877 -0.68575361004420154 -0.59878767149057965
decision_type=2 2 2 2 2 2 2 2 2 2 2 2 2 2 2 2 2 2 2 2 2 2 2 2 2 2 2 2 2 2
left_child=3 2 17 -1 -5 -6 7 14 -9 10 11 -10 -12 -14 -3 24 -15 -2 23 21 22 -20 -21 -11 -16 26 27 -4 -27 -28
right_child=1 6 25 4 5 -7 -8 8 9 18 12 -13 13 16 15 -17 -18 -19 19 20 -22 -23 -24 -25 -26 28 29 -29 -30 -31
leaf_value=-0.0088589567458257079 0.032146846216970254 -0.006388515576321409 0.0049162764185849504 0.030105470930859697 0.021498804766346108 0.0031469750384175753 -0.0055350866781642962 -0.0044166790629928381 0.05412680432200432 0.057852756296810894 -0.010182902494678589 -0.012077855347860151 0.044019180055850191 0.029578577021234915 0.042956784579776024 -0.006754213970785042 -0.0035572667507298436 0.0056798339379255224 0.077849531056065319 -0.012184920637531484 -0.010557282089240968 -0.010926199182868005 0.044360272046036396 -0.010995597756318464 -0.01635308081195468 -0.0049190798661033755 0.014979605911602668 -0.013093560981265021 0.0025191515649223666 -0.011233086164655357
leaf_weight=128 224 5156 980 907 880 443 8874 2663 186 23 743 205 183 76 323 1353 989 198 114 47 189 20 131 131 21 2564 1223 442 5123 145
leaf_count=128 224 5156 980 907 880 443 8874 2663 186 23 743 205 183 76 323 1353 989 198 114 47 189 20 131 131 21 2564 1223 442 5123 145
internal_value=0 -0.001438 0.00223327 0.0197136 0.0213537 0.0153538 -0.00330542 -0.00172922 0.00119985 0.00612472 0.00285939 0.0194159 -0.00039204 0.00543698 -0.00416548 0.00258879 -0.00119264 0.0197287 0.0179995 0.0237515 0.008837 0.0645994 0.0294298 -0.000713051 0.0393361 0.00152858 0.00563507 -0.000681718 3.81284e-05 0.0122012
internal_weight=0 32326 10899 2358 2230 1323 21427 12553 5700 3037 2382 391 1991 1248 6853 1697 1065 422 655 501 367 134 178 154 344 10477 2790 1422 7687 1368
internal_count=34684 32326 10899 2358 2230 1323 21427 12553 5700 3037 2382 391 1991 1248 6853 1697 1065 422 655 501 367 134 178 154 344 10477 2790 1422 7687 1368
is_linear=0
shrinkage=0.1


Tree=11
num_leaves=31
num_cat=0
split_feature=3 15 8 15 14 15 3 15 14 3 15 14 3 14 14 3 14 6 4 5 14 14 6 5 14 1 3 14 4 15
split_gain=79.9282 17.1404 10.3445 10.9666 9.77349 9.19751 8.64253 7.63015 8.74426 14.868 10.5846 17.6105 12.6714 15.7314 14.9561 11.2584 18.2743 14.6334 10.9005 10.2811 9.58067 9.30942 9.08404 8.75114 11.2457 7.91907 7.89275 9.70412 11.917 7.97848
threshold=-1.3582209783812527 -0.53553971617885465 -0.2098683069894498 -0.6304116491464421 0.0078896695672443732 -0.6304116491464421 -1.3887339280156528 -0.68575361004420154 0.38034443632279002 0.53475547393749945 -0.61459966031851088 0.39899803122280436 0.12283065387309632 0.41793198284145588 0.44551178260256102 0.28830472689042058 0.42847681006055566 -0.59163815067330672 -0.46066718108382748 -0.91512569559692369 0.4264391193270799 0.43272968667555944 -0.8029764320224918 -0.80392552818092688 0.44724355366003121 -0.24251439516222986 0.53475547393749945 0.44362634810443219 -0.22760340334040427 -0.70156559887213277
decision_type=2 2 2 2 2 2 2 2 2 2 2 2 2 2 2 2 2 2 2 2 2 2 2 2 2 2 2 2 2 2
left_child=2 4 3 6 5 -2 -1 26 -9 10 12 -12 19 22 18 -13 17 20 21 -10 -17 -15 -14 24 -16 -11 -6 28 -28 -29
right_child=1 -3 -4 -5 7 -7 -8 8 9 25 11 15 13 14 23 16 -18 -19 -20 -21 -22 -23 -24 -25 -26 -27 27 29 -30 -31
leaf_value=0.017771778832782397 0.0089395111532901955 -0.0029976108752427094 0.023998788074700985 -0.0075026341481134297 -0.0069095747978150032 -0.0071605866643489127 -0.014133919775485993 -0.0029657521495111555 0.020104278973778901 0.016155576894977201 0.0335222277790308 -0.012564723526730256 -0.010670124796720651 0.054719081946781704 0.053435244162877406 -0.025250554571346364 -0.0062176661995741039 0.05838818424023115 -0.010148937431060608 -0.022381754756412089 0.052984649720399284 -0.012239366092465141 0.039912836185910489 0.057601910829544072 -0.042398089170455934 -0.010429217786206837 0.057704780023131112 0.033691233479314381 -0.0088273117708605395 -0.0086361658502751449
leaf_weight=1100 2596 21402 1144 256 2139 411 92 1978 98 134 160 510 39 56 24 49 299 104 288 136 23 33 396 85 25 684 72 54 43 254
leaf_count=1100 2596 21402 1144 256 2139 411 92 1978 98 134 160 510 39 56 24 49 299 104 288 136 23 33 396 85 25 684 72 54 43 254
internal_value=0 -0.00136428 0.0168914 0.0112762 0.00190573 0.00673893 0.0153093 1.40988e-05 0.00224311 0.00552124 0.00960085 0.00275127 0.0162473 0.0214011 0.00950319 -0.00224706 0.00883086 0.0343963 -0.000696351 -0.00458846 -0.000258753 0.0298918 0.0353778 0.0381989 0.00454069 -0.00607425 -0.00444132 0.00803998 0.0328276 -0.00121513
internal_weight=0 32092 2592 1448 10690 3007 1192 7683 5121 3143 2325 1145 1180 946 511 985 475 176 377 234 72 89 435 134 49 818 2562 423 115 308
internal_count=34684 32092 2592 1448 10690 3007 1192 7683 5121 3143 2325 1145 1180 946 511 985 475 176 377 234 72 89 435 134 49 818 2562 423 115 308
is_linear=0
shrinkage=0.1


Tree=12
num_leaves=31
num_cat=0
split_feature=3 3 15 3 4 3 1 5 11 6 3 15 15 14 15 15 3 8 12 14 4 14 4 3 15 14 15 15 15 14
split_gain=64.7418 15.218 12.2442 13.3941 10.1952 9.61972 9.42532 8.97196 8.35583 11.1335 7.892 15.7153 26.0436 11.4998 11.2253 26.9178 11.6593 10.8745 10.4037 9.77035 9.35132 8.2022 9.36878 7.34512 36.5271 19.0462 10.3589 8.92871 13.2344 7.40794
threshold=-1.3582209783812527 0.5500119487546995 -0.71737758770006399 -1.2103505301530053 2.2195662629655399 -0.58366148766186254 -0.24278546867034825 -1.1708860806537162 1.0000000180025095e-35 -0.43591520652127563 0.10874775404183466 -0.31417187258781715 -0.26673590610402342 0.43830634144444464 -0.58297568266264832 -0.68575361004420154 0.28830472689042058 -0.16032271181767063 -0.002633248465241407 0.44551178260256102 -0.34413529221211586 0.45050913106101625 1.0000000180025095e-35 -0.8758816591605415 0.29854269449451876 -0.19331440586054041 0.36574364701322654 -0.59878767149057965 -0.63831764356040777 -0.061754171391770828
decision_type=2 2 2 2 2 2 2 2 2 2 2 2 2 2 2 2 2 2 2 2 2 2 2 2 2 2 2 2 2 2
left_child=7 2 3 4 -2 -5 -3 -1 -9 -10 23 14 13 -13 15 -12 18 -14 -17 20 -18 -21 -23 24 25 -4 -26 28 29 -27
right_child=1 6 10 5 -6 -7 -8 8 9 -11 11 12 17 -15 -16 16 19 -19 -20 21 -22 22 -24 -25 26 27 -28 -29 -30 -31
leaf_value=-0.0008783633753754735 0.036290277051831424 0.013545121312664266 -0.005463046315691375 -0.01668400573078543 -0.034682634608312085 0.019278463539030913 -0.0048964987223475559 0.025294618825378236 0.021277670786585861 0.0037273461436309651 -0.0048605283290287698 -0.0098324969072233551 -0.0046388296232168433 0.069025157693901967 -0.0042493164168510905 0.03723220079338263 0.022207278181921763 0.0247666957697203 0.0058973483288207573 0.047892849790779034 -0.013501443588683585 0.051841723918914798 -0.023926784129852944 -0.0026477416573486624 0.038349586861526092 0.011603172021767319 0.0048069654905702926 -0.0036938848114068355 0.024015713985044075 -0.0070946977037802299
leaf_weight=306 253 285 3114 160 22 139 10048 839 744 703 1065 22 303 116 1969 373 106 215 148 88 238 25 47 10960 328 513 128 545 521 361
leaf_count=306 253 285 3114 160 22 139 10048 839 744 703 1065 22 303 116 1969 373 106 215 148 88 238 25 47 10960 328 513 128 545 521 361
internal_value=0 -0.00122785 0.000272776 0.0146841 0.0306124 3.43328e-05 -0.00438785 0.0152023 0.0173548 0.0127511 -0.000117694 0.00348963 0.0178504 0.0564536 0.0011687 0.00627303 0.0178411 0.00756617 0.0283309 0.00699739 -0.00249817 0.0274128 0.00238173 -0.00115039 0.001828 -0.000617662 0.0289341 0.00715993 0.0114003 0.00388014
internal_weight=0 32092 21759 574 275 299 10333 2592 2286 1447 21185 4715 656 138 4059 2090 1025 518 521 504 344 160 72 16470 5510 5054 456 1940 1395 874
internal_count=34684 32092 21759 574 275 299 10333 2592 2286 1447 21185 4715 656 138 4059 2090 1025 518 521 504 344 160 72 16470 5510 5054 456 1940 1395 874
is_linear=0
shrinkage=0.1


Tree=13
num_leaves=31
num_cat=0
split_feature=3 15 14 3 3 5 11 3 14 15 15 15 15 4 3 14 14 3 5 12 15 15 14 15 15 14 15 14 3 5
split_gain=52.4692 13.1272 11.0932 9.68391 7.22519 6.90225 7.56869 6.75339 6.75075 8.08045 9.85773 9.0197 15.9487 19.9507 8.40812 9.49243 8.2897 12.6489 8.62336 8.52362 7.93801 16.3429 7.88757 7.15948 19.0124 7.61638 32.0295 15.827 8.24727 8.5668
threshold=-1.3769981781562681 -0.70947159328609832 0.45050913106101625 -1.2080033801811285 -0.58366148766186254 -1.3376863317777117 1.0000000180025095e-35 -1.4732313270032227 0.38034443632279002 -0.68575361004420154 -0.58297568266264832 -0.31417187258781715 -0.25882991169005781 -0.22760340334040427 0.53475547393749945 0.44362634810443219 0.39474727564814865 0.28830472689042058 1.0000000180025095e-35 -0.002633248465241407 -0.14814598989453909 -0.10071002341074535 0.44551178260256102 0.80057333978133605 0.81243233140228444 0.023786548364290765 0.29854269449451876 -0.16819666339950748 -0.97446195797937307 -0.7372054277313288
decision_type=2 2 2 2 2 2 2 2 2 2 2 2 2 2 2 2 2 2 2 2 2 2 2 2 2 2 2 2 2 2
left_child=5 3 8 -2 -5 -1 -7 -8 23 14 16 -12 13 -13 -10 -16 -11 19 22 -18 -14 -22 -19 25 -25 26 27 -3 29 -29
right_child=1 2 -4 4 -6 6 7 -9 9 10 11 12 20 -15 15 -17 17 18 -20 -21 21 -23 -24 24 -26 -27 -28 28 -30 -31
leaf_value=-0.0081814802717417486 0.022543876908719541 -0.004259050281650259 -0.0041071142779390488 -0.015259295874940499 0.011061886080286722 0.022733313298672272 -0.026353486167623643 0.012244676382844351 -0.0070547707074896816 -0.010667155617780061 -0.0015929307160126107 -0.0091145780387109736 -0.0094885136998896103 0.063597578803698221 0.047605277798951622 -0.0082124758448641182 0.034432475033559298 0.0048627463104773542 -0.011739750744977802 0.0071554045261042884 0.041842776613140648 0.00123830153957833 0.038807002588322287 0.038151412985753273 -0.0099450114122509245 -0.0031736890504469096 0.030217409785322391 0.0024458422742561618 0.0019602803850490877 0.025693438334640158
leaf_weight=128 400 3637 10122 168 275 907 47 1276 1103 137 2205 58 279 108 63 59 380 245 202 164 132 398 95 160 169 9677 362 268 1072 388
leaf_count=128 400 3637 10122 168 275 907 47 1276 1103 137 2205 58 279 108 63 59 380 245 202 164 132 398 95 160 169 9677 362 268 1072 388
internal_value=0 -0.00105047 -0.00138022 0.0112645 0.00108004 0.014401 0.0156972 0.0108735 -8.80707e-05 0.00288424 0.00488288 0.00194851 0.00995763 0.0381921 -0.00429944 0.0206114 0.0125127 0.0154369 0.00462474 0.0262092 0.00416415 0.0113511 0.0143472 -0.00115132 0.0134453 -0.00146308 0.00142736 -0.000515229 0.00736456 0.0161959
internal_weight=0 32326 31483 843 443 2358 2230 1323 21361 5628 4403 3180 975 166 1225 122 1223 1086 542 544 809 530 340 15733 329 15404 5727 5365 1728 656
internal_count=34684 32326 31483 843 443 2358 2230 1323 21361 5628 4403 3180 975 166 1225 122 1223 1086 542 544 809 530 340 15733 329 15404 5727 5365 1728 656
is_linear=0
shrinkage=0.1


Tree=14
num_leaves=31
num_cat=0
split_feature=3 14 15 3 2 15 14 5 4 15 15 15 14 3 15 15 14 15 15 15 15 14 15 3 14 4 3 3 15 5
split_gain=42.6756 10.4266 7.23757 7.58702 6.70752 10.3651 6.49143 6.55751 5.27512 5.46688 5.13563 4.6891 4.41864 21.4298 9.34091 8.27487 7.51072 10.6284 41.3087 8.18303 13.5837 8.01339 8.02484 7.69671 7.80901 11.0617 7.09656 7.17143 6.34414 12.8816
threshold=-1.3582209783812527 0.47571358959859572 -0.70947159328609832 -1.2080033801811285 -0.24515838910360088 -0.58297568266264832 0.43272968667555944 1.4979179373302078 1.9865024852221163 -0.71737758770006399 3.6546373232229272 -0.73318957652799521 -0.27859668265293341 -0.97446195797937307 0.29854269449451876 -0.22720593403419534 0.29266052805507342 0.12065782018029216 0.14832880062917184 0.80057333978133605 0.85196230347211255 0.45050913106101625 -0.63831764356040777 0.51832542413436078 0.44362634810443219 -0.22760340334040427 0.43617517511866782 0.22258452767786627 -0.63831764356040777 -0.75944546121452816
decision_type=2 2 2 2 2 2 2 2 2 2 2 2 2 2 2 2 2 2 2 2 2 2 2 2 2 2 2 2 2 2
left_child=4 2 3 8 -1 -6 7 -5 9 -2 -3 -8 -4 14 15 28 19 21 -19 -15 -21 22 23 -18 25 -25 27 -20 -14 -30
right_child=1 10 12 6 5 -7 11 -9 -10 -11 -12 -13 13 16 -16 -17 17 18 26 20 -22 -23 -24 24 -26 -27 -28 -29 29 -31
leaf_value=0.016577396457643775 0.030895373272517374 -0.0047806537590703319 -0.0039009168724232243 -0.0077383600175380714 0.010427570270086423 -0.017051794766275972 0.0079231030454761098 0.044314266913212268 -0.019917070762864475 -0.0041663518106495896 0.0092675164893821441 0.063036372483922895 0.0068424601171942108 -0.0040167568019076954 0.028341231527535812 -0.0041147202359228486 -0.0065881857369151633 0.062705630847989621 -0.0026590113608557504 0.034289313364471941 -0.0094066081500619007 -0.0051657292825120892 0.0028242694167347395 0.062381339818239213 -0.0087362322011100713 -0.01348055249144291 -0.0087272983911277358 0.041042846792510579 0.011720385116270998 0.056281667534747851
leaf_weight=1531 252 7190 3002 350 899 162 38 26 29 54 270 26 523 6700 276 387 1647 134 81 148 137 2301 7668 57 67 29 318 70 220 92
leaf_count=1531 252 7190 3002 350 899 162 38 26 29 54 270 26 523 6700 276 387 1647 134 81 148 137 2301 7668 57 67 29 318 70 220 92
internal_value=0 -0.000996884 -4.92525e-06 0.00950558 0.0123426 0.00623185 0.000872201 -0.00413898 0.0208449 0.024708 -0.00427221 0.0303129 -0.000313876 0.000202465 0.0117255 0.00797267 -0.000689279 0.0007908 0.0137395 -0.00331083 0.0132846 0.000127359 0.00141373 -0.00459515 0.0168593 0.0368 -0.000250877 0.0176001 0.0135749 0.0248603
internal_weight=0 32092 24632 775 2592 1061 440 376 335 306 7460 64 23857 20855 1498 1222 19357 12372 603 6985 285 11769 9468 1800 153 86 469 151 835 312
internal_count=34684 32092 24632 775 2592 1061 440 376 335 306 7460 64 23857 20855 1498 1222 19357 12372 603 6985 285 11769 9468 1800 153 86 469 151 835 312
is_linear=0
shrinkage=0.1


Tree=15
num_leaves=31
num_cat=0
split_feature=3 15 6 14 3 15 14 4 15 3 4 3 4 5 14 3 15 14 14 3 3 15 3 3 3 6 15 3 5 13
split_gain=34.7547 9.04764 7.69733 7.18381 13.1612 9.3402 6.25448 5.95953 5.73144 7.17884 10.3523 6.27953 18.3784 5.53995 4.79302 13.2151 44.498 11.9772 9.68182 7.30006 7.18426 5.46506 5.26683 8.63311 4.86409 11.5283 11.1038 6.13387 4.72831 4.62391
threshold=-1.3769981781562681 -0.53553971617885465 -0.48040747627899877 -0.27859668265293341 -0.99441273274032704 -0.63831764356040777 -1.2224246116186299 0.12199226327473049 -0.66994162121627021 -0.96037905814811142 1.0000000180025095e-35 -0.97446195797937307 -0.11107151446869271 -1.1708860806537162 0.2975339242720525 -0.22454754196469082 -0.58297568266264832 0.38034443632279002 0.4264391193270799 -0.91226248372463414 0.3199912515107593 -0.58297568266264832 0.53475547393749945 0.43617517511866782 -0.94512258333091126 1.2881602465904973 -0.58297568266264832 -0.97446195797937307 1.4979179373302078 -0.22616034152431094
decision_type=2 2 2 2 2 2 2 2 2 2 2 2 2 2 2 2 2 2 2 2 2 2 2 2 2 2 2 2 2 2
left_child=13 2 6 -4 5 -5 28 -7 9 10 11 12 -6 -1 19 16 -16 -17 20 24 -19 22 23 -20 25 -10 -26 -27 29 -2
right_child=1 -3 3 4 8 7 -8 -9 14 -11 -12 -13 -14 -15 15 17 -18 18 21 -21 -22 -23 -24 -25 26 27 -28 -29 -30 -31
leaf_value=-0.0014044215948758616 -0.023330024565969196 -0.002048120298210982 -0.013716002288263028 0.0076181963346032208 -0.039030477404594421 0.05420268649278686 0.0032036136341413047 0.0066499081097151115 -0.034589011262397509 -0.0078689655540516695 -0.033109058033336296 0.068041872978210446 0.060969525575637819 0.013510552104697171 -0.013755205273628236 -0.013958625363856225 0.069417871171686837 0.0085939245825538985 -0.0092664496253498582 -0.013824851782091203 0.052278400269838481 -0.01236469690986251 -0.0082720063344852348 0.031552686435835704 0.044377339109778403 -0.015672222524881364 -0.009953942779504078 0.04369207502383253 0.04398051154613495 0.01441948965191841
leaf_weight=283 35 21427 407 344 34 86 4310 38 74 1637 33 32 40 2075 140 453 119 1085 88 465 39 409 185 126 80 28 71 46 50 445
leaf_count=283 35 21427 407 344 34 86 4310 38 74 1637 33 32 40 2075 140 453 119 1085 88 465 39 409 185 126 80 28 71 46 50 445
internal_value=0 -0.000854945 0.00149079 -0.000884402 3.96e-05 0.0161 0.0044642 0.0396301 -0.00141029 -0.00601633 0.0158021 0.0310291 0.0150236 0.0117205 0.000990036 0.00300594 0.0244595 0.000676192 0.00410765 -0.00598648 0.0101097 -0.0042417 0.00408489 0.0147672 0.00620362 -0.00667955 0.0188308 0.0212299 0.0147154 0.0116669
internal_weight=0 32326 10899 6059 5652 468 4840 124 5184 1776 139 106 74 2358 3408 2644 259 2385 1932 764 1124 808 399 214 299 148 151 74 530 480
internal_count=34684 32326 10899 6059 5652 468 4840 124 5184 1776 139 106 74 2358 3408 2644 259 2385 1932 764 1124 808 399 214 299 148 151 74 530 480
is_linear=0
shrinkage=0.1


Tree=16
num_leaves=31
num_cat=0
split_feature=3 3 15 1 3 3 3 15 15 14 15 1 15 14 15 3 4 14 14 4 4 3 4 14 12 3 4 5 14 8
split_gain=28.1513 7.86679 7.0203 6.27596 5.71153 6.18555 4.69598 10.1808 16.4243 9.87605 8.89757 7.38413 6.6468 8.1929 8.00298 8.39988 13.1483 9.78538 14.2207 11.7984 7.64537 6.73928 6.58017 6.04684 9.86462 5.9538 8.61731 5.09188 5.37687 4.6835
threshold=-1.3769981781562681 0.5500119487546995 -0.6936596044581671 -0.24278546867034825 -1.2080033801811285 -0.58366148766186254 0.089970554266819144 -0.31417187258781715 -0.26673590610402342 0.43830634144444464 -0.55135170500678587 -0.24241004296290211 -0.68575361004420154 0.3911421413093597 -0.58297568266264832 0.13926070367623491 0.12199226327473049 0.42057532806040038 0.42847681006055566 -0.34413529221211586 -0.34413529221211586 0.22258452767786627 -0.34413529221211586 0.42057532806040038 -0.002633248465241407 0.45612594987962179 -0.69373095882725055 -0.55928515986573379 0.45050913106101625 -0.16032271181767063
decision_type=2 2 2 2 2 2 2 2 2 2 2 2 2 2 2 2 2 2 2 2 2 2 2 2 2 2 2 2 2 2
left_child=29 2 4 -3 -2 -6 -4 10 9 -9 12 -10 13 -8 23 16 -16 20 19 -19 21 -17 -20 24 -14 26 -25 28 -27 -1
right_child=1 3 6 -5 5 -7 7 8 11 -11 -12 -13 14 -15 15 17 -18 18 22 -21 -22 -23 -24 25 -26 27 -28 -29 -30 -31
leaf_value=0.0073306959694431672 0.017766177402877576 0.011588017382381256 -0.00085647286703076071 -0.0034604023108377488 -0.011581871061756904 0.014206789728611877 0.04944927263362655 -0.0083206415176391609 0.021924070740475299 0.056924431437048423 -0.0074657876984326674 -0.0026595089114924901 0.028838512259090288 -0.0044290072643383633 0.044152123567669899 0.057988520023914483 -0.045864816457033164 -0.023955110257322138 0.0233137648839217 0.04238004119662972 -0.018671868851022146 -0.0088250266388058673 -0.012165542990527349 0.030988571805469062 0.00091695370192223418 0.024116092499183575 -0.011343412724538492 0.042177108308625602 -0.02061950503425165 0.016721127748415613
leaf_weight=1550 409 285 16332 10048 196 177 29 29 188 116 987 349 387 1054 86 26 20 33 65 143 381 36 267 59 188 69 260 63 44 808
leaf_count=1550 409 285 16332 10048 196 177 29 29 188 116 987 349 387 1054 86 26 20 33 65 143 381 36 267 59 188 69 260 63 44 808
internal_value=0 -0.00076945 0.000299836 -0.00304534 0.00960476 0.000655644 -4.3215e-05 0.00267909 0.014011 0.0438754 0.000837691 0.00594703 0.00339082 -0.00298628 0.00663783 0.000466251 0.0271678 -0.00250995 0.00696264 0.0299422 -0.0133724 0.0191936 -0.00521929 0.0127344 0.0197094 0.00463222 -0.00351399 0.0193972 0.00669692 0.0105485
internal_weight=0 32326 21993 10333 782 373 21211 4879 682 145 4197 537 3210 1083 2127 1057 106 951 508 176 443 62 332 1070 575 495 319 176 113 2358
internal_count=34684 32326 21993 10333 782 373 21211 4879 682 145 4197 537 3210 1083 2127 1057 106 951 508 176 443 62 332 1070 575 495 319 176 113 2358
is_linear=0
shrinkage=0.1


Tree=17
num_leaves=31
num_cat=0
split_feature=3 8 3 4 14 3 1 6 14 3 15 15 14 15 15 15 4 3 5 15 3 15 15 15 15 15 3 15 3 5
split_gain=22.8026 6.72884 12.3093 6.14293 5.88237 5.5807 10.1708 5.36702 5.9554 13.5304 14.9081 11.3648 8.10355 7.08966 10.0097 5.98146 5.8053 12.2555 5.31989 6.16703 5.0951 22.0253 8.01223 20.8361 10.6944 13.5844 22.5215 16.7883 23.2564 7.76984
threshold=-1.3769981781562681 0.38509782835917 -1.2103505301530053 3.1518213739392325 0.45050913106101625 0.13926070367623491 -0.21882839705201498 -1.1032992528871228 -0.38258351335871171 -0.97446195797937307 0.29854269449451876 -0.61459966031851088 0.29266052805507342 0.80057333978133605 0.85196230347211255 -0.63831764356040777 1.0000000180025095e-35 -1.027272832346604 1.0000000180025095e-35 -0.70947159328609832 -0.1259672431458593 -0.58297568266264832 -0.31417187258781715 -0.36951383348557659 -0.41694979996937026 -0.47229176086712971 -0.22454754196469082 -0.52763372176488899 -0.2210268170068754 -0.80392552818092688
decision_type=2 2 2 2 2 2 2 2 2 2 2 2 2 2 2 2 2 2 2 2 2 2 2 2 2 2 2 2 2 2
left_child=-1 4 3 18 7 -4 -7 -2 -9 10 11 15 13 -11 -15 -10 -17 -18 19 -3 21 -14 23 24 25 27 -27 28 29 -23
right_child=1 2 5 -5 -6 6 -8 8 9 12 -12 -13 20 14 -16 16 17 -19 -20 -21 -22 22 -24 -25 -26 26 -28 -29 -30 -31
leaf_value=0.0094936065584345329 0.0053029055018887971 0.017643065983002342 -0.003268269953963906 -0.018860149180347272 -0.0032793276257923019 0.016414028227669207 -0.0012822702189181244 -0.0056884788461503757 0.0078071539672825846 -0.0045841717502461158 0.030053155470598225 -0.0049046109690591023 -0.00924095699702626 0.030919017713435377 -0.0081330315476017337 0.048365820412124907 0.048577272004269541 -0.023261234536767008 -0.0031410970377275743 0.04520418715007879 -0.00037824463920285218 0.017076746902118127 -0.0081157244694156534 0.052168531141110835 -0.010873441267860391 -0.0059429576075994053 0.068428026153406971 -0.0068416737020015718 -0.0041148556039688434 0.064738509196694161
leaf_weight=2358 1617 327 1547 44 9208 526 849 2121 482 5688 271 666 670 137 126 84 47 48 83 108 6393 48 156 140 183 65 109 323 141 119
leaf_count=2358 1617 327 1547 44 9208 526 849 2121 482 5688 271 666 670 137 126 84 47 48 83 108 6393 48 156 140 183 65 109 323 141 119
internal_value=0 -0.000692505 0.00345864 0.0170121 -0.00119395 0.000851854 0.00548737 -0.00021594 -0.000711249 -4.7138e-05 0.00867979 0.00431492 -0.00102249 -0.00384198 0.0122097 0.0136042 0.0292141 0.0122799 0.0200591 0.0244858 0.000987662 0.00545657 0.0131258 0.0160635 0.0109474 0.0159079 0.0406458 0.00908639 0.0257902 0.0510393
internal_weight=0 32326 3484 562 28842 2922 1375 19634 18017 15896 1598 1327 14298 5951 263 661 179 95 518 435 8347 1954 1284 1128 988 805 174 631 308 167
internal_count=34684 32326 3484 562 28842 2922 1375 19634 18017 15896 1598 1327 14298 5951 263 661 179 95 518 435 8347 1954 1284 1128 988 805 174 631 308 167
is_linear=0
shrinkage=0.1


Tree=18
num_leaves=31
num_cat=0
split_feature=3 14 13 3 15 14 3 14 3 14 14 15 14 6 4 11 3 5 3 3 4 7 6 4 3 8 4 1 14 3
split_gain=18.4701 5.58289 5.23064 4.8317 4.63857 11.3255 4.30505 4.23324 4.01915 3.6838 3.16718 3.1101 12.3433 10.5689 6.18979 4.43059 8.14806 9.27393 9.49571 8.84056 9.86776 5.78133 6.59583 4.30453 11.6988 3.79683 2.99564 3.29295 2.92126 13.1727
threshold=-1.3769981781562681 0.47571358959859572 0.14208461526494967 -1.2103505301530053 -0.58297568266264832 -1.3353898372078701 0.22258452767786627 -0.16819666339950748 -1.2596406795624211 -1.485508199487146 0.40434248516477234 -0.66203562680230454 -1.687173808210513 1.0000000180025095e-35 0.12199226327473049 1.0000000180025095e-35 -1.4215940276219301 -0.30352477480894113 -1.4708841770313457 -1.461495577143838 -0.11107151446869271 -0.23979720649070546 -0.43591520652127563 -0.22760340334040427 -1.4427183773688224 0.38509782835917 3.7344808182977904 -0.23453108187039531 -0.27859668265293341 -0.97446195797937307
decision_type=2 2 2 2 2 2 2 2 2 2 2 2 2 2 2 2 2 2 2 2 2 2 2 2 2 2 2 2 2 2
left_child=4 2 9 7 11 -6 -5 26 -3 -2 -8 15 14 -14 -13 -1 17 18 -17 20 -19 22 -18 24 -21 -23 27 -4 -11 -30
right_child=1 8 3 6 5 -7 10 -9 -10 28 -12 12 13 -15 -16 16 21 19 -20 23 -22 25 -24 -25 -26 -27 -28 -29 29 -31
leaf_value=0.014448029056672126 0.0095922418826891558 0.023668053134211473 0.023884728998859968 -0.00021652178421838962 -0.019323962082199872 0.013623521969480031 0.030493623456534221 0.053407597541809085 -0.0032230153241962719 -0.003411056633683779 0.0074968271391592416 0.056224814628032929 0.02127644901092236 -0.033638049845109909 0.011124970250659519 -0.017547009132410352 0.0095272294499657365 0.031524604742343608 0.019895066447177177 0.04339438149562249 -0.032622857470261425 -0.031125542645653089 0.056580244577847993 -0.04334169058129192 -0.03733076114079048 0.012602841646774957 -0.019801354825496675 -0.0044126105985858224 0.0092843766148601268 -0.00078628908307716398
leaf_weight=775 367 56 163 1273 187 236 68 29 7410 3002 502 94 91 57 45 95 55 65 236 26 38 24 65 96 58 115 25 55 1400 17976
leaf_count=775 367 56 163 1273 187 236 68 29 7410 3002 502 94 91 57 45 95 55 65 236 26 38 24 65 96 58 115 25 55 1400 17976
internal_value=0 -0.000623255 9.69349e-05 0.00485373 0.00854425 -0.000941914 0.00301755 0.0172952 -0.00302131 -0.000345388 0.0102403 0.010618 0.0202249 0.000126946 0.0416241 0.00894491 0.00405956 -0.00221504 0.00914885 -0.0155064 0.00785855 0.0189345 0.0350143 -0.0288763 -0.0123444 0.00505262 0.0129855 0.0167455 -0.000508365 -5.86398e-05
internal_weight=0 32326 24860 2115 2358 423 1843 272 7466 22745 570 1935 287 148 139 1648 873 614 331 283 103 259 120 180 84 139 243 218 22378 19376
internal_count=34684 32326 24860 2115 2358 423 1843 272 7466 22745 570 1935 287 148 139 1648 873 614 331 283 103 259 120 180 84 139 243 218 22378 19376
is_linear=0
shrinkage=0.1


Tree=19
num_leaves=31
num_cat=0
split_feature=3 8 3 3 4 5 14 14 6 3 3 15 15 14 15 15 15 4 3 3 15 15 15 15 5 3 15 15 14 3
split_gain=14.9608 4.75672 8.58107 5.22705 4.91764 4.16079 5.93045 4.0782 4.2051 4.71872 12.4318 9.87022 6.897 6.88382 6.05027 7.96033 4.83883 4.62866 8.78248 4.50458 14.3505 23.4779 9.79946 20.9121 4.74342 7.10114 4.08183 20.8454 4.28771 5.78965
threshold=-1.3769981781562681 0.38509782835917 -1.2103505301530053 -0.99441273274032704 2.2195662629655399 1.0000000180025095e-35 -1.090221895681742 0.44894876953377888 -0.89196097153793807 -1.1422831809685741 -0.97446195797937307 0.29854269449451876 -0.61459966031851088 0.29266052805507342 0.80057333978133605 0.85196230347211255 -0.63831764356040777 1.0000000180025095e-35 -1.027272832346604 -0.2210268170068754 -0.58297568266264832 -0.52763372176488899 -0.36951383348557659 -0.31417187258781715 -0.30352477480894113 -0.26796981644441414 -0.14814598989453909 -0.10861601782471096 0.38842117812869031 -0.12362009317398238
decision_type=2 2 2 2 2 2 2 2 2 2 2 2 2 2 2 2 2 2 2 2 2 2 2 2 2 2 2 2 2 2
left_child=-1 7 4 -4 5 6 -3 8 -2 -10 11 12 16 14 -12 -16 -11 -18 -19 20 -15 24 -23 -24 25 -22 28 -28 29 -21
right_child=1 2 3 -5 -6 -7 -8 -9 9 10 13 -13 -14 19 15 -17 17 18 -20 26 21 22 23 -25 -26 -27 27 -29 -30 -31
leaf_value=0.0076898215141106303 0.0034397029630363462 0.012991858885962835 -0.010236308865980382 0.0023806287308016788 -0.0095910211155811956 -0.0024762279656996211 0.038212035943384043 -0.0026982069845025848 -0.0053893836146151584 0.0062402654581881593 -0.004414363244198082 0.026204438591271306 -0.004698962560005948 -0.0080075079019035766 0.027894570777083145 -0.0072878744056234599 0.042612110149292726 0.044147860468962255 -0.020687169697549607 0.0025858508124947549 0.050877844235476324 -0.0064829145430349835 0.047450023111122758 -0.0091824059117966757 0.065053576785464626 -0.017093989388509232 0.038830744044540767 -0.0068032471150472453 0.0013474798207979623 -0.0076526388431472281
leaf_weight=2358 2784 258 377 2545 75 83 146 9359 1944 470 5444 267 452 422 136 122 84 39 45 850 51 306 134 127 86 22 154 286 3681 1577
leaf_count=2358 2784 258 377 2545 75 83 146 9359 1944 470 5444 267 452 422 136 122 84 39 45 850 51 306 134 127 86 22 154 286 3681 1577
internal_value=0 -0.000560929 0.00292928 0.000752776 0.0142456 0.0179165 0.0221061 -0.000982533 -0.000158379 -0.000758239 -0.000148076 0.00897262 0.00475161 -0.00107185 -0.00370524 0.0112579 0.011447 0.0260135 0.00941481 0.000879229 0.00665724 0.0151814 0.00565849 0.0198932 0.0491403 0.0303932 -0.000133775 0.00916865 -0.000803891 -0.00406685
internal_weight=0 32326 3484 2922 562 487 404 28842 19483 16699 14755 1357 1090 13398 5702 258 638 168 84 7696 1148 726 567 261 159 73 6548 440 6108 2427
internal_count=34684 32326 3484 2922 562 487 404 28842 19483 16699 14755 1357 1090 13398 5702 258 638 168 84 7696 1148 726 567 261 159 73 6548 440 6108 2427
is_linear=0
shrinkage=0.1


Tree=20
num_leaves=31
num_cat=0
split_feature=1 4 11 8 3 4 14 3 5 3 6 3 5 14 14 14 15 15 15 15 14 15 3 14 4 3 15 14 15 15
split_gain=12.2679 5.97511 4.66519 5.4201 4.07257 4.80344 3.98532 3.70212 3.33745 3.14144 2.99825 3.84246 3.13942 2.92684 2.63657 5.18215 13.6629 7.52115 5.76411 6.99176 4.64251 3.62683 4.48331 5.63703 5.54076 4.39048 13.7343 8.66643 6.22114 14.7772
threshold=-0.24312846513209743 -0.22760340334040427 1.0000000180025095e-35 1.3921647497831173 -1.2596406795624211 3.1518213739392325 0.44894876953377888 0.10874775404183466 -1.3376863317777117 -1.4732313270032227 -0.89196097153793807 -1.226780579956144 -0.89288566211372433 0.42847681006055566 0.29266052805507342 0.023786548364290765 0.29854269449451876 -0.6304116491464421 0.80057333978133605 0.85196230347211255 -0.16819666339950748 -0.66994162121627021 0.50189537433122222 0.44196605443178832 -0.22760340334040427 -0.12362009317398238 -0.59878767149057965 0.3769840422826628 -0.35370184465764526 -0.36951383348557659
decision_type=2 2 2 2 2 2 2 2 2 2 2 2 2 2 2 2 2 2 2 2 2 2 2 2 2 2 2 2 2 2
left_child=1 -1 8 9 5 -5 10 -6 -3 -4 11 12 -2 -13 15 16 17 20 -17 -20 -12 22 -16 24 -24 26 -23 -27 29 -28
right_child=6 2 3 4 7 -7 -8 -9 -10 -11 14 13 -14 -15 21 18 -18 -19 19 -21 -22 25 23 -25 -26 27 28 -29 -30 -31
leaf_value=0.013649282611108253 0.00082389211456757039 -0.004335857802629471 -0.026415815861786113 0.017230690908542644 -0.00276261073697095 -0.016764527024782223 -0.002338991698030425 0.012902484792992816 0.013612966188960823 -0.001223651770896563 -0.00089972669747726767 0.00049437651963092752 0.02072869738420615 0.010943959915979965 -0.0048893740250983498 -0.0047045155614946956 0.022909621494769491 -0.0045950914833540191 0.025816435537167962 -0.0067912880887067125 0.0086647075769166956 -0.011408265895693215 0.070342901349067691 -0.0073594912562681275 0.0014282704330980779 -0.0066309095864805091 0.0091700659590024571 0.0028637540488914877 -0.0087409136470021874 0.043608426794092714
leaf_weight=672 128 125 51 431 495 46 10046 217 605 1682 1017 2212 208 305 1431 4482 265 2170 140 124 1013 349 28 46 20 1296 1071 3723 145 141
leaf_count=672 128 125 51 431 495 46 10046 217 605 1682 1017 2212 208 305 1431 4482 265 2170 140 124 1013 349 28 46 20 1296 1071 3723 145 141
internal_value=0 0.00498344 0.00338885 0.0016024 0.00680202 0.0139523 -0.000709763 0.00201172 0.0105395 -0.00196503 9.59492e-05 0.00310147 0.0131459 0.00176062 -0.000395131 -0.00155808 0.000887352 -0.000502148 -0.00385871 0.0105007 0.00387307 0.000903278 -0.00349971 0.0176556 0.0416285 0.00190173 0.0062843 0.000412054 0.0108346 0.0131765
internal_weight=0 4324 3652 2922 1189 477 30360 712 730 1733 20314 2853 336 2517 17461 9211 4465 4200 4746 264 2030 8250 1525 94 48 6725 1706 5019 1357 1212
internal_count=34684 4324 3652 2922 1189 477 30360 712 730 1733 20314 2853 336 2517 17461 9211 4465 4200 4746 264 2030 8250 1525 94 48 6725 1706 5019 1357 1212
is_linear=0
shrinkage=0.1


Tree=21
num_leaves=31
num_cat=0
split_feature=1 4 11 8 14 3 4 3 14 5 15 15 15 14 3 15 3 5 4 3 14 3 14 13 14 15 3 14 3 15
split_gain=9.93703 4.83984 3.7788 4.39028 3.34871 3.30744 4.69864 3.89175 2.75791 6.0584 9.63572 17.1777 2.87895 5.3895 12.9418 7.13404 10.9245 7.50155 5.69884 5.06883 5.00826 5.44416 4.81932 4.78093 4.53844 4.79838 3.91706 3.79533 13.2163 5.23539
threshold=-0.24312846513209743 -0.22760340334040427 1.0000000180025095e-35 1.3921647497831173 0.47571358959859572 -1.2103505301530053 3.1518213739392325 -0.9286925335277727 0.47171289013449874 -0.7372054277313288 0.18390577549201717 0.12856381459425778 -0.60669366590454521 0.20049710643718902 0.12283065387309632 -0.68575361004420154 0.27187467708728202 -0.80392552818092688 -0.57719906995553905 0.53475547393749945 -0.043630720409234998 -1.2948479291405752 0.41131594354696538 -0.22257789952128565 0.44362634810443219 -0.6936596044581671 -0.81133503493392567 0.29266052805507342 -0.12362009317398238 -0.14814598989453909
decision_type=2 2 2 2 2 2 2 2 2 2 2 2 2 2 2 2 2 2 2 2 2 2 2 2 2 2 2 2 2 2
left_child=1 -1 -3 -4 8 6 -5 -7 12 -10 11 -11 13 18 -15 19 17 22 20 -16 21 -2 -17 -18 25 -21 -22 -14 -29 -30
right_child=4 2 3 5 -6 7 -8 -9 9 10 -12 -13 27 14 15 16 23 -19 -20 24 26 -23 -24 -25 -26 -27 -28 28 29 -31
leaf_value=0.012284354360530242 0.02030815149692795 0.0094855837717856464 -0.0017685227422822919 0.015205660993448096 -0.0025097936417437334 -0.011258649959992827 -0.015172394505587586 0.0060683683052940194 -0.0068770023916537573 -0.0020452560577541592 -0.0089249747536248644 0.061808320980393489 -0.0025462133186274962 -0.0071944560942309721 -0.0046350932638571053 0.014229214357005228 -0.0052962868105146353 0.028660251679776729 0.0025621344404165749 -0.005510272357899409 0.03457608731919961 -0.0044191171762113478 -0.034277120955062634 0.010357440127746056 0.0008252041496555596 0.046053404872447759 0.006230995622980926 0.0086517369499270799 -0.0028825874186275786 0.0044258781166273868
leaf_weight=672 158 730 1733 477 7274 178 57 477 168 80 90 89 7656 1805 965 54 401 348 2261 26 151 204 33 380 136 59 72 1614 5124 1212
leaf_count=672 158 730 1733 477 7274 178 57 477 168 80 90 89 7656 1805 965 54 401 348 2261 26 151 204 33 380 136 59 72 1614 5124 1212
internal_value=0 0.0044851 0.00304996 0.00144216 -0.000638786 0.00612182 0.0119631 0.00135965 -4.92644e-05 0.00791273 0.0175061 0.0315818 -0.000199305 0.00147739 -0.000796228 0.00401177 0.00939393 0.0220943 0.0048383 -0.00150654 0.0136356 0.00637345 -0.00416974 0.00232012 0.0121544 0.030281 0.0254243 -0.000957075 0.000573294 -0.00148457
internal_weight=0 4324 3652 2922 30360 1189 534 655 23086 427 259 169 22659 7053 4207 2402 1216 435 2846 1186 585 362 87 781 221 85 223 15606 7950 6336
internal_count=34684 4324 3652 2922 30360 1189 534 655 23086 427 259 169 22659 7053 4207 2402 1216 435 2846 1186 585 362 87 781 221 85 223 15606 7950 6336
is_linear=0
shrinkage=0.1


Tree=22
num_leaves=31
num_cat=0
split_feature=1 4 11 8 14 3 4 5 3 3 6 3 4 14 15 15 7 15 15 14 14 15 14 15 15 14 15 15 15 15
split_gain=8.049 3.92027 3.06083 3.55613 2.86603 2.78231 2.90336 2.70333 2.54457 2.35122 2.22594 3.29179 2.5866 2.25486 5.21274 18.0422 2.54439 2.10023 4.08172 1.98641 3.03 4.01478 3.2459 4.83944 4.19854 3.98329 11.2912 5.17721 7.73765 10.4961
threshold=-0.24312846513209743 -0.22760340334040427 1.0000000180025095e-35 1.3921647497831173 0.44894876953377888 -1.3112779789437139 3.6179489294260789 -1.3376863317777117 -1.4732313270032227 0.10874775404183466 -0.8029764320224918 -1.3065836789999599 0.47158792988986536 0.44015078682798653 -0.31417187258781715 -0.25882991169005781 -0.24735792171686347 -0.58297568266264832 -0.66994162121627021 0.42847681006055566 0.38034443632279002 -0.68575361004420154 0.35107191733227844 -0.14814598989453909 -0.12442800665264223 0.2975339242720525 -0.58297568266264832 -0.35370184465764526 -0.36951383348557659 -0.44857377762523282
decision_type=2 2 2 2 2 2 2 2 2 2 2 2 2 2 2 2 2 2 2 2 2 2 2 2 2 2 2 2 2 2
left_child=1 -1 7 8 10 6 -5 -3 -4 -7 11 12 -2 19 16 -16 -15 18 -18 20 22 -22 25 -24 -25 -12 -27 28 29 -28
right_child=4 2 3 5 -6 9 -8 -9 -10 -11 13 -13 -14 14 15 -17 17 -19 -20 -21 21 -23 23 24 -26 26 27 -29 -30 -31
leaf_value=0.011055918817874044 0.018009515765632662 -0.0048508303016424181 -0.023597382067465315 0.014767275938948433 -0.0019565348429247519 -0.0011937710244958764 -0.01921918292840322 0.011303111233494499 -0.00092443418229501547 0.011005399564993548 -0.0013787896936299409 0.0014906490284832758 -0.0065059647791915476 -0.0083925125754723256 0.051783101895189546 -0.0079271725624015452 -0.0011632305099053329 -0.0069105339069397021 0.030985040899733425 -0.0054927940000143076 -0.0036568348585597934 0.0047351245419338271 -0.0072453525686907664 0.039305501361919008 -0.0035109412875406597 -0.0063704461811549878 0.01425681509350607 -0.0074669206977649866 0.036972685238799534 -0.012232644527509648
leaf_weight=672 212 125 51 364 10046 581 27 605 1682 217 8881 3477 54 219 91 114 89 78 71 797 775 2156 1278 43 49 712 764 157 111 186
leaf_count=672 212 125 51 364 10046 581 27 605 1682 217 8881 3477 54 219 91 114 89 78 71 797 775 2156 1278 43 49 712 764 157 111 186
internal_value=0 0.00403659 0.00274497 0.00129795 -0.000574908 0.00550964 0.0124204 0.00853703 -0.00159167 0.00212355 0.000108356 0.0023109 0.0130327 -0.000389146 0.00532929 0.0185784 -0.000613942 0.00654365 0.0131026 -0.0006271 -0.000370485 0.00251617 -0.00106507 -0.0056507 0.0165011 -0.000483969 0.0036336 0.00948161 0.0119895 0.00907046
internal_weight=0 4324 3652 2922 30360 1189 391 730 1733 798 20314 3743 266 16571 662 205 457 238 160 15909 15112 2931 12181 1370 92 10811 1930 1218 1061 950
internal_count=34684 4324 3652 2922 30360 1189 391 730 1733 798 20314 3743 266 16571 662 205 457 238 160 15909 15112 2931 12181 1370 92 10811 1930 1218 1061 950
is_linear=0
shrinkage=0.1


Tree=23
num_leaves=31
num_cat=0
split_feature=1 4 15 14 3 15 3 5 14 6 1 4 14 14 13 3 14 15 3 14 3 8 14 3 14 5 14 14 14 14
split_gain=6.51969 3.17542 2.56108 4.76536 8.43972 4.48145 10.6463 5.82867 5.28551 11.4445 7.87651 4.09242 3.73615 3.62343 3.49634 3.37996 2.72593 2.63137 5.65647 12.0906 3.83104 3.62628 2.9585 2.75178 6.09495 3.89535 4.7823 6.05311 4.69376 5.27952
threshold=-0.24312846513209743 -0.22760340334040427 -0.60669366590454521 0.20049710643718902 0.12283065387309632 -0.68575361004420154 0.28830472689042058 -0.30352477480894113 0.41393741653607924 0.77649914437668077 -0.15744985975598577 -0.69373095882725055 -0.026383713784324542 0.086432994685329625 -0.18334709079528386 -1.2807650293093136 -1.3555420230017983 -0.65412963238833899 -1.3934282279594068 -0.74441257878724076 -0.89348528394961857 0.58439639286593359 -0.043630720409234998 -1.4215940276219301 -2.4545933090208005 0.60831659800223292 -0.078058494696607902 -0.10091194502602703 -0.061754171391770828 -1.3353898372078701
decision_type=2 2 2 2 2 2 2 2 2 2 2 2 2 2 2 2 2 2 2 2 2 2 2 2 2 2 2 2 2 2
left_child=1 -1 3 11 -5 -6 7 8 9 -7 -10 12 15 -14 -8 -2 -4 22 -19 -20 -21 -22 23 24 -13 26 27 -25 29 -27
right_child=2 -3 16 4 5 6 14 -9 10 -11 -12 17 13 -15 -16 -17 -18 18 19 20 21 -23 -24 25 -26 28 -28 -29 -30 -31
leaf_value=0.009950326889797691 0.016971892343471514 0.0024704716568083383 -0.016887080362411561 -0.0061689581485997501 -0.0014914836689751459 -0.046303995450337726 -0.0036956717472436821 0.027750192169557538 -0.043374366064866388 0.029731038634755971 0.032872701436281203 0.012531686340828976 0.0310104222575418 -0.0014194616509808436 0.01048571622046102 -0.0034160280444102582 -0.00096250395339998935 0.035570734831003044 -0.017822826982049619 0.017419354463578503 -0.012347513284338148 0.027041350857865427 -0.01068293645253612 -0.0002425330321101538 -0.022260546137113126 0.029025810029433698 -0.026518556289374828 0.040323904844430776 0.054760553687810902 0.0019550455569782676
leaf_weight=672 149 3652 108 1823 1331 24 645 285 42 113 20 83 147 45 238 179 22885 65 177 387 95 31 216 647 128 98 64 39 24 272
leaf_count=672 149 3652 108 1823 1331 24 645 285 42 113 20 83 147 45 238 179 22885 65 177 387 95 31 216 647 128 98 64 39 24 272
internal_value=0 0.00363293 -0.000517417 0.00110519 -0.000912726 0.00263883 0.00666038 0.0185803 0.00544745 0.016411 -0.0187785 0.00431074 0.0123308 0.0234097 0.000126718 0.00584556 -0.0010373 0.00251778 0.00736956 0.00471292 0.0124884 -0.0026566 0.00018609 0.00191872 -0.0085745 0.00385409 -0.000375299 0.00206372 0.011905 0.00912514
internal_weight=0 4324 30360 7367 4521 2698 1367 484 199 137 62 2846 520 192 883 328 22993 2326 755 690 513 126 1571 1355 211 1144 750 686 394 370
internal_count=34684 4324 30360 7367 4521 2698 1367 484 199 137 62 2846 520 192 883 328 22993 2326 755 690 513 126 1571 1355 211 1144 750 686 394 370
is_linear=0
shrinkage=0.1


Tree=24
num_leaves=31
num_cat=0
split_feature=3 5 8 3 3 14 11 3 14 15 15 5 14 5 3 3 4 14 4 3 3 15 15 14 15 15 14 15 15 3
split_gain=5.56384 3.11361 2.74182 2.84529 3.93878 2.60339 2.28304 3.08687 2.24245 2.17604 7.90155 7.9934 10.6236 6.09396 6.95734 6.28804 7.5354 3.69852 3.35361 9.10957 1.89886 2.41123 6.10809 3.22494 2.4692 6.53753 11.434 2.77852 5.81063 16.5107
threshold=-1.3934282279594068 -1.3376863317777117 1.8135144965383498 0.12283065387309632 -1.3112779789437139 0.40434248516477234 1.0000000180025095e-35 -1.4732313270032227 -1.687173808210513 -0.58297568266264832 -0.63831764356040777 -0.30352477480894113 -2.1486916095624324 -0.30352477480894113 -1.4122054277344223 -1.461495577143838 -0.11107151446869271 -0.74441257878724076 -0.22760340334040427 -1.4427183773688224 0.5500119487546995 0.80057333978133605 0.81243233140228444 0.54215888366747189 0.38155563584115781 0.28668370287357031 0.0078896695672443732 -0.1165220122386766 -0.14814598989453909 -0.039122694186412559
decision_type=2 2 2 2 2 2 2 2 2 2 2 2 2 2 2 2 2 2 2 2 2 2 2 2 2 2 2 2 2 2
left_child=1 -1 8 4 -4 -5 -3 -8 -2 10 13 12 -12 -9 15 16 -15 -11 19 -17 21 24 -23 -24 25 27 -27 28 -10 -30
right_child=2 6 3 5 -6 -7 7 9 20 17 11 -13 -14 14 -16 18 -18 -19 -20 -21 -22 22 23 -25 -26 26 -28 -29 29 -31
leaf_value=-0.010719373735288779 0.0088061699198157175 0.0095874127653625615 0.014985363674630603 0.024189956982930503 -0.0017673735290925771 0.0063149687698409885 -0.022247183259497299 0.0097122951831851521 -0.00016011699003747325 -0.018615989810695836 0.045179369224187658 0.047203048708893004 -0.022553866631106326 0.025846016172033089 0.028631949632666832 0.037961564098413177 -0.030210118544729131 0.01041721532290632 -0.038583964699258406 -0.033272534480382657 -0.0017392251180699736 0.022911968035623433 -0.0076529416043246007 0.012769622635892314 -0.0045694281582003768 0.023105858984153446 -0.0028803139648267205 -0.0033466082895660999 -0.0026658626478336276 0.035045824944972992
leaf_weight=120 255 907 166 102 908 405 47 387 15163 102 39 84 57 65 43 26 38 77 96 58 10031 160 228 117 1233 328 350 2585 327 180
leaf_count=120 255 907 166 102 908 405 47 387 15163 102 39 84 57 65 43 26 38 77 96 58 10031 160 228 117 1233 328 350 2585 327 180
internal_value=0 0.00493177 -0.000325269 0.00373671 0.000821969 0.00991112 0.00585879 0.00283658 -0.000532717 0.00393633 0.00595347 0.0246749 0.00496276 0.00122717 -0.00884566 -0.0145401 0.00516511 -0.00612685 -0.0258159 -0.0112239 -0.000610283 -6.24415e-05 0.00676255 -0.000727029 -0.000233354 4.90301e-05 0.00969117 -0.000309084 0.000192001 0.0107229
internal_weight=0 2146 32538 1581 1074 507 2026 1119 30957 1072 893 180 96 713 326 283 103 179 180 84 30702 20671 505 345 20166 18933 678 18255 15670 507
internal_count=34684 2146 32538 1581 1074 507 2026 1119 30957 1072 893 180 96 713 326 283 103 179 180 84 30702 20671 505 345 20166 18933 678 18255 15670 507
is_linear=0
shrinkage=0.1


Tree=25
num_leaves=31
num_cat=0
split_feature=15 14 14 15 14 12 4 14 14 3 6 14 14 13 3 15 14 14 7 15 8 3 3 6 3 3 14 8 3 10
split_gain=4.68503 5.84538 6.13594 4.90537 7.2035 4.43723 4.2267 4.01971 3.95537 3.71348 3.60744 4.10202 3.54111 3.46987 3.29034 2.70431 9.38533 12.5726 3.77396 3.35487 3.75819 6.92483 9.2491 3.35227 4.17811 2.68722 15.6248 5.61726 12.8355 4.43402
threshold=-0.62250565473247643 0.086432994685329625 0.39474727564814865 -0.66994162121627021 0.42057532806040038 -0.002633248465241407 -0.81026284769896229 -1.3353898372078701 -0.026383713784324542 -1.2737235793936827 -0.43591520652127563 0.41587099997519361 0.41131594354696538 -0.13181599113997436 0.94550671901596395 -0.65412963238833899 -1.687173808210513 -0.5627859722834736 0.022287456612818508 -0.68575361004420154 -0.27076125284301628 -0.97446195797937307 -0.99441273274032704 -0.61388428555216823 -1.3582209783812527 -1.027272832346604 -0.16819666339950748 -0.38131913539286416 -1.0108427825434656 -0.087235230528588781
decision_type=2 2 2 2 2 2 2 2 2 2 2 2 2 2 2 2 2 2 2 2 2 2 2 2 2 2 2 2 2 2
left_child=1 6 -3 -4 5 -5 8 -2 9 -1 12 -12 -7 -6 -15 19 18 23 -17 20 21 22 25 24 -18 26 29 28 -27 -8
right_child=7 2 3 4 13 10 15 -9 -10 -11 11 -13 -14 14 -16 16 17 -19 -20 -21 -22 -23 -24 -25 -26 27 -28 -29 -30 -31
leaf_value=0.016217991518222282 -0.013452037967499195 -0.0050847520161020265 -0.0016550892700933268 0.021698019166250488 -0.0019980027816136896 -0.031502847503060885 0.0022950541337623319 -0.00060530956009533616 0.030328450292766651 -0.0055865085706478211 0.029395119719586135 -0.020391849266446157 0.017276296696879648 0.0080404521352270761 0.046986120194196707 0.0408242062010147 0.030489549650387332 0.012210369094684245 0.0038183972843595457 -0.015541178908831669 0.0047897061412911198 -0.019453702737123539 0.048398126363754276 -0.021335564804880809 -0.010445938069446416 -0.040089954435825352 0.05760965476865354 -0.042347502774662447 0.059570636351903287 -0.016359178139560525
leaf_weight=214 246 1882 1586 370 736 46 476 24575 107 123 59 23 22 164 25 108 33 628 37 106 2286 195 40 178 102 28 46 45 24 174
leaf_count=214 246 1882 1586 370 736 46 476 24575 107 123 59 23 22 164 25 108 33 628 37 106 2286 195 40 178 102 28 46 45 24 174
internal_value=0 0.00184373 -0.000599879 0.00218486 0.0063995 0.0158164 0.00426907 -0.000732633 0.013578 0.00825967 0.00130831 0.0154305 -0.0157214 0.00110568 0.013192 0.00335181 0.00769921 0.00405 0.0313813 0.00197131 0.00253146 -0.00249029 0.00148074 -0.0123229 -0.000439486 -0.000885836 0.00128735 -0.016479 0.00590724 -0.00269854
internal_weight=0 9863 4913 3031 1445 520 4950 24821 444 337 150 82 68 925 189 4506 1086 941 145 3420 3314 1028 833 313 135 793 696 97 52 650
internal_count=34684 9863 4913 3031 1445 520 4950 24821 444 337 150 82 68 925 189 4506 1086 941 145 3420 3314 1028 833 313 135 793 696 97 52 650
is_linear=0
shrinkage=0.1


Tree=26
num_leaves=31
num_cat=0
split_feature=1 13 3 3 4 11 3 5 3 3 3 3 14 15 14 7 3 14 15 15 3 3 14 15 15 15 15 15 3 3
split_gain=3.9525 3.00241 2.91725 4.76712 2.67943 2.5042 2.08363 2.21478 1.84674 2.33952 1.75002 1.70078 1.67262 9.26428 3.75636 3.1814 1.99459 2.14777 2.5772 4.74049 20.5457 5.95178 4.80688 15.0914 6.40093 14.1563 4.43 7.00591 8.93449 25.1969
threshold=-0.24300217945953892 -0.21801747528437215 -1.2103505301530053 0.13926070367623491 1.9865024852221163 1.0000000180025095e-35 0.45612594987962179 -0.84840559514732561 -0.9286925335277727 -0.35364079041792246 -1.2432106297592826 -1.4732313270032227 0.0078896695672443732 0.29854269449451876 -0.16819666339950748 0.50456295359399383 -0.48390761385709263 0.44894876953377888 -0.36951383348557659 -0.35370184465764526 -0.1459180179068133 0.5500119487546995 0.43830634144444464 -0.25882991169005781 -0.14814598989453909 -0.12442800665264223 -0.42485579438333593 -0.47229176086712971 -0.10719004337084381 -0.2210268170068754
decision_type=2 2 2 2 2 2 2 2 2 2 2 2 2 2 2 2 2 2 2 2 2 2 2 2 2 2 2 2 2 2
left_child=1 5 4 8 10 -1 7 -5 -4 -10 -3 -7 13 14 -2 -16 -14 18 26 20 -20 -22 24 -24 -21 -26 27 -18 29 -29
right_child=12 2 3 6 -6 11 -8 -9 9 -11 -12 -13 16 -15 15 -17 17 -19 19 22 21 -23 23 -25 25 -27 -28 28 -30 -31
leaf_value=0.0065810917102552338 -0.0018412801573257831 0.010051151446001615 -0.0087515041114274057 0.0013889429591050963 0.00057306534720256053 -0.019905446858509729 0.0052894425411981324 0.02938131116085 0.0061639636922687577 -0.0082898526212998799 0.032516114289561908 -0.00051422264572874494 -0.0028623287985597482 0.018558898790902698 0.0065867164385405427 -0.01039841758102421 -0.00062049169357382818 -0.0014806764241261795 0.04058120994867679 -0.0075938362786509535 -0.0068660879635239307 0.042207217506236502 0.04233178223628517 -0.0071384516387233438 0.029827412417936294 -0.00029459400494452587 -0.0081583807663641924 -0.0047106753589597136 -0.00031375943785458407 0.052929786536200299
leaf_weight=545 2910 943 328 41 340 46 263 91 311 175 36 2706 3942 291 1066 123 6653 9761 167 759 292 27 109 142 182 1093 665 159 373 145
leaf_count=545 2910 943 328 41 340 46 263 91 311 175 36 2706 3942 291 1066 123 6653 9761 167 759 292 27 109 142 182 1093 665 159 373 145
internal_value=0 0.0023761 0.00496883 0.00142063 0.00822112 0.000388098 0.0104349 0.0206867 -0.00295359 0.0009594 0.0108772 -0.000838349 -0.000479599 0.00131776 9.37568e-05 0.00482963 -0.000802064 -0.000406411 0.000567571 0.00319565 0.0121641 -0.00271255 0.00128813 0.0143446 -0.00032307 0.00400517 -0.000343298 0.000365711 0.0100573 0.0227823
internal_weight=0 5825 2528 1209 1319 3297 395 132 814 486 979 2752 28859 4390 4099 1189 24469 20527 10766 2771 486 319 2285 251 2034 1275 7995 7330 677 304
internal_count=34684 5825 2528 1209 1319 3297 395 132 814 486 979 2752 28859 4390 4099 1189 24469 20527 10766 2771 486 319 2285 251 2034 1275 7995 7330 677 304
is_linear=0
shrinkage=0.1


Tree=27
num_leaves=31
num_cat=0
split_feature=15 14 14 15 14 12 6 14 14 4 14 14 14 3 15 3 14 14 3 14 5 3 7 3 4 5 8 1 3 6
split_gain=3.35987 4.21905 5.31902 4.03205 5.84089 3.60526 3.49332 4.12059 3.28462 3.21442 4.60461 4.95216 3.12044 2.97951 3.20963 7.52182 7.3469 13.1628 5.46216 5.43424 10.9659 7.41554 4.92693 6.06514 3.24746 3.04879 2.87989 4.65327 2.79091 2.78694
threshold=-0.62250565473247643 0.20049710643718902 0.39474727564814865 -0.66994162121627021 0.42057532806040038 -0.0027771139388292339 -0.43591520652127563 0.41587099997519361 -1.485508199487146 -0.22760340334040427 -0.12210639656088047 -0.38258351335871171 -0.078058494696607902 -0.91226248372463414 -0.63831764356040777 -0.96037905814811142 -1.687173808210513 -0.75440621593218393 -0.94512258333091126 -0.10091194502602703 -0.30352477480894113 -0.97446195797937307 -0.023044424494834799 -1.0437028821497427 0.12199226327473049 -1.3154462982945123 -0.28977325195531528 -0.24092643861256252 -1.461495577143838 -1.0588069831294
decision_type=2 2 2 2 2 2 2 2 2 2 2 2 2 2 2 2 2 2 2 2 2 2 2 2 2 2 2 2 2 2
left_child=1 9 -3 -4 5 -5 -7 -8 -2 10 11 -1 -12 14 15 25 24 -18 19 22 21 -21 -19 -24 -16 -11 -20 -28 -26 -6
right_child=8 2 3 4 29 6 7 -9 -10 13 12 -13 -14 -15 16 -17 17 18 26 20 -22 -23 23 -25 28 -27 27 -29 -30 -31
leaf_value=0.0047560715561689266 -0.012757235842997134 -0.0048802292677605115 -0.00148432126026812 0.020800514920577176 0.014873573340712085 -0.014103684270046128 0.024183226043873646 -0.017362490110099316 -0.00051139432691275216 -0.017033504178890817 0.03827265363473159 -0.036376854727665581 0.012419899420392918 -0.0061295073866168472 0.039885234230376307 -0.024142426067748957 -0.018645471762557056 0.034348966717720031 0.05720048280138719 -0.010061662930708665 -0.035090279967888542 0.052877120839224925 0.022117825854155754 -0.038549744738982275 0.028664551123424815 0.0031233689312253768 -0.012530081245032224 0.054116453826427463 -0.020621645748615264 -0.0011284853987983232
leaf_weight=1202 221 1788 1586 323 126 71 94 32 24600 78 52 30 457 419 94 113 181 100 38 39 69 36 45 26 27 1976 22 20 20 799
leaf_count=1202 221 1788 1586 323 126 71 94 32 24600 78 52 30 457 419 94 113 181 100 38 39 69 36 45 26 27 1976 22 20 20 799
internal_value=0 0.00156136 -0.000554626 0.00199707 0.00581816 0.0142977 0.00363585 0.0136319 -0.000620428 0.00358295 0.00706006 0.00375446 0.015061 0.00175018 0.00289497 0.000976036 0.0086946 0.00368629 0.0139193 0.00799317 -0.00631985 0.020149 0.0200462 -9.84676e-05 0.0291541 0.00235792 0.0372536 0.0192064 0.0076917 0.00105125
internal_weight=0 9863 4819 3031 1445 520 197 126 24821 5044 1741 1232 509 3303 2884 2167 717 576 395 315 144 75 171 71 141 2054 80 42 47 925
internal_count=34684 9863 4819 3031 1445 520 197 126 24821 5044 1741 1232 509 3303 2884 2167 717 576 395 315 144 75 171 71 141 2054 80 42 47 925
is_linear=0
shrinkage=0.1


Tree=28
num_leaves=31
num_cat=0
split_feature=1 3 14 3 11 15 3 3 3 8 3 3 13 3 3 7 3 14 7 15 14 12 15 3 4 15 3 14 3 4
split_gain=3.04191 4.17194 3.32603 3.45783 3.01994 2.13331 2.09346 2.8453 2.07729 1.8726 1.81039 1.3731 1.90578 3.00785 2.84597 2.82958 2.44454 2.95446 1.84086 1.72168 2.7269 1.70509 1.56093 4.08471 2.05104 1.89143 2.46462 1.87881 1.3638 1.31819
threshold=-0.24241004296290211 0.22258452767786627 0.39899803122280436 0.41857155032959076 1.0000000180025095e-35 -0.72528358211402966 -1.1939204803498669 -0.58366148766186254 0.28830472689042058 -0.16032271181767063 -1.4732313270032227 -0.2210268170068754 -0.19497213722010601 -1.2103505301530053 -0.9286925335277727 0.27094523265927917 -1.3582209783812527 -1.2224246116186299 -0.23979720649070546 -0.70156559887213277 -2.1486916095624324 -0.0026064052732183121 0.29854269449451876 -1.0108427825434656 0.82118359650500017 -0.61459966031851088 -0.35716151537573787 -1.2224246116186299 0.99362329343944122 1.7534387074786932
decision_type=2 2 2 2 2 2 2 2 2 2 2 2 2 2 2 2 2 2 2 2 2 2 2 2 2 2 2 2 2 2
left_child=1 4 3 -3 -1 6 -6 29 9 -4 -7 12 19 15 -15 16 -14 21 -19 20 -12 -18 25 24 -24 -21 27 -27 -10 -8
right_child=-2 2 8 -5 5 10 7 -9 28 -11 11 -13 13 14 -16 -17 17 18 -20 22 -22 -23 23 -25 -26 26 -28 -29 -30 -31
leaf_value=0.0058971817174222271 -0.00055266347950309934 0.040947961198786895 0.0036667264997959138 0.0087400393038988122 0.0093420738872663205 -0.018362692418423567 -0.018492489025185379 0.027545736933296379 0.0025387331208807673 0.042969870981242921 0.011097741765635355 -0.004551098996855108 0.0081135719831361142 -0.0074762216819271397 0.0052966889223990373 -0.0065166963820868151 0.023206014782190323 0.010916780405070471 0.043769333246305137 0.0015953354297896551 -0.03401902404588622 -0.018086712965741752 0.018696500413119793 -0.0018420085256815534 -0.0061089602671563631 -0.014833698910495914 0.0095801607345541318 -0.0029166419493626395 0.024155070413384709 0.0071020379386566301
leaf_weight=1074 25725 60 22 75 442 55 79 22 499 27 21 638 244 302 413 82 20 23 66 1593 37 20 200 413 40 141 150 2143 31 27
leaf_count=1074 25725 60 22 75 442 55 79 22 499 27 21 638 244 302 413 82 20 23 66 1593 37 20 200 413 40 141 150 2143 31 27
internal_value=0 0.00158693 0.00891999 0.0230547 0.000951898 0.000211243 0.00608079 -0.00518082 0.00562433 0.0253236 -0.000295596 -0.000143794 0.000332147 0.00394641 -9.83027e-05 0.0103024 0.0139999 0.0251337 0.0352793 -0.000560359 -0.0176836 0.00255965 -0.000348147 0.00418712 0.0145623 -0.00108357 -0.00283685 -0.00365233 0.00380308 -0.0119731
internal_weight=0 8959 714 135 8245 7171 570 128 579 49 6601 6546 5908 1170 715 455 373 129 89 4738 58 40 4680 653 240 4027 2434 2284 530 106
internal_count=34684 8959 714 135 8245 7171 570 128 579 49 6601 6546 5908 1170 715 455 373 129 89 4738 58 40 4680 653 240 4027 2434 2284 530 106
is_linear=0
shrinkage=0.1


Tree=29
num_leaves=31
num_cat=0
split_feature=8 3 3 1 3 15 15 14 3 15 14 15 14 3 15 4 15 15 14 14 14 7 5 7 3 4 14 14 15 15
split_gain=2.47173 3.36436 1.75469 5.51924 2.60234 2.26236 1.9279 3.65996 3.34608 1.80681 3.18944 2.99664 2.64345 1.57043 6.61571 4.61567 4.57174 3.57593 5.6424 9.71909 4.98209 2.81908 2.64947 2.39863 2.98818 2.26768 2.11578 2.14481 5.21805 8.28492
threshold=-0.16032271181767063 -1.3065836789999599 0.1897244280715891 -0.22627393656614039 0.41857155032959076 0.18390577549201717 -0.51182173293695776 0.45854475263762989 1.0100533432425798 0.05740986486856714 0.35107191733227844 0.45270958556684843 0.41131594354696538 -0.89348528394961857 0.29854269449451876 0.82118359650500017 -0.6304116491464421 -0.66994162121627021 -1.687173808210513 -0.51218646151953229 -0.043630720409234998 1.3863062766890062 -1.3154462982945123 -0.31545180414904467 -1.3769981781562681 -0.34413529221211586 0.24897843536077657 0.35107191733227844 -0.47229176086712971 -0.44857377762523282
decision_type=2 2 2 2 2 2 2 2 2 2 2 2 2 2 2 2 2 2 2 2 2 2 2 2 2 2 2 2 2 2
left_child=13 -2 -3 4 9 6 8 -8 -6 10 -4 -11 -13 14 16 -16 17 20 21 23 22 -19 -1 24 -20 -22 -15 28 -28 -30
right_child=1 2 3 -5 5 -7 7 -9 -10 11 -12 12 -14 26 15 -17 -18 18 19 -21 25 -23 -24 -25 -26 -27 27 -29 29 -31
leaf_value=-0.016060367594291639 0.0066310844349269085 -0.00095483018983358271 0.038096052110195164 -0.00052894688163279528 0.0043280353784403893 -0.010469051386628833 0.055340575675169625 -0.00048295421444851419 0.042831115641941628 0.051851422722275199 -0.00048378380139668789 -0.012937818751448678 0.031068951426408233 -0.0028226037196287719 0.017999938723292794 -0.014584458008408546 -0.0028225310586955411 0.032641791868007794 0.034573975747281854 0.01311718543220048 0.015159314902583985 -0.0071240767126991636 0.002877319646812055 -0.017389777268682207 -0.00715568245221407 -0.019019644174611931 -0.0014152567154269949 -0.00085116382699114738 0.021492114225752118 0.0026869650548455443
leaf_weight=77 1167 2889 30 1607 379 70 24 23 24 37 75 21 39 4163 333 50 2692 118 22 495 22 21 1821 175 78 165 1987 14618 293 1169
leaf_count=77 1167 2889 30 1607 379 70 24 23 24 37 75 21 39 4163 333 50 2692 118 22 495 22 21 1821 175 78 165 1987 14618 293 1169
internal_value=0 0.00177722 0.000691659 0.00273404 0.00999668 0.00625482 0.00885631 0.0280227 0.00662102 0.0196292 0.010539 0.029469 0.0156666 -0.000400988 0.00102474 0.0137461 0.000167845 0.00285659 0.00809066 0.00474322 0.000574683 0.026634 0.00210904 -0.0103299 0.00202484 -0.0149986 -0.000790224 -0.000321923 0.00192118 0.00645571
internal_weight=0 6385 5218 2329 722 520 450 47 403 202 105 97 60 28299 6069 383 5686 2994 909 770 2085 139 1898 275 100 187 22230 18067 3449 1462
internal_count=34684 6385 5218 2329 722 520 450 47 403 202 105 97 60 28299 6069 383 5686 2994 909 770 2085 139 1898 275 100 187 22230 18067 3449 1462
is_linear=0
shrinkage=0.1


Tree=30
num_leaves=31
num_cat=0
split_feature=13 15 14 14 3 4 15 3 5 14 6 4 13 14 3 14 14 3 12 15 14 3 7 3 2 8 11 3 8 14
split_gain=2.0302 1.83476 2.10442 1.97758 3.85426 3.04305 2.24432 6.16036 2.39049 6.57178 4.6762 2.95886 2.23427 2.29929 5.89855 3.75703 2.12108 2.41978 1.94994 1.84265 5.39077 6.58784 2.67269 2.63772 2.20319 2.10146 1.91175 3.32613 6.35212 3.57139
threshold=0.14208461526494967 -0.60669366590454521 -1.3353898372078701 0.086432994685329625 0.10874775404183466 -0.81026284769896229 -0.66994162121627021 0.28830472689042058 -0.30352477480894113 0.41393741653607924 1.2881602465904973 0.12199226327473049 -0.090980908684998321 0.44551178260256102 0.53475547393749945 0.45050913106101625 -0.026383713784324542 -1.2737235793936827 0.025081031455857595 -0.63831764356040777 -1.687173808210513 -1.1939204803498669 0.022287456612818508 -1.0108427825434656 -0.24623846740531338 -0.58390234952455777 1.0000000180025095e-35 -1.4380240774250685 -0.34146334778671777 -2.1486916095624324
decision_type=2 2 2 2 2 2 2 2 2 2 2 2 2 2 2 2 2 2 2 2 2 2 2 2 2 2 2 2 2 2
left_child=1 3 -3 5 -5 16 -6 8 9 10 -8 -11 13 -9 15 -15 17 -1 -10 25 22 -22 -21 24 -23 -7 -27 28 -28 -30
right_child=-2 2 -4 4 6 19 7 12 18 11 -12 -13 -14 14 -16 -17 -18 -19 -20 20 21 23 -24 -25 -26 26 27 -29 29 -31
leaf_value=0.014334130826007044 0.0024626198333931818 -0.010181945807938785 -0.00060936478383363942 -0.0040334065267728569 -0.00089835411016330651 -0.01823918319354623 -0.024828493012034377 -0.0080169211083730187 0.021938005614059945 -0.0060627974782671255 0.02436084853223533 -0.053542963237989516 0.020529848685924043 0.033753194641776202 -0.0049380898096219256 -0.0042844875862723909 0.025083810403444914 -0.0053751872645484075 -0.0057861349412373139 0.031726075236040811 -0.0099964519227542306 -0.0080111138336360459 -0.00022099622658320836 0.0052392528920757533 0.028539869157557792 0.0058837482636492399 -0.0287309360478008 0.0012883953120834204 0.0076323870542602465 -0.015597632409145051
leaf_weight=168 3053 232 22717 1807 1326 59 23 337 270 35 121 21 47 82 270 38 86 99 28 104 286 20 35 490 94 592 114 1844 182 104
leaf_count=168 3053 232 22717 1807 1326 59 23 337 270 35 121 21 47 82 270 38 86 99 28 104 286 20 35 490 94 592 114 1844 182 104
internal_value=0 -0.00023769 -0.000706138 0.00100055 -0.000486597 0.0025322 0.00198033 0.00498123 0.0136571 0.00520004 0.0165042 -0.0238679 -0.000600946 -0.00196704 0.00326069 0.0217079 0.0114255 0.00702618 0.0193331 0.00173217 0.00536691 0.00250649 0.0236818 0.00842675 0.0221274 0.000440236 0.000828841 -0.000504717 -0.00877097 -0.000814893
internal_weight=0 31631 22949 8682 4405 4277 2598 1272 498 200 144 56 774 727 390 120 353 267 298 3924 1029 890 139 604 114 2895 2836 2244 400 286
internal_count=34684 31631 22949 8682 4405 4277 2598 1272 498 200 144 56 774 727 390 120 353 267 298 3924 1029 890 139 604 114 2895 2836 2244 400 286
is_linear=0
shrinkage=0.1


Tree=31
num_leaves=31
num_cat=0
split_feature=8 3 3 15 14 2 13 4 11 1 3 3 3 2 3 3 4 3 3 15 14 14 15 15 6 13 3 3 3 5
split_gain=1.87817 2.7134 3.22579 2.10617 1.63399 3.07644 1.93556 1.62528 1.94 1.6538 1.36943 1.43875 1.36781 1.34214 1.82949 3.9528 2.36772 2.07224 1.60579 1.55641 1.33534 1.75713 1.8264 3.16502 1.54588 1.32399 1.27505 1.26748 2.50679 4.01471
threshold=-0.16032271181767063 -1.2103505301530053 -0.99441273274032704 -0.41694979996937026 0.061802222712023423 -0.24630151737927311 -0.22785511324787952 3.1518213739392325 1.0000000180025095e-35 -0.24179085966798688 -1.3582209783812527 -1.2948479291405752 -1.3769981781562681 -0.24489595887689011 0.22258452767786627 0.35519850108891343 2.5691619295806745 -0.33369001565696849 -0.58366148766186254 -0.67784761563023588 0.40434248516477234 0.43062224506138608 -0.70947159328609832 -0.73318957652799521 -0.99206857849281527 -0.014082367375433036 0.5500119487546995 0.5500119487546995 0.43617517511866782 -0.80392552818092688
decision_type=2 2 2 2 2 2 2 2 2 2 2 2 2 2 2 2 2 2 2 2 2 2 2 2 2 2 2 2 2 2
left_child=27 3 -3 7 5 -4 -7 9 -9 -2 -11 -12 -5 14 17 16 -16 18 -6 -19 26 -22 23 -23 -24 -14 -17 28 -1 -30
right_child=1 2 4 12 13 6 -8 8 -10 10 11 -13 25 -15 15 20 -18 19 -20 -21 21 22 24 -25 -26 -27 -28 -29 29 -31
leaf_value=-0.00017313672056268702 0.0063922235618378981 -0.0068033462516437814 0.00092105329561146729 0.0077069419572192632 -0.0024676490936753823 -0.0071678950509522117 0.01943698499322017 0.0076540048855046443 -0.015889283116917969 -0.025366540146725521 0.014121211282908917 -0.011212492635583177 0.017901768872760376 -0.0009876650407869838 0.032222807253710926 0.034461800123636539 -0.0048204619098793375 0.014370819143368864 0.015367766706780953 -0.0088370529097198652 -0.010766823602082967 0.0023983377872443781 0.017181422194886591 0.046999618525688465 0.00046759722302260905 0.048097905982285742 0.0021389069987218018 -0.0013594667980844856 -0.0061231557294608111 0.0083728078575922727
leaf_weight=18622 1083 551 412 89 103 32 188 60 84 28 40 51 53 2276 80 26 22 32 99 298 91 41 62 26 515 20 23 8635 252 790
leaf_count=18622 1083 551 412 89 103 32 188 60 84 28 40 51 53 2276 80 26 22 32 99 298 91 41 62 26 515 20 23 8635 252 790
internal_value=0 0.0015492 0.000402897 0.00525646 0.00132075 0.00601939 0.0155672 0.00395993 -0.00607958 0.00516267 -0.00602733 -7.67986e-05 0.0160288 0.00051687 0.00293177 0.0057151 0.0242331 -0.00170364 0.00627347 -0.00658659 0.00330587 0.00224027 0.00407823 0.0197063 0.00226354 0.0261747 0.0192898 -0.000349541 9.39448e-05 0.00486707
internal_weight=0 6385 4877 1508 4326 632 220 1346 144 1202 119 91 162 3694 1418 886 102 532 202 330 784 735 644 67 577 73 49 28299 19664 1042
internal_count=34684 6385 4877 1508 4326 632 220 1346 144 1202 119 91 162 3694 1418 886 102 532 202 330 784 735 644 67 577 73 49 28299 19664 1042
is_linear=0
shrinkage=0.1


Tree=32
num_leaves=31
num_cat=0
split_feature=1 3 12 15 11 3 3 5 15 15 3 15 3 3 7 3 4 2 3 13 3 3 7 3 15 12 15 14 15 12
split_gain=1.57382 2.45559 2.06068 2.2038 1.77651 1.64606 2.091 1.90378 1.53795 1.61136 1.3214 1.19097 1.35746 2.20067 1.21772 1.2425 1.05887 1.02704 0.970375 1.26168 2.04364 2.70096 2.44645 1.7233 2.15796 1.55128 1.49486 2.16282 1.18023 1.72308
threshold=-0.24241004296290211 0.22258452767786627 -0.002694069641067155 -0.73318957652799521 1.0000000180025095e-35 1.0100533432425798 0.45612594987962179 -0.89288566211372433 0.18390577549201717 -0.51182173293695776 -1.4732313270032227 -0.72528358211402966 -1.1939204803498669 -0.58366148766186254 0.58301451676061899 -1.2572935295905443 1.7534387074786932 0.47688835589392059 -0.2210268170068754 -0.19497213722010601 -1.1751432805748514 -0.9286925335277727 0.27094523265927917 -1.3582209783812527 -0.47229176086712971 -0.0026391551371244843 -0.70156559887213277 -2.1486916095624324 -0.70156559887213277 -0.0026042999248243426
decision_type=2 2 2 2 2 2 2 2 2 2 2 2 2 2 2 2 2 2 2 2 2 2 2 2 2 2 2 2 2 2
left_child=1 4 -3 -4 -1 6 7 -5 9 -8 -6 12 14 16 15 -12 -14 -2 19 26 22 -22 23 -21 25 -25 27 -13 29 -27
right_child=17 2 3 5 10 -7 8 -9 -10 -11 11 18 13 -15 -16 -17 -18 -19 -20 20 21 -23 -24 24 -26 28 -28 -29 -30 -31
leaf_value=0.004447208915935098 -0.00059442475458607838 -0.0057540287406326416 -0.010010232193903491 0.0011474538945926811 -0.015354374748739331 0.039147660806775092 0.0048185601523609914 0.02301499830093235 -0.016403110733916683 0.032428834781698557 0.0067494325126570311 0.0091744246050005866 -0.016295305469745322 0.024302801489830019 -0.014689320775990687 0.025714446898353727 0.0066439256899886671 0.0016300951175168355 -0.003881243539413548 0.0059920995723318736 -0.0087812697017652097 0.0044379914111793766 -0.0061050597704015675 0.030371874570846558 0.044511762564070523 0.015791505798697474 -0.00030455891411098788 -0.031005925826124242 0.016810045755383644 -0.0247641151601618
leaf_weight=1074 23448 111 55 53 55 20 261 160 31 23 380 21 79 22 24 38 27 2277 638 244 247 413 100 41 28 20 4680 37 55 22
leaf_count=1074 23448 111 55 53 55 20 261 160 31 23 380 21 79 22 24 38 27 2277 638 244 247 413 100 41 28 20 4680 37 55 22
internal_value=0 0.00114146 0.00676739 0.00907233 0.000654266 0.0109876 0.00992088 0.0175738 0.00474607 0.0070546 8.61977e-05 0.000205539 0.00458966 -0.00447876 0.00721581 0.00847352 -0.0104523 -0.000397526 -0.000176214 0.00022389 0.00316464 -0.000509217 0.00791905 0.0113396 0.0191997 0.0140639 -0.000502299 -0.0164579 0.00717085 -0.00545191
internal_weight=0 8959 714 603 8245 548 528 213 315 284 7171 7116 570 128 442 418 106 25725 6546 5908 1170 660 510 410 166 138 4738 58 97 42
